Language model created by QuickLM on Sun Mar  5 16:09:49 EST 2017
Copyright (c) 1996-2010 Carnegie Mellon University and Alexander I. Rudnicky

The model is in standard ARPA format, designed by Doug Paul while he was at MITRE.

The code that was used to produce this language model is available in Open Source.
Please visit http://www.speech.cs.cmu.edu/tools/ for more information

The (fixed) discount mass is 0.5. The backoffs are computed using the ratio method.
This model based on a corpus of 1028 sentences and 1057 words

\data\
ngram 1=1057
ngram 2=2193
ngram 3=2276

\1-grams:
-4.3893 0 -0.2976
-4.3893 0(2) -0.2922
-4.3893 1 -0.2957
-4.3893 10 -0.2957
-4.3893 100 -0.2957
-4.3893 101 -0.2957
-4.3893 102 -0.2957
-4.3893 103 -0.2957
-4.3893 104 -0.2957
-4.3893 105 -0.2957
-4.3893 106 -0.2957
-4.3893 107 -0.2957
-4.3893 108 -0.2957
-4.3893 109 -0.2957
-4.3893 11 -0.2957
-4.3893 110 -0.2957
-4.3893 111 -0.2957
-4.3893 112 -0.2957
-4.3893 113 -0.2957
-4.3893 114 -0.2957
-4.3893 115 -0.2957
-4.3893 116 -0.2957
-4.3893 117 -0.2957
-4.3893 118 -0.2957
-4.3893 119 -0.2957
-4.3893 12 -0.2957
-4.3893 120 -0.2957
-4.3893 121 -0.2957
-4.3893 122 -0.2957
-4.3893 123 -0.2957
-4.3893 124 -0.2957
-4.3893 125 -0.2957
-4.3893 126 -0.2957
-4.3893 127 -0.2957
-4.3893 128 -0.2957
-4.3893 129 -0.2957
-4.3893 13 -0.2957
-4.3893 130 -0.2957
-4.3893 131 -0.2957
-4.3893 132 -0.2957
-4.3893 133 -0.2957
-4.3893 134 -0.2957
-4.3893 135 -0.2957
-4.3893 136 -0.2957
-4.3893 137 -0.2957
-4.3893 138 -0.2957
-4.3893 139 -0.2957
-4.3893 14 -0.2957
-4.3893 140 -0.2957
-4.3893 141 -0.2957
-4.3893 142 -0.2957
-4.3893 143 -0.2957
-4.3893 144 -0.2957
-4.3893 145 -0.2957
-4.3893 146 -0.2957
-4.3893 147 -0.2957
-4.3893 148 -0.2957
-4.3893 149 -0.2957
-4.3893 15 -0.2957
-4.3893 150 -0.2957
-4.3893 151 -0.2957
-4.3893 152 -0.2957
-4.3893 153 -0.2957
-4.3893 154 -0.2957
-4.3893 155 -0.2957
-4.3893 156 -0.2957
-4.3893 157 -0.2957
-4.3893 158 -0.2957
-4.3893 159 -0.2957
-4.3893 16 -0.2957
-4.3893 160 -0.2957
-4.3893 161 -0.2957
-4.3893 162 -0.2957
-4.3893 163 -0.2957
-4.3893 164 -0.2957
-4.3893 165 -0.2957
-4.3893 166 -0.2957
-4.3893 167 -0.2957
-4.3893 168 -0.2957
-4.3893 169 -0.2957
-4.3893 17 -0.2957
-4.3893 170 -0.2957
-4.3893 171 -0.2957
-4.3893 172 -0.2957
-4.3893 173 -0.2957
-4.3893 174 -0.2957
-4.3893 175 -0.2957
-4.3893 176 -0.2957
-4.3893 177 -0.2957
-4.3893 178 -0.2957
-4.3893 179 -0.2957
-4.3893 18 -0.2957
-4.3893 180 -0.2957
-4.3893 181 -0.2957
-4.3893 182 -0.2957
-4.3893 183 -0.2957
-4.3893 184 -0.2957
-4.3893 185 -0.2957
-4.3893 186 -0.2957
-4.3893 187 -0.2957
-4.3893 188 -0.2957
-4.3893 189 -0.2957
-4.3893 19 -0.2957
-4.3893 190 -0.2957
-4.3893 191 -0.2957
-4.3893 192 -0.2957
-4.3893 193 -0.2957
-4.3893 194 -0.2957
-4.3893 195 -0.2957
-4.3893 196 -0.2957
-4.3893 197 -0.2957
-4.3893 198 -0.2957
-4.3893 199 -0.2957
-4.3893 2 -0.2906
-4.3893 20 -0.2906
-4.3893 200 -0.2906
-4.3893 201 -0.2906
-4.3893 202 -0.2906
-4.3893 203 -0.2906
-4.3893 204 -0.2906
-4.3893 205 -0.2906
-4.3893 206 -0.2906
-4.3893 207 -0.2906
-4.3893 208 -0.2906
-4.3893 209 -0.2906
-4.3893 21 -0.2906
-4.3893 210 -0.2906
-4.3893 211 -0.2906
-4.3893 212 -0.2906
-4.3893 213 -0.2906
-4.3893 214 -0.2906
-4.3893 215 -0.2906
-4.3893 216 -0.2906
-4.3893 217 -0.2906
-4.3893 218 -0.2906
-4.3893 219 -0.2906
-4.3893 22 -0.2906
-4.3893 220 -0.2906
-4.3893 221 -0.2906
-4.3893 222 -0.2906
-4.3893 223 -0.2906
-4.3893 224 -0.2906
-4.3893 225 -0.2906
-4.3893 226 -0.2906
-4.3893 227 -0.2906
-4.3893 228 -0.2906
-4.3893 229 -0.2906
-4.3893 23 -0.2906
-4.3893 230 -0.2906
-4.3893 231 -0.2906
-4.3893 232 -0.2906
-4.3893 233 -0.2906
-4.3893 234 -0.2906
-4.3893 235 -0.2906
-4.3893 236 -0.2906
-4.3893 237 -0.2906
-4.3893 238 -0.2906
-4.3893 239 -0.2906
-4.3893 24 -0.2906
-4.3893 240 -0.2906
-4.3893 241 -0.2906
-4.3893 242 -0.2906
-4.3893 243 -0.2906
-4.3893 244 -0.2906
-4.3893 245 -0.2906
-4.3893 246 -0.2906
-4.3893 247 -0.2906
-4.3893 248 -0.2906
-4.3893 249 -0.2906
-4.3893 25 -0.2906
-4.3893 250 -0.2906
-4.3893 251 -0.2906
-4.3893 252 -0.2906
-4.3893 253 -0.2906
-4.3893 254 -0.2906
-4.3893 255 -0.2906
-4.3893 256 -0.2906
-4.3893 257 -0.2906
-4.3893 258 -0.2906
-4.3893 259 -0.2906
-4.3893 26 -0.2906
-4.3893 260 -0.2906
-4.3893 261 -0.2906
-4.3893 262 -0.2906
-4.3893 263 -0.2906
-4.3893 264 -0.2906
-4.3893 265 -0.2906
-4.3893 266 -0.2906
-4.3893 267 -0.2906
-4.3893 268 -0.2906
-4.3893 269 -0.2906
-4.3893 27 -0.2906
-4.3893 270 -0.2906
-4.3893 271 -0.2906
-4.3893 272 -0.2906
-4.3893 273 -0.2906
-4.3893 274 -0.2906
-4.3893 275 -0.2906
-4.3893 276 -0.2906
-4.3893 277 -0.2906
-4.3893 278 -0.2906
-4.3893 279 -0.2906
-4.3893 28 -0.2906
-4.3893 280 -0.2906
-4.3893 281 -0.2906
-4.3893 282 -0.2906
-4.3893 283 -0.2906
-4.3893 284 -0.2906
-4.3893 285 -0.2906
-4.3893 286 -0.2906
-4.3893 287 -0.2906
-4.3893 288 -0.2906
-4.3893 289 -0.2906
-4.3893 29 -0.2906
-4.3893 290 -0.2906
-4.3893 291 -0.2906
-4.3893 292 -0.2906
-4.3893 293 -0.2906
-4.3893 294 -0.2906
-4.3893 295 -0.2906
-4.3893 296 -0.2906
-4.3893 297 -0.2906
-4.3893 298 -0.2906
-4.3893 299 -0.2906
-4.3893 3 -0.2956
-4.3893 30 -0.2956
-4.3893 300 -0.2956
-4.3893 301 -0.2956
-4.3893 302 -0.2956
-4.3893 303 -0.2956
-4.3893 304 -0.2956
-4.3893 305 -0.2956
-4.3893 306 -0.2956
-4.3893 307 -0.2956
-4.3893 308 -0.2956
-4.3893 309 -0.2956
-4.3893 31 -0.2956
-4.3893 310 -0.2956
-4.3893 311 -0.2956
-4.3893 312 -0.2956
-4.3893 313 -0.2956
-4.3893 314 -0.2956
-4.3893 315 -0.2956
-4.3893 316 -0.2956
-4.3893 317 -0.2956
-4.3893 318 -0.2956
-4.3893 319 -0.2956
-4.3893 32 -0.2956
-4.3893 320 -0.2956
-4.3893 321 -0.2956
-4.3893 322 -0.2956
-4.3893 323 -0.2956
-4.3893 324 -0.2956
-4.3893 325 -0.2956
-4.3893 326 -0.2956
-4.3893 327 -0.2956
-4.3893 328 -0.2956
-4.3893 329 -0.2956
-4.3893 33 -0.2956
-4.3893 330 -0.2956
-4.3893 331 -0.2956
-4.3893 332 -0.2956
-4.3893 333 -0.2956
-4.3893 334 -0.2956
-4.3893 335 -0.2956
-4.3893 336 -0.2956
-4.3893 337 -0.2956
-4.3893 338 -0.2956
-4.3893 339 -0.2956
-4.3893 34 -0.2956
-4.3893 340 -0.2956
-4.3893 341 -0.2956
-4.3893 342 -0.2956
-4.3893 343 -0.2956
-4.3893 344 -0.2956
-4.3893 345 -0.2956
-4.3893 346 -0.2956
-4.3893 347 -0.2956
-4.3893 348 -0.2956
-4.3893 349 -0.2956
-4.3893 35 -0.2956
-4.3893 350 -0.2956
-4.3893 351 -0.2956
-4.3893 352 -0.2956
-4.3893 353 -0.2956
-4.3893 354 -0.2956
-4.3893 355 -0.2956
-4.3893 356 -0.2956
-4.3893 357 -0.2956
-4.3893 358 -0.2956
-4.3893 359 -0.2956
-4.3893 36 -0.2956
-4.3893 360 -0.2956
-4.3893 361 -0.2956
-4.3893 362 -0.2956
-4.3893 363 -0.2956
-4.3893 364 -0.2956
-4.3893 365 -0.2956
-4.3893 366 -0.2956
-4.3893 367 -0.2956
-4.3893 368 -0.2956
-4.3893 369 -0.2956
-4.3893 37 -0.2956
-4.3893 370 -0.2956
-4.3893 371 -0.2956
-4.3893 372 -0.2956
-4.3893 373 -0.2956
-4.3893 374 -0.2956
-4.3893 375 -0.2956
-4.3893 376 -0.2956
-4.3893 377 -0.2956
-4.3893 378 -0.2956
-4.3893 379 -0.2956
-4.3893 38 -0.2956
-4.3893 380 -0.2956
-4.3893 381 -0.2956
-4.3893 382 -0.2956
-4.3893 383 -0.2956
-4.3893 384 -0.2956
-4.3893 385 -0.2956
-4.3893 386 -0.2956
-4.3893 387 -0.2956
-4.3893 388 -0.2956
-4.3893 389 -0.2956
-4.3893 39 -0.2956
-4.3893 390 -0.2956
-4.3893 391 -0.2956
-4.3893 392 -0.2956
-4.3893 393 -0.2956
-4.3893 394 -0.2956
-4.3893 395 -0.2956
-4.3893 396 -0.2956
-4.3893 397 -0.2956
-4.3893 398 -0.2956
-4.3893 399 -0.2956
-4.3893 4 -0.2902
-4.3893 40 -0.2902
-4.3893 400 -0.2902
-4.3893 401 -0.2902
-4.3893 402 -0.2902
-4.3893 403 -0.2902
-4.3893 404 -0.2902
-4.3893 405 -0.2902
-4.3893 406 -0.2902
-4.3893 407 -0.2902
-4.3893 408 -0.2902
-4.3893 409 -0.2902
-4.3893 41 -0.2902
-4.3893 410 -0.2902
-4.3893 411 -0.2902
-4.3893 412 -0.2902
-4.3893 413 -0.2902
-4.3893 414 -0.2902
-4.3893 415 -0.2902
-4.3893 416 -0.2902
-4.3893 417 -0.2902
-4.3893 418 -0.2902
-4.3893 419 -0.2902
-4.3893 42 -0.2902
-4.3893 420 -0.2902
-4.3893 421 -0.2902
-4.3893 422 -0.2902
-4.3893 423 -0.2902
-4.3893 424 -0.2902
-4.3893 425 -0.2902
-4.3893 426 -0.2902
-4.3893 427 -0.2902
-4.3893 428 -0.2902
-4.3893 429 -0.2902
-4.3893 43 -0.2902
-4.3893 430 -0.2902
-4.3893 431 -0.2902
-4.3893 432 -0.2902
-4.3893 433 -0.2902
-4.3893 434 -0.2902
-4.3893 435 -0.2902
-4.3893 436 -0.2902
-4.3893 437 -0.2902
-4.3893 438 -0.2902
-4.3893 439 -0.2902
-4.3893 44 -0.2902
-4.3893 440 -0.2902
-4.3893 441 -0.2902
-4.3893 442 -0.2902
-4.3893 443 -0.2902
-4.3893 444 -0.2902
-4.3893 445 -0.2902
-4.3893 446 -0.2902
-4.3893 447 -0.2902
-4.3893 448 -0.2902
-4.3893 449 -0.2902
-4.3893 45 -0.2902
-4.3893 450 -0.2902
-4.3893 451 -0.2902
-4.3893 452 -0.2902
-4.3893 453 -0.2902
-4.3893 454 -0.2902
-4.3893 455 -0.2902
-4.3893 456 -0.2902
-4.3893 457 -0.2902
-4.3893 458 -0.2902
-4.3893 459 -0.2902
-4.3893 46 -0.2902
-4.3893 460 -0.2902
-4.3893 461 -0.2902
-4.3893 462 -0.2902
-4.3893 463 -0.2902
-4.3893 464 -0.2902
-4.3893 465 -0.2902
-4.3893 466 -0.2902
-4.3893 467 -0.2902
-4.3893 468 -0.2902
-4.3893 469 -0.2902
-4.3893 47 -0.2902
-4.3893 470 -0.2902
-4.3893 471 -0.2902
-4.3893 472 -0.2902
-4.3893 473 -0.2902
-4.3893 474 -0.2902
-4.3893 475 -0.2902
-4.3893 476 -0.2902
-4.3893 477 -0.2902
-4.3893 478 -0.2902
-4.3893 479 -0.2902
-4.3893 48 -0.2902
-4.3893 480 -0.2902
-4.3893 481 -0.2902
-4.3893 482 -0.2902
-4.3893 483 -0.2902
-4.3893 484 -0.2902
-4.3893 485 -0.2902
-4.3893 486 -0.2902
-4.3893 487 -0.2902
-4.3893 488 -0.2902
-4.3893 489 -0.2902
-4.3893 49 -0.2902
-4.3893 490 -0.2902
-4.3893 491 -0.2902
-4.3893 492 -0.2902
-4.3893 493 -0.2902
-4.3893 494 -0.2902
-4.3893 495 -0.2902
-4.3893 496 -0.2902
-4.3893 497 -0.2902
-4.3893 498 -0.2902
-4.3893 499 -0.2902
-4.3893 5 -0.2902
-4.3893 50 -0.2902
-4.3893 500 -0.2902
-4.3893 501 -0.2902
-4.3893 502 -0.2902
-4.3893 503 -0.2902
-4.3893 504 -0.2902
-4.3893 505 -0.2902
-4.3893 506 -0.2902
-4.3893 507 -0.2902
-4.3893 508 -0.2902
-4.3893 509 -0.2902
-4.3893 51 -0.2902
-4.3893 510 -0.2902
-4.3893 511 -0.2902
-4.3893 512 -0.2902
-4.3893 513 -0.2902
-4.3893 514 -0.2902
-4.3893 515 -0.2902
-4.3893 516 -0.2902
-4.3893 517 -0.2902
-4.3893 518 -0.2902
-4.3893 519 -0.2902
-4.3893 52 -0.2902
-4.3893 520 -0.2902
-4.3893 521 -0.2902
-4.3893 522 -0.2902
-4.3893 523 -0.2902
-4.3893 524 -0.2902
-4.3893 525 -0.2902
-4.3893 526 -0.2902
-4.3893 527 -0.2902
-4.3893 528 -0.2902
-4.3893 529 -0.2902
-4.3893 53 -0.2902
-4.3893 530 -0.2902
-4.3893 531 -0.2902
-4.3893 532 -0.2902
-4.3893 533 -0.2902
-4.3893 534 -0.2902
-4.3893 535 -0.2902
-4.3893 536 -0.2902
-4.3893 537 -0.2902
-4.3893 538 -0.2902
-4.3893 539 -0.2902
-4.3893 54 -0.2902
-4.3893 540 -0.2902
-4.3893 541 -0.2902
-4.3893 542 -0.2902
-4.3893 543 -0.2902
-4.3893 544 -0.2902
-4.3893 545 -0.2902
-4.3893 546 -0.2902
-4.3893 547 -0.2902
-4.3893 548 -0.2902
-4.3893 549 -0.2902
-4.3893 55 -0.2902
-4.3893 550 -0.2902
-4.3893 551 -0.2902
-4.3893 552 -0.2902
-4.3893 553 -0.2902
-4.3893 554 -0.2902
-4.3893 555 -0.2902
-4.3893 556 -0.2902
-4.3893 557 -0.2902
-4.3893 558 -0.2902
-4.3893 559 -0.2902
-4.3893 56 -0.2902
-4.3893 560 -0.2902
-4.3893 561 -0.2902
-4.3893 562 -0.2902
-4.3893 563 -0.2902
-4.3893 564 -0.2902
-4.3893 565 -0.2902
-4.3893 566 -0.2902
-4.3893 567 -0.2902
-4.3893 568 -0.2902
-4.3893 569 -0.2902
-4.3893 57 -0.2902
-4.3893 570 -0.2902
-4.3893 571 -0.2902
-4.3893 572 -0.2902
-4.3893 573 -0.2902
-4.3893 574 -0.2902
-4.3893 575 -0.2902
-4.3893 576 -0.2902
-4.3893 577 -0.2902
-4.3893 578 -0.2902
-4.3893 579 -0.2902
-4.3893 58 -0.2902
-4.3893 580 -0.2902
-4.3893 581 -0.2902
-4.3893 582 -0.2902
-4.3893 583 -0.2902
-4.3893 584 -0.2902
-4.3893 585 -0.2902
-4.3893 586 -0.2902
-4.3893 587 -0.2902
-4.3893 588 -0.2902
-4.3893 589 -0.2902
-4.3893 59 -0.2902
-4.3893 590 -0.2902
-4.3893 591 -0.2902
-4.3893 592 -0.2902
-4.3893 593 -0.2902
-4.3893 594 -0.2902
-4.3893 595 -0.2902
-4.3893 596 -0.2902
-4.3893 597 -0.2902
-4.3893 598 -0.2902
-4.3893 599 -0.2902
-4.3893 6 -0.2854
-4.3893 60 -0.2854
-4.3893 600 -0.2854
-4.3893 601 -0.2854
-4.3893 602 -0.2854
-4.3893 603 -0.2854
-4.3893 604 -0.2854
-4.3893 605 -0.2854
-4.3893 606 -0.2854
-4.3893 607 -0.2854
-4.3893 608 -0.2854
-4.3893 609 -0.2854
-4.3893 61 -0.2854
-4.3893 610 -0.2854
-4.3893 611 -0.2854
-4.3893 612 -0.2854
-4.3893 613 -0.2854
-4.3893 614 -0.2854
-4.3893 615 -0.2854
-4.3893 616 -0.2854
-4.3893 617 -0.2854
-4.3893 618 -0.2854
-4.3893 619 -0.2854
-4.3893 62 -0.2854
-4.3893 620 -0.2854
-4.3893 621 -0.2854
-4.3893 622 -0.2854
-4.3893 623 -0.2854
-4.3893 624 -0.2854
-4.3893 625 -0.2854
-4.3893 626 -0.2854
-4.3893 627 -0.2854
-4.3893 628 -0.2854
-4.3893 629 -0.2854
-4.3893 63 -0.2854
-4.3893 630 -0.2854
-4.3893 631 -0.2854
-4.3893 632 -0.2854
-4.3893 633 -0.2854
-4.3893 634 -0.2854
-4.3893 635 -0.2854
-4.3893 636 -0.2854
-4.3893 637 -0.2854
-4.3893 638 -0.2854
-4.3893 639 -0.2854
-4.3893 64 -0.2854
-4.3893 640 -0.2854
-4.3893 641 -0.2854
-4.3893 642 -0.2854
-4.3893 643 -0.2854
-4.3893 644 -0.2854
-4.3893 645 -0.2854
-4.3893 646 -0.2854
-4.3893 647 -0.2854
-4.3893 648 -0.2854
-4.3893 649 -0.2854
-4.3893 65 -0.2854
-4.3893 650 -0.2854
-4.3893 651 -0.2854
-4.3893 652 -0.2854
-4.3893 653 -0.2854
-4.3893 654 -0.2854
-4.3893 655 -0.2854
-4.3893 656 -0.2854
-4.3893 657 -0.2854
-4.3893 658 -0.2854
-4.3893 659 -0.2854
-4.3893 66 -0.2854
-4.3893 660 -0.2854
-4.3893 661 -0.2854
-4.3893 662 -0.2854
-4.3893 663 -0.2854
-4.3893 664 -0.2854
-4.3893 665 -0.2854
-4.3893 666 -0.2854
-4.3893 667 -0.2854
-4.3893 668 -0.2854
-4.3893 669 -0.2854
-4.3893 67 -0.2854
-4.3893 670 -0.2854
-4.3893 671 -0.2854
-4.3893 672 -0.2854
-4.3893 673 -0.2854
-4.3893 674 -0.2854
-4.3893 675 -0.2854
-4.3893 676 -0.2854
-4.3893 677 -0.2854
-4.3893 678 -0.2854
-4.3893 679 -0.2854
-4.3893 68 -0.2854
-4.3893 680 -0.2854
-4.3893 681 -0.2854
-4.3893 682 -0.2854
-4.3893 683 -0.2854
-4.3893 684 -0.2854
-4.3893 685 -0.2854
-4.3893 686 -0.2854
-4.3893 687 -0.2854
-4.3893 688 -0.2854
-4.3893 689 -0.2854
-4.3893 69 -0.2854
-4.3893 690 -0.2854
-4.3893 691 -0.2854
-4.3893 692 -0.2854
-4.3893 693 -0.2854
-4.3893 694 -0.2854
-4.3893 695 -0.2854
-4.3893 696 -0.2854
-4.3893 697 -0.2854
-4.3893 698 -0.2854
-4.3893 699 -0.2854
-4.3893 7 -0.2854
-4.3893 70 -0.2854
-4.3893 700 -0.2854
-4.3893 701 -0.2854
-4.3893 702 -0.2854
-4.3893 703 -0.2854
-4.3893 704 -0.2854
-4.3893 705 -0.2854
-4.3893 706 -0.2854
-4.3893 707 -0.2854
-4.3893 708 -0.2854
-4.3893 709 -0.2854
-4.3893 71 -0.2854
-4.3893 710 -0.2854
-4.3893 711 -0.2854
-4.3893 712 -0.2854
-4.3893 713 -0.2854
-4.3893 714 -0.2854
-4.3893 715 -0.2854
-4.3893 716 -0.2854
-4.3893 717 -0.2854
-4.3893 718 -0.2854
-4.3893 719 -0.2854
-4.3893 72 -0.2854
-4.3893 720 -0.2854
-4.3893 721 -0.2854
-4.3893 722 -0.2854
-4.3893 723 -0.2854
-4.3893 724 -0.2854
-4.3893 725 -0.2854
-4.3893 726 -0.2854
-4.3893 727 -0.2854
-4.3893 728 -0.2854
-4.3893 729 -0.2854
-4.3893 73 -0.2854
-4.3893 730 -0.2854
-4.3893 731 -0.2854
-4.3893 732 -0.2854
-4.3893 733 -0.2854
-4.3893 734 -0.2854
-4.3893 735 -0.2854
-4.3893 736 -0.2854
-4.3893 737 -0.2854
-4.3893 738 -0.2854
-4.3893 739 -0.2854
-4.3893 74 -0.2854
-4.3893 740 -0.2854
-4.3893 741 -0.2854
-4.3893 742 -0.2854
-4.3893 743 -0.2854
-4.3893 744 -0.2854
-4.3893 745 -0.2854
-4.3893 746 -0.2854
-4.3893 747 -0.2854
-4.3893 748 -0.2854
-4.3893 749 -0.2854
-4.3893 75 -0.2854
-4.3893 750 -0.2854
-4.3893 751 -0.2854
-4.3893 752 -0.2854
-4.3893 753 -0.2854
-4.3893 754 -0.2854
-4.3893 755 -0.2854
-4.3893 756 -0.2854
-4.3893 757 -0.2854
-4.3893 758 -0.2854
-4.3893 759 -0.2854
-4.3893 76 -0.2854
-4.3893 760 -0.2854
-4.3893 761 -0.2854
-4.3893 762 -0.2854
-4.3893 763 -0.2854
-4.3893 764 -0.2854
-4.3893 765 -0.2854
-4.3893 766 -0.2854
-4.3893 767 -0.2854
-4.3893 768 -0.2854
-4.3893 769 -0.2854
-4.3893 77 -0.2854
-4.3893 770 -0.2854
-4.3893 771 -0.2854
-4.3893 772 -0.2854
-4.3893 773 -0.2854
-4.3893 774 -0.2854
-4.3893 775 -0.2854
-4.3893 776 -0.2854
-4.3893 777 -0.2854
-4.3893 778 -0.2854
-4.3893 779 -0.2854
-4.3893 78 -0.2854
-4.3893 780 -0.2854
-4.3893 781 -0.2854
-4.3893 782 -0.2854
-4.3893 783 -0.2854
-4.3893 784 -0.2854
-4.3893 785 -0.2854
-4.3893 786 -0.2854
-4.3893 787 -0.2854
-4.3893 788 -0.2854
-4.3893 789 -0.2854
-4.3893 79 -0.2854
-4.3893 790 -0.2854
-4.3893 791 -0.2854
-4.3893 792 -0.2854
-4.3893 793 -0.2854
-4.3893 794 -0.2854
-4.3893 795 -0.2854
-4.3893 796 -0.2854
-4.3893 797 -0.2854
-4.3893 798 -0.2854
-4.3893 799 -0.2854
-4.3893 8 -0.2956
-4.3893 80 -0.2956
-4.3893 800 -0.2956
-4.3893 801 -0.2956
-4.3893 802 -0.2956
-4.3893 803 -0.2956
-4.3893 804 -0.2956
-4.3893 805 -0.2956
-4.3893 806 -0.2956
-4.3893 807 -0.2956
-4.3893 808 -0.2956
-4.3893 809 -0.2956
-4.3893 81 -0.2956
-4.3893 810 -0.2956
-4.3893 811 -0.2956
-4.3893 812 -0.2956
-4.3893 813 -0.2956
-4.3893 814 -0.2956
-4.3893 815 -0.2956
-4.3893 816 -0.2956
-4.3893 817 -0.2956
-4.3893 818 -0.2956
-4.3893 819 -0.2956
-4.3893 82 -0.2956
-4.3893 820 -0.2956
-4.3893 821 -0.2956
-4.3893 822 -0.2956
-4.3893 823 -0.2956
-4.3893 824 -0.2956
-4.3893 825 -0.2956
-4.3893 826 -0.2956
-4.3893 827 -0.2956
-4.3893 828 -0.2956
-4.3893 829 -0.2956
-4.3893 83 -0.2956
-4.3893 830 -0.2956
-4.3893 831 -0.2956
-4.3893 832 -0.2956
-4.3893 833 -0.2956
-4.3893 834 -0.2956
-4.3893 835 -0.2956
-4.3893 836 -0.2956
-4.3893 837 -0.2956
-4.3893 838 -0.2956
-4.3893 839 -0.2956
-4.3893 84 -0.2956
-4.3893 840 -0.2956
-4.3893 841 -0.2956
-4.3893 842 -0.2956
-4.3893 843 -0.2956
-4.3893 844 -0.2956
-4.3893 845 -0.2956
-4.3893 846 -0.2956
-4.3893 847 -0.2956
-4.3893 848 -0.2956
-4.3893 849 -0.2956
-4.3893 85 -0.2956
-4.3893 850 -0.2956
-4.3893 851 -0.2956
-4.3893 852 -0.2956
-4.3893 853 -0.2956
-4.3893 854 -0.2956
-4.3893 855 -0.2956
-4.3893 856 -0.2956
-4.3893 857 -0.2956
-4.3893 858 -0.2956
-4.3893 859 -0.2956
-4.3893 86 -0.2956
-4.3893 860 -0.2956
-4.3893 861 -0.2956
-4.3893 862 -0.2956
-4.3893 863 -0.2956
-4.3893 864 -0.2956
-4.3893 865 -0.2956
-4.3893 866 -0.2956
-4.3893 867 -0.2956
-4.3893 868 -0.2956
-4.3893 869 -0.2956
-4.3893 87 -0.2956
-4.3893 870 -0.2956
-4.3893 871 -0.2956
-4.3893 872 -0.2956
-4.3893 873 -0.2956
-4.3893 874 -0.2956
-4.3893 875 -0.2956
-4.3893 876 -0.2956
-4.3893 877 -0.2956
-4.3893 878 -0.2956
-4.3893 879 -0.2956
-4.3893 88 -0.2956
-4.3893 880 -0.2956
-4.3893 881 -0.2956
-4.3893 882 -0.2956
-4.3893 883 -0.2956
-4.3893 884 -0.2956
-4.3893 885 -0.2956
-4.3893 886 -0.2956
-4.3893 887 -0.2956
-4.3893 888 -0.2956
-4.3893 889 -0.2956
-4.3893 89 -0.2956
-4.3893 890 -0.2956
-4.3893 891 -0.2956
-4.3893 892 -0.2956
-4.3893 893 -0.2956
-4.3893 894 -0.2956
-4.3893 895 -0.2956
-4.3893 896 -0.2956
-4.3893 897 -0.2956
-4.3893 898 -0.2956
-4.3893 899 -0.2956
-4.3893 9 -0.2801
-4.3893 90 -0.2801
-4.3893 900 -0.2801
-4.3893 901 -0.2801
-4.3893 902 -0.2801
-4.3893 903 -0.2801
-4.3893 904 -0.2801
-4.3893 905 -0.2801
-4.3893 906 -0.2801
-4.3893 907 -0.2801
-4.3893 908 -0.2801
-4.3893 909 -0.2801
-4.3893 91 -0.2801
-4.3893 910 -0.2801
-4.3893 911 -0.2801
-4.3893 912 -0.2801
-4.3893 913 -0.2801
-4.3893 914 -0.2801
-4.3893 915 -0.2801
-4.3893 916 -0.2801
-4.3893 917 -0.2801
-4.3893 918 -0.2801
-4.3893 919 -0.2801
-4.3893 92 -0.2801
-4.3893 920 -0.2801
-4.3893 921 -0.2801
-4.3893 922 -0.2801
-4.3893 923 -0.2801
-4.3893 924 -0.2801
-4.3893 925 -0.2801
-4.3893 926 -0.2801
-4.3893 927 -0.2801
-4.3893 928 -0.2801
-4.3893 929 -0.2801
-4.3893 93 -0.2801
-4.3893 930 -0.2801
-4.3893 931 -0.2801
-4.3893 932 -0.2801
-4.3893 933 -0.2801
-4.3893 934 -0.2801
-4.3893 935 -0.2801
-4.3893 936 -0.2801
-4.3893 937 -0.2801
-4.3893 938 -0.2801
-4.3893 939 -0.2801
-4.3893 94 -0.2801
-4.3893 940 -0.2801
-4.3893 941 -0.2801
-4.3893 942 -0.2801
-4.3893 943 -0.2801
-4.3893 944 -0.2801
-4.3893 945 -0.2801
-4.3893 946 -0.2801
-4.3893 947 -0.2801
-4.3893 948 -0.2801
-4.3893 949 -0.2801
-4.3893 95 -0.2801
-4.3893 950 -0.2801
-4.3893 951 -0.2801
-4.3893 952 -0.2801
-4.3893 953 -0.2801
-4.3893 954 -0.2801
-4.3893 955 -0.2801
-4.3893 956 -0.2801
-4.3893 957 -0.2801
-4.3893 958 -0.2801
-4.3893 959 -0.2801
-4.3893 96 -0.2801
-4.3893 960 -0.2801
-4.3893 961 -0.2801
-4.3893 962 -0.2801
-4.3893 963 -0.2801
-4.3893 964 -0.2801
-4.3893 965 -0.2801
-4.3893 966 -0.2801
-4.3893 967 -0.2801
-4.3893 968 -0.2801
-4.3893 969 -0.2801
-4.3893 97 -0.2801
-4.3893 970 -0.2801
-4.3893 971 -0.2801
-4.3893 972 -0.2801
-4.3893 973 -0.2801
-4.3893 974 -0.2801
-4.3893 975 -0.2801
-4.3893 976 -0.2801
-4.3893 977 -0.2801
-4.3893 978 -0.2801
-4.3893 979 -0.2801
-4.3893 98 -0.2801
-4.3893 980 -0.2801
-4.3893 981 -0.2801
-4.3893 982 -0.2801
-4.3893 983 -0.2801
-4.3893 984 -0.2801
-4.3893 985 -0.2801
-4.3893 986 -0.2801
-4.3893 987 -0.2801
-4.3893 988 -0.2801
-4.3893 989 -0.2801
-4.3893 99 -0.2801
-4.3893 990 -0.2801
-4.3893 991 -0.2801
-4.3893 992 -0.2801
-4.3893 993 -0.2801
-4.3893 994 -0.2801
-4.3893 995 -0.2801
-4.3893 996 -0.2801
-4.3893 997 -0.2801
-4.3893 998 -0.2801
-4.3893 999 -0.2801
-1.3773 </s> -0.3010
-1.3773 <s> -0.2824
-1.5976 AH -0.2429
-3.9122 AO -0.2754
-1.6111 AY -0.2688
-3.0091 D -0.2456
-4.3893 DIX -0.3006
-4.3893 DIXON -0.3006
-4.3893 DOOR -0.3006
-1.9078 EH -0.2567
-3.7872 ER -0.3006
-1.9093 EY -0.2715
-1.6090 F -0.2434
-4.3893 FENN -0.2902
-4.3893 FH -0.2956
-4.3893 G -0.2922
-4.3893 GO -0.3010
-4.3893 HALL -0.3008
-4.3893 HEAD -0.3008
-4.3893 HEY -0.3008
-3.2431 HH -0.2787
-4.3893 HUNDRED -0.3008
-4.3893 HUNDRED'S -0.3008
-4.3893 HUNDRED(2) -0.3008
-4.3893 HUNDRED(3) -0.3008
-4.3893 HUNDRED(4) -0.3008
-4.3893 HUNDREDS -0.3008
-4.3893 HUNDREDS(2) -0.3008
-4.3893 HUNDREDS(3) -0.3008
-4.3893 HUNDREDTH -0.3008
-4.3893 HUNDREDTHS -0.3008
-4.3893 HUNDREDWEIGHT -0.3008
-1.9050 IH -0.2763
-1.6982 IY -0.1760
-1.9093 K -0.2854
-4.0882 L -0.2732
-4.3893 M -0.2824
-1.3274 N -0.2062
-4.3893 OFFICE -0.3010
-1.6964 OW -0.1760
-4.3893 P -0.3010
-4.3893 PLEASE -0.3010
-1.4867 R -0.1413
-4.3893 ROOM -0.2866
-1.4528 S -0.1862
-1.6229 T -0.1797
-1.9093 TH -0.2505
-4.3893 TO -0.2906
-4.3893 TO(2) -0.2906
-4.3893 TO(3) -0.2906
-1.9093 UW -0.1944
-1.6111 V -0.1802
-1.9107 W -0.2844
-4.3893 Y -0.2922
-4.3893 YO -0.3010
-2.0992 Z -0.2732

\2-grams:
-0.3010 0 Z -0.0110
-0.3010 0(2) OW -0.2531
-0.3010 1 W -0.0014
-0.3010 10 W -0.0014
-0.3010 100 W -0.0014
-0.3010 101 W -0.0014
-0.3010 102 W -0.0014
-0.3010 103 W -0.0014
-0.3010 104 W -0.0014
-0.3010 105 W -0.0014
-0.3010 106 W -0.0014
-0.3010 107 W -0.0014
-0.3010 108 W -0.0014
-0.3010 109 W -0.0014
-0.3010 11 W -0.0014
-0.3010 110 W -0.0014
-0.3010 111 W -0.0014
-0.3010 112 W -0.0014
-0.3010 113 W -0.0014
-0.3010 114 W -0.0014
-0.3010 115 W -0.0014
-0.3010 116 W -0.0014
-0.3010 117 W -0.0014
-0.3010 118 W -0.0014
-0.3010 119 W -0.0014
-0.3010 12 W -0.0014
-0.3010 120 W -0.0014
-0.3010 121 W -0.0014
-0.3010 122 W -0.0014
-0.3010 123 W -0.0014
-0.3010 124 W -0.0014
-0.3010 125 W -0.0014
-0.3010 126 W -0.0014
-0.3010 127 W -0.0014
-0.3010 128 W -0.0014
-0.3010 129 W -0.0014
-0.3010 13 W -0.0014
-0.3010 130 W -0.0014
-0.3010 131 W -0.0014
-0.3010 132 W -0.0014
-0.3010 133 W -0.0014
-0.3010 134 W -0.0014
-0.3010 135 W -0.0014
-0.3010 136 W -0.0014
-0.3010 137 W -0.0014
-0.3010 138 W -0.0014
-0.3010 139 W -0.0014
-0.3010 14 W -0.0014
-0.3010 140 W -0.0014
-0.3010 141 W -0.0014
-0.3010 142 W -0.0014
-0.3010 143 W -0.0014
-0.3010 144 W -0.0014
-0.3010 145 W -0.0014
-0.3010 146 W -0.0014
-0.3010 147 W -0.0014
-0.3010 148 W -0.0014
-0.3010 149 W -0.0014
-0.3010 15 W -0.0014
-0.3010 150 W -0.0014
-0.3010 151 W -0.0014
-0.3010 152 W -0.0014
-0.3010 153 W -0.0014
-0.3010 154 W -0.0014
-0.3010 155 W -0.0014
-0.3010 156 W -0.0014
-0.3010 157 W -0.0014
-0.3010 158 W -0.0014
-0.3010 159 W -0.0014
-0.3010 16 W -0.0014
-0.3010 160 W -0.0014
-0.3010 161 W -0.0014
-0.3010 162 W -0.0014
-0.3010 163 W -0.0014
-0.3010 164 W -0.0014
-0.3010 165 W -0.0014
-0.3010 166 W -0.0014
-0.3010 167 W -0.0014
-0.3010 168 W -0.0014
-0.3010 169 W -0.0014
-0.3010 17 W -0.0014
-0.3010 170 W -0.0014
-0.3010 171 W -0.0014
-0.3010 172 W -0.0014
-0.3010 173 W -0.0014
-0.3010 174 W -0.0014
-0.3010 175 W -0.0014
-0.3010 176 W -0.0014
-0.3010 177 W -0.0014
-0.3010 178 W -0.0014
-0.3010 179 W -0.0014
-0.3010 18 W -0.0014
-0.3010 180 W -0.0014
-0.3010 181 W -0.0014
-0.3010 182 W -0.0014
-0.3010 183 W -0.0014
-0.3010 184 W -0.0014
-0.3010 185 W -0.0014
-0.3010 186 W -0.0014
-0.3010 187 W -0.0014
-0.3010 188 W -0.0014
-0.3010 189 W -0.0014
-0.3010 19 W -0.0014
-0.3010 190 W -0.0014
-0.3010 191 W -0.0014
-0.3010 192 W -0.0014
-0.3010 193 W -0.0014
-0.3010 194 W -0.0014
-0.3010 195 W -0.0014
-0.3010 196 W -0.0014
-0.3010 197 W -0.0014
-0.3010 198 W -0.0014
-0.3010 199 W -0.0014
-0.3010 2 T -0.1716
-0.3010 20 T -0.1716
-0.3010 200 T -0.1716
-0.3010 201 T -0.1716
-0.3010 202 T -0.1716
-0.3010 203 T -0.1716
-0.3010 204 T -0.1716
-0.3010 205 T -0.1716
-0.3010 206 T -0.1716
-0.3010 207 T -0.1716
-0.3010 208 T -0.1716
-0.3010 209 T -0.1716
-0.3010 21 T -0.1716
-0.3010 210 T -0.1716
-0.3010 211 T -0.1716
-0.3010 212 T -0.1716
-0.3010 213 T -0.1716
-0.3010 214 T -0.1716
-0.3010 215 T -0.1716
-0.3010 216 T -0.1716
-0.3010 217 T -0.1716
-0.3010 218 T -0.1716
-0.3010 219 T -0.1716
-0.3010 22 T -0.1716
-0.3010 220 T -0.1716
-0.3010 221 T -0.1716
-0.3010 222 T -0.1716
-0.3010 223 T -0.1716
-0.3010 224 T -0.1716
-0.3010 225 T -0.1716
-0.3010 226 T -0.1716
-0.3010 227 T -0.1716
-0.3010 228 T -0.1716
-0.3010 229 T -0.1716
-0.3010 23 T -0.1716
-0.3010 230 T -0.1716
-0.3010 231 T -0.1716
-0.3010 232 T -0.1716
-0.3010 233 T -0.1716
-0.3010 234 T -0.1716
-0.3010 235 T -0.1716
-0.3010 236 T -0.1716
-0.3010 237 T -0.1716
-0.3010 238 T -0.1716
-0.3010 239 T -0.1716
-0.3010 24 T -0.1716
-0.3010 240 T -0.1716
-0.3010 241 T -0.1716
-0.3010 242 T -0.1716
-0.3010 243 T -0.1716
-0.3010 244 T -0.1716
-0.3010 245 T -0.1716
-0.3010 246 T -0.1716
-0.3010 247 T -0.1716
-0.3010 248 T -0.1716
-0.3010 249 T -0.1716
-0.3010 25 T -0.1716
-0.3010 250 T -0.1716
-0.3010 251 T -0.1716
-0.3010 252 T -0.1716
-0.3010 253 T -0.1716
-0.3010 254 T -0.1716
-0.3010 255 T -0.1716
-0.3010 256 T -0.1716
-0.3010 257 T -0.1716
-0.3010 258 T -0.1716
-0.3010 259 T -0.1716
-0.3010 26 T -0.1716
-0.3010 260 T -0.1716
-0.3010 261 T -0.1716
-0.3010 262 T -0.1716
-0.3010 263 T -0.1716
-0.3010 264 T -0.1716
-0.3010 265 T -0.1716
-0.3010 266 T -0.1716
-0.3010 267 T -0.1716
-0.3010 268 T -0.1716
-0.3010 269 T -0.1716
-0.3010 27 T -0.1716
-0.3010 270 T -0.1716
-0.3010 271 T -0.1716
-0.3010 272 T -0.1716
-0.3010 273 T -0.1716
-0.3010 274 T -0.1716
-0.3010 275 T -0.1716
-0.3010 276 T -0.1716
-0.3010 277 T -0.1716
-0.3010 278 T -0.1716
-0.3010 279 T -0.1716
-0.3010 28 T -0.1716
-0.3010 280 T -0.1716
-0.3010 281 T -0.1716
-0.3010 282 T -0.1716
-0.3010 283 T -0.1716
-0.3010 284 T -0.1716
-0.3010 285 T -0.1716
-0.3010 286 T -0.1716
-0.3010 287 T -0.1716
-0.3010 288 T -0.1716
-0.3010 289 T -0.1716
-0.3010 29 T -0.1716
-0.3010 290 T -0.1716
-0.3010 291 T -0.1716
-0.3010 292 T -0.1716
-0.3010 293 T -0.1716
-0.3010 294 T -0.1716
-0.3010 295 T -0.1716
-0.3010 296 T -0.1716
-0.3010 297 T -0.1716
-0.3010 298 T -0.1716
-0.3010 299 T -0.1716
-0.3010 3 TH -0.0029
-0.3010 30 TH -0.0029
-0.3010 300 TH -0.0029
-0.3010 301 TH -0.0029
-0.3010 302 TH -0.0029
-0.3010 303 TH -0.0029
-0.3010 304 TH -0.0029
-0.3010 305 TH -0.0029
-0.3010 306 TH -0.0029
-0.3010 307 TH -0.0029
-0.3010 308 TH -0.0029
-0.3010 309 TH -0.0029
-0.3010 31 TH -0.0029
-0.3010 310 TH -0.0029
-0.3010 311 TH -0.0029
-0.3010 312 TH -0.0029
-0.3010 313 TH -0.0029
-0.3010 314 TH -0.0029
-0.3010 315 TH -0.0029
-0.3010 316 TH -0.0029
-0.3010 317 TH -0.0029
-0.3010 318 TH -0.0029
-0.3010 319 TH -0.0029
-0.3010 32 TH -0.0029
-0.3010 320 TH -0.0029
-0.3010 321 TH -0.0029
-0.3010 322 TH -0.0029
-0.3010 323 TH -0.0029
-0.3010 324 TH -0.0029
-0.3010 325 TH -0.0029
-0.3010 326 TH -0.0029
-0.3010 327 TH -0.0029
-0.3010 328 TH -0.0029
-0.3010 329 TH -0.0029
-0.3010 33 TH -0.0029
-0.3010 330 TH -0.0029
-0.3010 331 TH -0.0029
-0.3010 332 TH -0.0029
-0.3010 333 TH -0.0029
-0.3010 334 TH -0.0029
-0.3010 335 TH -0.0029
-0.3010 336 TH -0.0029
-0.3010 337 TH -0.0029
-0.3010 338 TH -0.0029
-0.3010 339 TH -0.0029
-0.3010 34 TH -0.0029
-0.3010 340 TH -0.0029
-0.3010 341 TH -0.0029
-0.3010 342 TH -0.0029
-0.3010 343 TH -0.0029
-0.3010 344 TH -0.0029
-0.3010 345 TH -0.0029
-0.3010 346 TH -0.0029
-0.3010 347 TH -0.0029
-0.3010 348 TH -0.0029
-0.3010 349 TH -0.0029
-0.3010 35 TH -0.0029
-0.3010 350 TH -0.0029
-0.3010 351 TH -0.0029
-0.3010 352 TH -0.0029
-0.3010 353 TH -0.0029
-0.3010 354 TH -0.0029
-0.3010 355 TH -0.0029
-0.3010 356 TH -0.0029
-0.3010 357 TH -0.0029
-0.3010 358 TH -0.0029
-0.3010 359 TH -0.0029
-0.3010 36 TH -0.0029
-0.3010 360 TH -0.0029
-0.3010 361 TH -0.0029
-0.3010 362 TH -0.0029
-0.3010 363 TH -0.0029
-0.3010 364 TH -0.0029
-0.3010 365 TH -0.0029
-0.3010 366 TH -0.0029
-0.3010 367 TH -0.0029
-0.3010 368 TH -0.0029
-0.3010 369 TH -0.0029
-0.3010 37 TH -0.0029
-0.3010 370 TH -0.0029
-0.3010 371 TH -0.0029
-0.3010 372 TH -0.0029
-0.3010 373 TH -0.0029
-0.3010 374 TH -0.0029
-0.3010 375 TH -0.0029
-0.3010 376 TH -0.0029
-0.3010 377 TH -0.0029
-0.3010 378 TH -0.0029
-0.3010 379 TH -0.0029
-0.3010 38 TH -0.0029
-0.3010 380 TH -0.0029
-0.3010 381 TH -0.0029
-0.3010 382 TH -0.0029
-0.3010 383 TH -0.0029
-0.3010 384 TH -0.0029
-0.3010 385 TH -0.0029
-0.3010 386 TH -0.0029
-0.3010 387 TH -0.0029
-0.3010 388 TH -0.0029
-0.3010 389 TH -0.0029
-0.3010 39 TH -0.0029
-0.3010 390 TH -0.0029
-0.3010 391 TH -0.0029
-0.3010 392 TH -0.0029
-0.3010 393 TH -0.0029
-0.3010 394 TH -0.0029
-0.3010 395 TH -0.0029
-0.3010 396 TH -0.0029
-0.3010 397 TH -0.0029
-0.3010 398 TH -0.0029
-0.3010 399 TH -0.0029
-0.3010 4 F -0.1768
-0.3010 40 F -0.1768
-0.3010 400 F -0.1768
-0.3010 401 F -0.1768
-0.3010 402 F -0.1768
-0.3010 403 F -0.1768
-0.3010 404 F -0.1768
-0.3010 405 F -0.1768
-0.3010 406 F -0.1768
-0.3010 407 F -0.1768
-0.3010 408 F -0.1768
-0.3010 409 F -0.1768
-0.3010 41 F -0.1768
-0.3010 410 F -0.1768
-0.3010 411 F -0.1768
-0.3010 412 F -0.1768
-0.3010 413 F -0.1768
-0.3010 414 F -0.1768
-0.3010 415 F -0.1768
-0.3010 416 F -0.1768
-0.3010 417 F -0.1768
-0.3010 418 F -0.1768
-0.3010 419 F -0.1768
-0.3010 42 F -0.1768
-0.3010 420 F -0.1768
-0.3010 421 F -0.1768
-0.3010 422 F -0.1768
-0.3010 423 F -0.1768
-0.3010 424 F -0.1768
-0.3010 425 F -0.1768
-0.3010 426 F -0.1768
-0.3010 427 F -0.1768
-0.3010 428 F -0.1768
-0.3010 429 F -0.1768
-0.3010 43 F -0.1768
-0.3010 430 F -0.1768
-0.3010 431 F -0.1768
-0.3010 432 F -0.1768
-0.3010 433 F -0.1768
-0.3010 434 F -0.1768
-0.3010 435 F -0.1768
-0.3010 436 F -0.1768
-0.3010 437 F -0.1768
-0.3010 438 F -0.1768
-0.3010 439 F -0.1768
-0.3010 44 F -0.1768
-0.3010 440 F -0.1768
-0.3010 441 F -0.1768
-0.3010 442 F -0.1768
-0.3010 443 F -0.1768
-0.3010 444 F -0.1768
-0.3010 445 F -0.1768
-0.3010 446 F -0.1768
-0.3010 447 F -0.1768
-0.3010 448 F -0.1768
-0.3010 449 F -0.1768
-0.3010 45 F -0.1768
-0.3010 450 F -0.1768
-0.3010 451 F -0.1768
-0.3010 452 F -0.1768
-0.3010 453 F -0.1768
-0.3010 454 F -0.1768
-0.3010 455 F -0.1768
-0.3010 456 F -0.1768
-0.3010 457 F -0.1768
-0.3010 458 F -0.1768
-0.3010 459 F -0.1768
-0.3010 46 F -0.1768
-0.3010 460 F -0.1768
-0.3010 461 F -0.1768
-0.3010 462 F -0.1768
-0.3010 463 F -0.1768
-0.3010 464 F -0.1768
-0.3010 465 F -0.1768
-0.3010 466 F -0.1768
-0.3010 467 F -0.1768
-0.3010 468 F -0.1768
-0.3010 469 F -0.1768
-0.3010 47 F -0.1768
-0.3010 470 F -0.1768
-0.3010 471 F -0.1768
-0.3010 472 F -0.1768
-0.3010 473 F -0.1768
-0.3010 474 F -0.1768
-0.3010 475 F -0.1768
-0.3010 476 F -0.1768
-0.3010 477 F -0.1768
-0.3010 478 F -0.1768
-0.3010 479 F -0.1768
-0.3010 48 F -0.1768
-0.3010 480 F -0.1768
-0.3010 481 F -0.1768
-0.3010 482 F -0.1768
-0.3010 483 F -0.1768
-0.3010 484 F -0.1768
-0.3010 485 F -0.1768
-0.3010 486 F -0.1768
-0.3010 487 F -0.1768
-0.3010 488 F -0.1768
-0.3010 489 F -0.1768
-0.3010 49 F -0.1768
-0.3010 490 F -0.1768
-0.3010 491 F -0.1768
-0.3010 492 F -0.1768
-0.3010 493 F -0.1768
-0.3010 494 F -0.1768
-0.3010 495 F -0.1768
-0.3010 496 F -0.1768
-0.3010 497 F -0.1768
-0.3010 498 F -0.1768
-0.3010 499 F -0.1768
-0.3010 5 F -0.1768
-0.3010 50 F -0.1768
-0.3010 500 F -0.1768
-0.3010 501 F -0.1768
-0.3010 502 F -0.1768
-0.3010 503 F -0.1768
-0.3010 504 F -0.1768
-0.3010 505 F -0.1768
-0.3010 506 F -0.1768
-0.3010 507 F -0.1768
-0.3010 508 F -0.1768
-0.3010 509 F -0.1768
-0.3010 51 F -0.1768
-0.3010 510 F -0.1768
-0.3010 511 F -0.1768
-0.3010 512 F -0.1768
-0.3010 513 F -0.1768
-0.3010 514 F -0.1768
-0.3010 515 F -0.1768
-0.3010 516 F -0.1768
-0.3010 517 F -0.1768
-0.3010 518 F -0.1768
-0.3010 519 F -0.1768
-0.3010 52 F -0.1768
-0.3010 520 F -0.1768
-0.3010 521 F -0.1768
-0.3010 522 F -0.1768
-0.3010 523 F -0.1768
-0.3010 524 F -0.1768
-0.3010 525 F -0.1768
-0.3010 526 F -0.1768
-0.3010 527 F -0.1768
-0.3010 528 F -0.1768
-0.3010 529 F -0.1768
-0.3010 53 F -0.1768
-0.3010 530 F -0.1768
-0.3010 531 F -0.1768
-0.3010 532 F -0.1768
-0.3010 533 F -0.1768
-0.3010 534 F -0.1768
-0.3010 535 F -0.1768
-0.3010 536 F -0.1768
-0.3010 537 F -0.1768
-0.3010 538 F -0.1768
-0.3010 539 F -0.1768
-0.3010 54 F -0.1768
-0.3010 540 F -0.1768
-0.3010 541 F -0.1768
-0.3010 542 F -0.1768
-0.3010 543 F -0.1768
-0.3010 544 F -0.1768
-0.3010 545 F -0.1768
-0.3010 546 F -0.1768
-0.3010 547 F -0.1768
-0.3010 548 F -0.1768
-0.3010 549 F -0.1768
-0.3010 55 F -0.1768
-0.3010 550 F -0.1768
-0.3010 551 F -0.1768
-0.3010 552 F -0.1768
-0.3010 553 F -0.1768
-0.3010 554 F -0.1768
-0.3010 555 F -0.1768
-0.3010 556 F -0.1768
-0.3010 557 F -0.1768
-0.3010 558 F -0.1768
-0.3010 559 F -0.1768
-0.3010 56 F -0.1768
-0.3010 560 F -0.1768
-0.3010 561 F -0.1768
-0.3010 562 F -0.1768
-0.3010 563 F -0.1768
-0.3010 564 F -0.1768
-0.3010 565 F -0.1768
-0.3010 566 F -0.1768
-0.3010 567 F -0.1768
-0.3010 568 F -0.1768
-0.3010 569 F -0.1768
-0.3010 57 F -0.1768
-0.3010 570 F -0.1768
-0.3010 571 F -0.1768
-0.3010 572 F -0.1768
-0.3010 573 F -0.1768
-0.3010 574 F -0.1768
-0.3010 575 F -0.1768
-0.3010 576 F -0.1768
-0.3010 577 F -0.1768
-0.3010 578 F -0.1768
-0.3010 579 F -0.1768
-0.3010 58 F -0.1768
-0.3010 580 F -0.1768
-0.3010 581 F -0.1768
-0.3010 582 F -0.1768
-0.3010 583 F -0.1768
-0.3010 584 F -0.1768
-0.3010 585 F -0.1768
-0.3010 586 F -0.1768
-0.3010 587 F -0.1768
-0.3010 588 F -0.1768
-0.3010 589 F -0.1768
-0.3010 59 F -0.1768
-0.3010 590 F -0.1768
-0.3010 591 F -0.1768
-0.3010 592 F -0.1768
-0.3010 593 F -0.1768
-0.3010 594 F -0.1768
-0.3010 595 F -0.1768
-0.3010 596 F -0.1768
-0.3010 597 F -0.1768
-0.3010 598 F -0.1768
-0.3010 599 F -0.1768
-0.3010 6 S -0.2182
-0.3010 60 S -0.2182
-0.3010 600 S -0.2182
-0.3010 601 S -0.2182
-0.3010 602 S -0.2182
-0.3010 603 S -0.2182
-0.3010 604 S -0.2182
-0.3010 605 S -0.2182
-0.3010 606 S -0.2182
-0.3010 607 S -0.2182
-0.3010 608 S -0.2182
-0.3010 609 S -0.2182
-0.3010 61 S -0.2182
-0.3010 610 S -0.2182
-0.3010 611 S -0.2182
-0.3010 612 S -0.2182
-0.3010 613 S -0.2182
-0.3010 614 S -0.2182
-0.3010 615 S -0.2182
-0.3010 616 S -0.2182
-0.3010 617 S -0.2182
-0.3010 618 S -0.2182
-0.3010 619 S -0.2182
-0.3010 62 S -0.2182
-0.3010 620 S -0.2182
-0.3010 621 S -0.2182
-0.3010 622 S -0.2182
-0.3010 623 S -0.2182
-0.3010 624 S -0.2182
-0.3010 625 S -0.2182
-0.3010 626 S -0.2182
-0.3010 627 S -0.2182
-0.3010 628 S -0.2182
-0.3010 629 S -0.2182
-0.3010 63 S -0.2182
-0.3010 630 S -0.2182
-0.3010 631 S -0.2182
-0.3010 632 S -0.2182
-0.3010 633 S -0.2182
-0.3010 634 S -0.2182
-0.3010 635 S -0.2182
-0.3010 636 S -0.2182
-0.3010 637 S -0.2182
-0.3010 638 S -0.2182
-0.3010 639 S -0.2182
-0.3010 64 S -0.2182
-0.3010 640 S -0.2182
-0.3010 641 S -0.2182
-0.3010 642 S -0.2182
-0.3010 643 S -0.2182
-0.3010 644 S -0.2182
-0.3010 645 S -0.2182
-0.3010 646 S -0.2182
-0.3010 647 S -0.2182
-0.3010 648 S -0.2182
-0.3010 649 S -0.2182
-0.3010 65 S -0.2182
-0.3010 650 S -0.2182
-0.3010 651 S -0.2182
-0.3010 652 S -0.2182
-0.3010 653 S -0.2182
-0.3010 654 S -0.2182
-0.3010 655 S -0.2182
-0.3010 656 S -0.2182
-0.3010 657 S -0.2182
-0.3010 658 S -0.2182
-0.3010 659 S -0.2182
-0.3010 66 S -0.2182
-0.3010 660 S -0.2182
-0.3010 661 S -0.2182
-0.3010 662 S -0.2182
-0.3010 663 S -0.2182
-0.3010 664 S -0.2182
-0.3010 665 S -0.2182
-0.3010 666 S -0.2182
-0.3010 667 S -0.2182
-0.3010 668 S -0.2182
-0.3010 669 S -0.2182
-0.3010 67 S -0.2182
-0.3010 670 S -0.2182
-0.3010 671 S -0.2182
-0.3010 672 S -0.2182
-0.3010 673 S -0.2182
-0.3010 674 S -0.2182
-0.3010 675 S -0.2182
-0.3010 676 S -0.2182
-0.3010 677 S -0.2182
-0.3010 678 S -0.2182
-0.3010 679 S -0.2182
-0.3010 68 S -0.2182
-0.3010 680 S -0.2182
-0.3010 681 S -0.2182
-0.3010 682 S -0.2182
-0.3010 683 S -0.2182
-0.3010 684 S -0.2182
-0.3010 685 S -0.2182
-0.3010 686 S -0.2182
-0.3010 687 S -0.2182
-0.3010 688 S -0.2182
-0.3010 689 S -0.2182
-0.3010 69 S -0.2182
-0.3010 690 S -0.2182
-0.3010 691 S -0.2182
-0.3010 692 S -0.2182
-0.3010 693 S -0.2182
-0.3010 694 S -0.2182
-0.3010 695 S -0.2182
-0.3010 696 S -0.2182
-0.3010 697 S -0.2182
-0.3010 698 S -0.2182
-0.3010 699 S -0.2182
-0.3010 7 S -0.2182
-0.3010 70 S -0.2182
-0.3010 700 S -0.2182
-0.3010 701 S -0.2182
-0.3010 702 S -0.2182
-0.3010 703 S -0.2182
-0.3010 704 S -0.2182
-0.3010 705 S -0.2182
-0.3010 706 S -0.2182
-0.3010 707 S -0.2182
-0.3010 708 S -0.2182
-0.3010 709 S -0.2182
-0.3010 71 S -0.2182
-0.3010 710 S -0.2182
-0.3010 711 S -0.2182
-0.3010 712 S -0.2182
-0.3010 713 S -0.2182
-0.3010 714 S -0.2182
-0.3010 715 S -0.2182
-0.3010 716 S -0.2182
-0.3010 717 S -0.2182
-0.3010 718 S -0.2182
-0.3010 719 S -0.2182
-0.3010 72 S -0.2182
-0.3010 720 S -0.2182
-0.3010 721 S -0.2182
-0.3010 722 S -0.2182
-0.3010 723 S -0.2182
-0.3010 724 S -0.2182
-0.3010 725 S -0.2182
-0.3010 726 S -0.2182
-0.3010 727 S -0.2182
-0.3010 728 S -0.2182
-0.3010 729 S -0.2182
-0.3010 73 S -0.2182
-0.3010 730 S -0.2182
-0.3010 731 S -0.2182
-0.3010 732 S -0.2182
-0.3010 733 S -0.2182
-0.3010 734 S -0.2182
-0.3010 735 S -0.2182
-0.3010 736 S -0.2182
-0.3010 737 S -0.2182
-0.3010 738 S -0.2182
-0.3010 739 S -0.2182
-0.3010 74 S -0.2182
-0.3010 740 S -0.2182
-0.3010 741 S -0.2182
-0.3010 742 S -0.2182
-0.3010 743 S -0.2182
-0.3010 744 S -0.2182
-0.3010 745 S -0.2182
-0.3010 746 S -0.2182
-0.3010 747 S -0.2182
-0.3010 748 S -0.2182
-0.3010 749 S -0.2182
-0.3010 75 S -0.2182
-0.3010 750 S -0.2182
-0.3010 751 S -0.2182
-0.3010 752 S -0.2182
-0.3010 753 S -0.2182
-0.3010 754 S -0.2182
-0.3010 755 S -0.2182
-0.3010 756 S -0.2182
-0.3010 757 S -0.2182
-0.3010 758 S -0.2182
-0.3010 759 S -0.2182
-0.3010 76 S -0.2182
-0.3010 760 S -0.2182
-0.3010 761 S -0.2182
-0.3010 762 S -0.2182
-0.3010 763 S -0.2182
-0.3010 764 S -0.2182
-0.3010 765 S -0.2182
-0.3010 766 S -0.2182
-0.3010 767 S -0.2182
-0.3010 768 S -0.2182
-0.3010 769 S -0.2182
-0.3010 77 S -0.2182
-0.3010 770 S -0.2182
-0.3010 771 S -0.2182
-0.3010 772 S -0.2182
-0.3010 773 S -0.2182
-0.3010 774 S -0.2182
-0.3010 775 S -0.2182
-0.3010 776 S -0.2182
-0.3010 777 S -0.2182
-0.3010 778 S -0.2182
-0.3010 779 S -0.2182
-0.3010 78 S -0.2182
-0.3010 780 S -0.2182
-0.3010 781 S -0.2182
-0.3010 782 S -0.2182
-0.3010 783 S -0.2182
-0.3010 784 S -0.2182
-0.3010 785 S -0.2182
-0.3010 786 S -0.2182
-0.3010 787 S -0.2182
-0.3010 788 S -0.2182
-0.3010 789 S -0.2182
-0.3010 79 S -0.2182
-0.3010 790 S -0.2182
-0.3010 791 S -0.2182
-0.3010 792 S -0.2182
-0.3010 793 S -0.2182
-0.3010 794 S -0.2182
-0.3010 795 S -0.2182
-0.3010 796 S -0.2182
-0.3010 797 S -0.2182
-0.3010 798 S -0.2182
-0.3010 799 S -0.2182
-0.3010 8 EY -0.0014
-0.3010 80 EY -0.0014
-0.3010 800 EY -0.0014
-0.3010 801 EY -0.0014
-0.3010 802 EY -0.0014
-0.3010 803 EY -0.0014
-0.3010 804 EY -0.0014
-0.3010 805 EY -0.0014
-0.3010 806 EY -0.0014
-0.3010 807 EY -0.0014
-0.3010 808 EY -0.0014
-0.3010 809 EY -0.0014
-0.3010 81 EY -0.0014
-0.3010 810 EY -0.0014
-0.3010 811 EY -0.0014
-0.3010 812 EY -0.0014
-0.3010 813 EY -0.0014
-0.3010 814 EY -0.0014
-0.3010 815 EY -0.0014
-0.3010 816 EY -0.0014
-0.3010 817 EY -0.0014
-0.3010 818 EY -0.0014
-0.3010 819 EY -0.0014
-0.3010 82 EY -0.0014
-0.3010 820 EY -0.0014
-0.3010 821 EY -0.0014
-0.3010 822 EY -0.0014
-0.3010 823 EY -0.0014
-0.3010 824 EY -0.0014
-0.3010 825 EY -0.0014
-0.3010 826 EY -0.0014
-0.3010 827 EY -0.0014
-0.3010 828 EY -0.0014
-0.3010 829 EY -0.0014
-0.3010 83 EY -0.0014
-0.3010 830 EY -0.0014
-0.3010 831 EY -0.0014
-0.3010 832 EY -0.0014
-0.3010 833 EY -0.0014
-0.3010 834 EY -0.0014
-0.3010 835 EY -0.0014
-0.3010 836 EY -0.0014
-0.3010 837 EY -0.0014
-0.3010 838 EY -0.0014
-0.3010 839 EY -0.0014
-0.3010 84 EY -0.0014
-0.3010 840 EY -0.0014
-0.3010 841 EY -0.0014
-0.3010 842 EY -0.0014
-0.3010 843 EY -0.0014
-0.3010 844 EY -0.0014
-0.3010 845 EY -0.0014
-0.3010 846 EY -0.0014
-0.3010 847 EY -0.0014
-0.3010 848 EY -0.0014
-0.3010 849 EY -0.0014
-0.3010 85 EY -0.0014
-0.3010 850 EY -0.0014
-0.3010 851 EY -0.0014
-0.3010 852 EY -0.0014
-0.3010 853 EY -0.0014
-0.3010 854 EY -0.0014
-0.3010 855 EY -0.0014
-0.3010 856 EY -0.0014
-0.3010 857 EY -0.0014
-0.3010 858 EY -0.0014
-0.3010 859 EY -0.0014
-0.3010 86 EY -0.0014
-0.3010 860 EY -0.0014
-0.3010 861 EY -0.0014
-0.3010 862 EY -0.0014
-0.3010 863 EY -0.0014
-0.3010 864 EY -0.0014
-0.3010 865 EY -0.0014
-0.3010 866 EY -0.0014
-0.3010 867 EY -0.0014
-0.3010 868 EY -0.0014
-0.3010 869 EY -0.0014
-0.3010 87 EY -0.0014
-0.3010 870 EY -0.0014
-0.3010 871 EY -0.0014
-0.3010 872 EY -0.0014
-0.3010 873 EY -0.0014
-0.3010 874 EY -0.0014
-0.3010 875 EY -0.0014
-0.3010 876 EY -0.0014
-0.3010 877 EY -0.0014
-0.3010 878 EY -0.0014
-0.3010 879 EY -0.0014
-0.3010 88 EY -0.0014
-0.3010 880 EY -0.0014
-0.3010 881 EY -0.0014
-0.3010 882 EY -0.0014
-0.3010 883 EY -0.0014
-0.3010 884 EY -0.0014
-0.3010 885 EY -0.0014
-0.3010 886 EY -0.0014
-0.3010 887 EY -0.0014
-0.3010 888 EY -0.0014
-0.3010 889 EY -0.0014
-0.3010 89 EY -0.0014
-0.3010 890 EY -0.0014
-0.3010 891 EY -0.0014
-0.3010 892 EY -0.0014
-0.3010 893 EY -0.0014
-0.3010 894 EY -0.0014
-0.3010 895 EY -0.0014
-0.3010 896 EY -0.0014
-0.3010 897 EY -0.0014
-0.3010 898 EY -0.0014
-0.3010 899 EY -0.0014
-0.3010 9 N -0.2405
-0.3010 90 N -0.2405
-0.3010 900 N -0.2405
-0.3010 901 N -0.2405
-0.3010 902 N -0.2405
-0.3010 903 N -0.2405
-0.3010 904 N -0.2405
-0.3010 905 N -0.2405
-0.3010 906 N -0.2405
-0.3010 907 N -0.2405
-0.3010 908 N -0.2405
-0.3010 909 N -0.2405
-0.3010 91 N -0.2405
-0.3010 910 N -0.2405
-0.3010 911 N -0.2405
-0.3010 912 N -0.2405
-0.3010 913 N -0.2405
-0.3010 914 N -0.2405
-0.3010 915 N -0.2405
-0.3010 916 N -0.2405
-0.3010 917 N -0.2405
-0.3010 918 N -0.2405
-0.3010 919 N -0.2405
-0.3010 92 N -0.2405
-0.3010 920 N -0.2405
-0.3010 921 N -0.2405
-0.3010 922 N -0.2405
-0.3010 923 N -0.2405
-0.3010 924 N -0.2405
-0.3010 925 N -0.2405
-0.3010 926 N -0.2405
-0.3010 927 N -0.2405
-0.3010 928 N -0.2405
-0.3010 929 N -0.2405
-0.3010 93 N -0.2405
-0.3010 930 N -0.2405
-0.3010 931 N -0.2405
-0.3010 932 N -0.2405
-0.3010 933 N -0.2405
-0.3010 934 N -0.2405
-0.3010 935 N -0.2405
-0.3010 936 N -0.2405
-0.3010 937 N -0.2405
-0.3010 938 N -0.2405
-0.3010 939 N -0.2405
-0.3010 94 N -0.2405
-0.3010 940 N -0.2405
-0.3010 941 N -0.2405
-0.3010 942 N -0.2405
-0.3010 943 N -0.2405
-0.3010 944 N -0.2405
-0.3010 945 N -0.2405
-0.3010 946 N -0.2405
-0.3010 947 N -0.2405
-0.3010 948 N -0.2405
-0.3010 949 N -0.2405
-0.3010 95 N -0.2405
-0.3010 950 N -0.2405
-0.3010 951 N -0.2405
-0.3010 952 N -0.2405
-0.3010 953 N -0.2405
-0.3010 954 N -0.2405
-0.3010 955 N -0.2405
-0.3010 956 N -0.2405
-0.3010 957 N -0.2405
-0.3010 958 N -0.2405
-0.3010 959 N -0.2405
-0.3010 96 N -0.2405
-0.3010 960 N -0.2405
-0.3010 961 N -0.2405
-0.3010 962 N -0.2405
-0.3010 963 N -0.2405
-0.3010 964 N -0.2405
-0.3010 965 N -0.2405
-0.3010 966 N -0.2405
-0.3010 967 N -0.2405
-0.3010 968 N -0.2405
-0.3010 969 N -0.2405
-0.3010 97 N -0.2405
-0.3010 970 N -0.2405
-0.3010 971 N -0.2405
-0.3010 972 N -0.2405
-0.3010 973 N -0.2405
-0.3010 974 N -0.2405
-0.3010 975 N -0.2405
-0.3010 976 N -0.2405
-0.3010 977 N -0.2405
-0.3010 978 N -0.2405
-0.3010 979 N -0.2405
-0.3010 98 N -0.2405
-0.3010 980 N -0.2405
-0.3010 981 N -0.2405
-0.3010 982 N -0.2405
-0.3010 983 N -0.2405
-0.3010 984 N -0.2405
-0.3010 985 N -0.2405
-0.3010 986 N -0.2405
-0.3010 987 N -0.2405
-0.3010 988 N -0.2405
-0.3010 989 N -0.2405
-0.3010 99 N -0.2405
-0.3010 990 N -0.2405
-0.3010 991 N -0.2405
-0.3010 992 N -0.2405
-0.3010 993 N -0.2405
-0.3010 994 N -0.2405
-0.3010 995 N -0.2405
-0.3010 996 N -0.2405
-0.3010 997 N -0.2405
-0.3010 998 N -0.2405
-0.3010 999 N -0.2405
-3.3130 <s> 0 0.0000
-3.3130 <s> 0(2) 0.0000
-3.3130 <s> 1 0.0000
-3.3130 <s> 10 0.0000
-3.3130 <s> 100 0.0000
-3.3130 <s> 101 0.0000
-3.3130 <s> 102 0.0000
-3.3130 <s> 103 0.0000
-3.3130 <s> 104 0.0000
-3.3130 <s> 105 0.0000
-3.3130 <s> 106 0.0000
-3.3130 <s> 107 0.0000
-3.3130 <s> 108 0.0000
-3.3130 <s> 109 0.0000
-3.3130 <s> 11 0.0000
-3.3130 <s> 110 0.0000
-3.3130 <s> 111 0.0000
-3.3130 <s> 112 0.0000
-3.3130 <s> 113 0.0000
-3.3130 <s> 114 0.0000
-3.3130 <s> 115 0.0000
-3.3130 <s> 116 0.0000
-3.3130 <s> 117 0.0000
-3.3130 <s> 118 0.0000
-3.3130 <s> 119 0.0000
-3.3130 <s> 12 0.0000
-3.3130 <s> 120 0.0000
-3.3130 <s> 121 0.0000
-3.3130 <s> 122 0.0000
-3.3130 <s> 123 0.0000
-3.3130 <s> 124 0.0000
-3.3130 <s> 125 0.0000
-3.3130 <s> 126 0.0000
-3.3130 <s> 127 0.0000
-3.3130 <s> 128 0.0000
-3.3130 <s> 129 0.0000
-3.3130 <s> 13 0.0000
-3.3130 <s> 130 0.0000
-3.3130 <s> 131 0.0000
-3.3130 <s> 132 0.0000
-3.3130 <s> 133 0.0000
-3.3130 <s> 134 0.0000
-3.3130 <s> 135 0.0000
-3.3130 <s> 136 0.0000
-3.3130 <s> 137 0.0000
-3.3130 <s> 138 0.0000
-3.3130 <s> 139 0.0000
-3.3130 <s> 14 0.0000
-3.3130 <s> 140 0.0000
-3.3130 <s> 141 0.0000
-3.3130 <s> 142 0.0000
-3.3130 <s> 143 0.0000
-3.3130 <s> 144 0.0000
-3.3130 <s> 145 0.0000
-3.3130 <s> 146 0.0000
-3.3130 <s> 147 0.0000
-3.3130 <s> 148 0.0000
-3.3130 <s> 149 0.0000
-3.3130 <s> 15 0.0000
-3.3130 <s> 150 0.0000
-3.3130 <s> 151 0.0000
-3.3130 <s> 152 0.0000
-3.3130 <s> 153 0.0000
-3.3130 <s> 154 0.0000
-3.3130 <s> 155 0.0000
-3.3130 <s> 156 0.0000
-3.3130 <s> 157 0.0000
-3.3130 <s> 158 0.0000
-3.3130 <s> 159 0.0000
-3.3130 <s> 16 0.0000
-3.3130 <s> 160 0.0000
-3.3130 <s> 161 0.0000
-3.3130 <s> 162 0.0000
-3.3130 <s> 163 0.0000
-3.3130 <s> 164 0.0000
-3.3130 <s> 165 0.0000
-3.3130 <s> 166 0.0000
-3.3130 <s> 167 0.0000
-3.3130 <s> 168 0.0000
-3.3130 <s> 169 0.0000
-3.3130 <s> 17 0.0000
-3.3130 <s> 170 0.0000
-3.3130 <s> 171 0.0000
-3.3130 <s> 172 0.0000
-3.3130 <s> 173 0.0000
-3.3130 <s> 174 0.0000
-3.3130 <s> 175 0.0000
-3.3130 <s> 176 0.0000
-3.3130 <s> 177 0.0000
-3.3130 <s> 178 0.0000
-3.3130 <s> 179 0.0000
-3.3130 <s> 18 0.0000
-3.3130 <s> 180 0.0000
-3.3130 <s> 181 0.0000
-3.3130 <s> 182 0.0000
-3.3130 <s> 183 0.0000
-3.3130 <s> 184 0.0000
-3.3130 <s> 185 0.0000
-3.3130 <s> 186 0.0000
-3.3130 <s> 187 0.0000
-3.3130 <s> 188 0.0000
-3.3130 <s> 189 0.0000
-3.3130 <s> 19 0.0000
-3.3130 <s> 190 0.0000
-3.3130 <s> 191 0.0000
-3.3130 <s> 192 0.0000
-3.3130 <s> 193 0.0000
-3.3130 <s> 194 0.0000
-3.3130 <s> 195 0.0000
-3.3130 <s> 196 0.0000
-3.3130 <s> 197 0.0000
-3.3130 <s> 198 0.0000
-3.3130 <s> 199 0.0000
-3.3130 <s> 2 0.0000
-3.3130 <s> 20 0.0000
-3.3130 <s> 200 0.0000
-3.3130 <s> 201 0.0000
-3.3130 <s> 202 0.0000
-3.3130 <s> 203 0.0000
-3.3130 <s> 204 0.0000
-3.3130 <s> 205 0.0000
-3.3130 <s> 206 0.0000
-3.3130 <s> 207 0.0000
-3.3130 <s> 208 0.0000
-3.3130 <s> 209 0.0000
-3.3130 <s> 21 0.0000
-3.3130 <s> 210 0.0000
-3.3130 <s> 211 0.0000
-3.3130 <s> 212 0.0000
-3.3130 <s> 213 0.0000
-3.3130 <s> 214 0.0000
-3.3130 <s> 215 0.0000
-3.3130 <s> 216 0.0000
-3.3130 <s> 217 0.0000
-3.3130 <s> 218 0.0000
-3.3130 <s> 219 0.0000
-3.3130 <s> 22 0.0000
-3.3130 <s> 220 0.0000
-3.3130 <s> 221 0.0000
-3.3130 <s> 222 0.0000
-3.3130 <s> 223 0.0000
-3.3130 <s> 224 0.0000
-3.3130 <s> 225 0.0000
-3.3130 <s> 226 0.0000
-3.3130 <s> 227 0.0000
-3.3130 <s> 228 0.0000
-3.3130 <s> 229 0.0000
-3.3130 <s> 23 0.0000
-3.3130 <s> 230 0.0000
-3.3130 <s> 231 0.0000
-3.3130 <s> 232 0.0000
-3.3130 <s> 233 0.0000
-3.3130 <s> 234 0.0000
-3.3130 <s> 235 0.0000
-3.3130 <s> 236 0.0000
-3.3130 <s> 237 0.0000
-3.3130 <s> 238 0.0000
-3.3130 <s> 239 0.0000
-3.3130 <s> 24 0.0000
-3.3130 <s> 240 0.0000
-3.3130 <s> 241 0.0000
-3.3130 <s> 242 0.0000
-3.3130 <s> 243 0.0000
-3.3130 <s> 244 0.0000
-3.3130 <s> 245 0.0000
-3.3130 <s> 246 0.0000
-3.3130 <s> 247 0.0000
-3.3130 <s> 248 0.0000
-3.3130 <s> 249 0.0000
-3.3130 <s> 25 0.0000
-3.3130 <s> 250 0.0000
-3.3130 <s> 251 0.0000
-3.3130 <s> 252 0.0000
-3.3130 <s> 253 0.0000
-3.3130 <s> 254 0.0000
-3.3130 <s> 255 0.0000
-3.3130 <s> 256 0.0000
-3.3130 <s> 257 0.0000
-3.3130 <s> 258 0.0000
-3.3130 <s> 259 0.0000
-3.3130 <s> 26 0.0000
-3.3130 <s> 260 0.0000
-3.3130 <s> 261 0.0000
-3.3130 <s> 262 0.0000
-3.3130 <s> 263 0.0000
-3.3130 <s> 264 0.0000
-3.3130 <s> 265 0.0000
-3.3130 <s> 266 0.0000
-3.3130 <s> 267 0.0000
-3.3130 <s> 268 0.0000
-3.3130 <s> 269 0.0000
-3.3130 <s> 27 0.0000
-3.3130 <s> 270 0.0000
-3.3130 <s> 271 0.0000
-3.3130 <s> 272 0.0000
-3.3130 <s> 273 0.0000
-3.3130 <s> 274 0.0000
-3.3130 <s> 275 0.0000
-3.3130 <s> 276 0.0000
-3.3130 <s> 277 0.0000
-3.3130 <s> 278 0.0000
-3.3130 <s> 279 0.0000
-3.3130 <s> 28 0.0000
-3.3130 <s> 280 0.0000
-3.3130 <s> 281 0.0000
-3.3130 <s> 282 0.0000
-3.3130 <s> 283 0.0000
-3.3130 <s> 284 0.0000
-3.3130 <s> 285 0.0000
-3.3130 <s> 286 0.0000
-3.3130 <s> 287 0.0000
-3.3130 <s> 288 0.0000
-3.3130 <s> 289 0.0000
-3.3130 <s> 29 0.0000
-3.3130 <s> 290 0.0000
-3.3130 <s> 291 0.0000
-3.3130 <s> 292 0.0000
-3.3130 <s> 293 0.0000
-3.3130 <s> 294 0.0000
-3.3130 <s> 295 0.0000
-3.3130 <s> 296 0.0000
-3.3130 <s> 297 0.0000
-3.3130 <s> 298 0.0000
-3.3130 <s> 299 0.0000
-3.3130 <s> 3 0.0000
-3.3130 <s> 30 0.0000
-3.3130 <s> 300 0.0000
-3.3130 <s> 301 0.0000
-3.3130 <s> 302 0.0000
-3.3130 <s> 303 0.0000
-3.3130 <s> 304 0.0000
-3.3130 <s> 305 0.0000
-3.3130 <s> 306 0.0000
-3.3130 <s> 307 0.0000
-3.3130 <s> 308 0.0000
-3.3130 <s> 309 0.0000
-3.3130 <s> 31 0.0000
-3.3130 <s> 310 0.0000
-3.3130 <s> 311 0.0000
-3.3130 <s> 312 0.0000
-3.3130 <s> 313 0.0000
-3.3130 <s> 314 0.0000
-3.3130 <s> 315 0.0000
-3.3130 <s> 316 0.0000
-3.3130 <s> 317 0.0000
-3.3130 <s> 318 0.0000
-3.3130 <s> 319 0.0000
-3.3130 <s> 32 0.0000
-3.3130 <s> 320 0.0000
-3.3130 <s> 321 0.0000
-3.3130 <s> 322 0.0000
-3.3130 <s> 323 0.0000
-3.3130 <s> 324 0.0000
-3.3130 <s> 325 0.0000
-3.3130 <s> 326 0.0000
-3.3130 <s> 327 0.0000
-3.3130 <s> 328 0.0000
-3.3130 <s> 329 0.0000
-3.3130 <s> 33 0.0000
-3.3130 <s> 330 0.0000
-3.3130 <s> 331 0.0000
-3.3130 <s> 332 0.0000
-3.3130 <s> 333 0.0000
-3.3130 <s> 334 0.0000
-3.3130 <s> 335 0.0000
-3.3130 <s> 336 0.0000
-3.3130 <s> 337 0.0000
-3.3130 <s> 338 0.0000
-3.3130 <s> 339 0.0000
-3.3130 <s> 34 0.0000
-3.3130 <s> 340 0.0000
-3.3130 <s> 341 0.0000
-3.3130 <s> 342 0.0000
-3.3130 <s> 343 0.0000
-3.3130 <s> 344 0.0000
-3.3130 <s> 345 0.0000
-3.3130 <s> 346 0.0000
-3.3130 <s> 347 0.0000
-3.3130 <s> 348 0.0000
-3.3130 <s> 349 0.0000
-3.3130 <s> 35 0.0000
-3.3130 <s> 350 0.0000
-3.3130 <s> 351 0.0000
-3.3130 <s> 352 0.0000
-3.3130 <s> 353 0.0000
-3.3130 <s> 354 0.0000
-3.3130 <s> 355 0.0000
-3.3130 <s> 356 0.0000
-3.3130 <s> 357 0.0000
-3.3130 <s> 358 0.0000
-3.3130 <s> 359 0.0000
-3.3130 <s> 36 0.0000
-3.3130 <s> 360 0.0000
-3.3130 <s> 361 0.0000
-3.3130 <s> 362 0.0000
-3.3130 <s> 363 0.0000
-3.3130 <s> 364 0.0000
-3.3130 <s> 365 0.0000
-3.3130 <s> 366 0.0000
-3.3130 <s> 367 0.0000
-3.3130 <s> 368 0.0000
-3.3130 <s> 369 0.0000
-3.3130 <s> 37 0.0000
-3.3130 <s> 370 0.0000
-3.3130 <s> 371 0.0000
-3.3130 <s> 372 0.0000
-3.3130 <s> 373 0.0000
-3.3130 <s> 374 0.0000
-3.3130 <s> 375 0.0000
-3.3130 <s> 376 0.0000
-3.3130 <s> 377 0.0000
-3.3130 <s> 378 0.0000
-3.3130 <s> 379 0.0000
-3.3130 <s> 38 0.0000
-3.3130 <s> 380 0.0000
-3.3130 <s> 381 0.0000
-3.3130 <s> 382 0.0000
-3.3130 <s> 383 0.0000
-3.3130 <s> 384 0.0000
-3.3130 <s> 385 0.0000
-3.3130 <s> 386 0.0000
-3.3130 <s> 387 0.0000
-3.3130 <s> 388 0.0000
-3.3130 <s> 389 0.0000
-3.3130 <s> 39 0.0000
-3.3130 <s> 390 0.0000
-3.3130 <s> 391 0.0000
-3.3130 <s> 392 0.0000
-3.3130 <s> 393 0.0000
-3.3130 <s> 394 0.0000
-3.3130 <s> 395 0.0000
-3.3130 <s> 396 0.0000
-3.3130 <s> 397 0.0000
-3.3130 <s> 398 0.0000
-3.3130 <s> 399 0.0000
-3.3130 <s> 4 0.0000
-3.3130 <s> 40 0.0000
-3.3130 <s> 400 0.0000
-3.3130 <s> 401 0.0000
-3.3130 <s> 402 0.0000
-3.3130 <s> 403 0.0000
-3.3130 <s> 404 0.0000
-3.3130 <s> 405 0.0000
-3.3130 <s> 406 0.0000
-3.3130 <s> 407 0.0000
-3.3130 <s> 408 0.0000
-3.3130 <s> 409 0.0000
-3.3130 <s> 41 0.0000
-3.3130 <s> 410 0.0000
-3.3130 <s> 411 0.0000
-3.3130 <s> 412 0.0000
-3.3130 <s> 413 0.0000
-3.3130 <s> 414 0.0000
-3.3130 <s> 415 0.0000
-3.3130 <s> 416 0.0000
-3.3130 <s> 417 0.0000
-3.3130 <s> 418 0.0000
-3.3130 <s> 419 0.0000
-3.3130 <s> 42 0.0000
-3.3130 <s> 420 0.0000
-3.3130 <s> 421 0.0000
-3.3130 <s> 422 0.0000
-3.3130 <s> 423 0.0000
-3.3130 <s> 424 0.0000
-3.3130 <s> 425 0.0000
-3.3130 <s> 426 0.0000
-3.3130 <s> 427 0.0000
-3.3130 <s> 428 0.0000
-3.3130 <s> 429 0.0000
-3.3130 <s> 43 0.0000
-3.3130 <s> 430 0.0000
-3.3130 <s> 431 0.0000
-3.3130 <s> 432 0.0000
-3.3130 <s> 433 0.0000
-3.3130 <s> 434 0.0000
-3.3130 <s> 435 0.0000
-3.3130 <s> 436 0.0000
-3.3130 <s> 437 0.0000
-3.3130 <s> 438 0.0000
-3.3130 <s> 439 0.0000
-3.3130 <s> 44 0.0000
-3.3130 <s> 440 0.0000
-3.3130 <s> 441 0.0000
-3.3130 <s> 442 0.0000
-3.3130 <s> 443 0.0000
-3.3130 <s> 444 0.0000
-3.3130 <s> 445 0.0000
-3.3130 <s> 446 0.0000
-3.3130 <s> 447 0.0000
-3.3130 <s> 448 0.0000
-3.3130 <s> 449 0.0000
-3.3130 <s> 45 0.0000
-3.3130 <s> 450 0.0000
-3.3130 <s> 451 0.0000
-3.3130 <s> 452 0.0000
-3.3130 <s> 453 0.0000
-3.3130 <s> 454 0.0000
-3.3130 <s> 455 0.0000
-3.3130 <s> 456 0.0000
-3.3130 <s> 457 0.0000
-3.3130 <s> 458 0.0000
-3.3130 <s> 459 0.0000
-3.3130 <s> 46 0.0000
-3.3130 <s> 460 0.0000
-3.3130 <s> 461 0.0000
-3.3130 <s> 462 0.0000
-3.3130 <s> 463 0.0000
-3.3130 <s> 464 0.0000
-3.3130 <s> 465 0.0000
-3.3130 <s> 466 0.0000
-3.3130 <s> 467 0.0000
-3.3130 <s> 468 0.0000
-3.3130 <s> 469 0.0000
-3.3130 <s> 47 0.0000
-3.3130 <s> 470 0.0000
-3.3130 <s> 471 0.0000
-3.3130 <s> 472 0.0000
-3.3130 <s> 473 0.0000
-3.3130 <s> 474 0.0000
-3.3130 <s> 475 0.0000
-3.3130 <s> 476 0.0000
-3.3130 <s> 477 0.0000
-3.3130 <s> 478 0.0000
-3.3130 <s> 479 0.0000
-3.3130 <s> 48 0.0000
-3.3130 <s> 480 0.0000
-3.3130 <s> 481 0.0000
-3.3130 <s> 482 0.0000
-3.3130 <s> 483 0.0000
-3.3130 <s> 484 0.0000
-3.3130 <s> 485 0.0000
-3.3130 <s> 486 0.0000
-3.3130 <s> 487 0.0000
-3.3130 <s> 488 0.0000
-3.3130 <s> 489 0.0000
-3.3130 <s> 49 0.0000
-3.3130 <s> 490 0.0000
-3.3130 <s> 491 0.0000
-3.3130 <s> 492 0.0000
-3.3130 <s> 493 0.0000
-3.3130 <s> 494 0.0000
-3.3130 <s> 495 0.0000
-3.3130 <s> 496 0.0000
-3.3130 <s> 497 0.0000
-3.3130 <s> 498 0.0000
-3.3130 <s> 499 0.0000
-3.3130 <s> 5 0.0000
-3.3130 <s> 50 0.0000
-3.3130 <s> 500 0.0000
-3.3130 <s> 501 0.0000
-3.3130 <s> 502 0.0000
-3.3130 <s> 503 0.0000
-3.3130 <s> 504 0.0000
-3.3130 <s> 505 0.0000
-3.3130 <s> 506 0.0000
-3.3130 <s> 507 0.0000
-3.3130 <s> 508 0.0000
-3.3130 <s> 509 0.0000
-3.3130 <s> 51 0.0000
-3.3130 <s> 510 0.0000
-3.3130 <s> 511 0.0000
-3.3130 <s> 512 0.0000
-3.3130 <s> 513 0.0000
-3.3130 <s> 514 0.0000
-3.3130 <s> 515 0.0000
-3.3130 <s> 516 0.0000
-3.3130 <s> 517 0.0000
-3.3130 <s> 518 0.0000
-3.3130 <s> 519 0.0000
-3.3130 <s> 52 0.0000
-3.3130 <s> 520 0.0000
-3.3130 <s> 521 0.0000
-3.3130 <s> 522 0.0000
-3.3130 <s> 523 0.0000
-3.3130 <s> 524 0.0000
-3.3130 <s> 525 0.0000
-3.3130 <s> 526 0.0000
-3.3130 <s> 527 0.0000
-3.3130 <s> 528 0.0000
-3.3130 <s> 529 0.0000
-3.3130 <s> 53 0.0000
-3.3130 <s> 530 0.0000
-3.3130 <s> 531 0.0000
-3.3130 <s> 532 0.0000
-3.3130 <s> 533 0.0000
-3.3130 <s> 534 0.0000
-3.3130 <s> 535 0.0000
-3.3130 <s> 536 0.0000
-3.3130 <s> 537 0.0000
-3.3130 <s> 538 0.0000
-3.3130 <s> 539 0.0000
-3.3130 <s> 54 0.0000
-3.3130 <s> 540 0.0000
-3.3130 <s> 541 0.0000
-3.3130 <s> 542 0.0000
-3.3130 <s> 543 0.0000
-3.3130 <s> 544 0.0000
-3.3130 <s> 545 0.0000
-3.3130 <s> 546 0.0000
-3.3130 <s> 547 0.0000
-3.3130 <s> 548 0.0000
-3.3130 <s> 549 0.0000
-3.3130 <s> 55 0.0000
-3.3130 <s> 550 0.0000
-3.3130 <s> 551 0.0000
-3.3130 <s> 552 0.0000
-3.3130 <s> 553 0.0000
-3.3130 <s> 554 0.0000
-3.3130 <s> 555 0.0000
-3.3130 <s> 556 0.0000
-3.3130 <s> 557 0.0000
-3.3130 <s> 558 0.0000
-3.3130 <s> 559 0.0000
-3.3130 <s> 56 0.0000
-3.3130 <s> 560 0.0000
-3.3130 <s> 561 0.0000
-3.3130 <s> 562 0.0000
-3.3130 <s> 563 0.0000
-3.3130 <s> 564 0.0000
-3.3130 <s> 565 0.0000
-3.3130 <s> 566 0.0000
-3.3130 <s> 567 0.0000
-3.3130 <s> 568 0.0000
-3.3130 <s> 569 0.0000
-3.3130 <s> 57 0.0000
-3.3130 <s> 570 0.0000
-3.3130 <s> 571 0.0000
-3.3130 <s> 572 0.0000
-3.3130 <s> 573 0.0000
-3.3130 <s> 574 0.0000
-3.3130 <s> 575 0.0000
-3.3130 <s> 576 0.0000
-3.3130 <s> 577 0.0000
-3.3130 <s> 578 0.0000
-3.3130 <s> 579 0.0000
-3.3130 <s> 58 0.0000
-3.3130 <s> 580 0.0000
-3.3130 <s> 581 0.0000
-3.3130 <s> 582 0.0000
-3.3130 <s> 583 0.0000
-3.3130 <s> 584 0.0000
-3.3130 <s> 585 0.0000
-3.3130 <s> 586 0.0000
-3.3130 <s> 587 0.0000
-3.3130 <s> 588 0.0000
-3.3130 <s> 589 0.0000
-3.3130 <s> 59 0.0000
-3.3130 <s> 590 0.0000
-3.3130 <s> 591 0.0000
-3.3130 <s> 592 0.0000
-3.3130 <s> 593 0.0000
-3.3130 <s> 594 0.0000
-3.3130 <s> 595 0.0000
-3.3130 <s> 596 0.0000
-3.3130 <s> 597 0.0000
-3.3130 <s> 598 0.0000
-3.3130 <s> 599 0.0000
-3.3130 <s> 6 0.0000
-3.3130 <s> 60 0.0000
-3.3130 <s> 600 0.0000
-3.3130 <s> 601 0.0000
-3.3130 <s> 602 0.0000
-3.3130 <s> 603 0.0000
-3.3130 <s> 604 0.0000
-3.3130 <s> 605 0.0000
-3.3130 <s> 606 0.0000
-3.3130 <s> 607 0.0000
-3.3130 <s> 608 0.0000
-3.3130 <s> 609 0.0000
-3.3130 <s> 61 0.0000
-3.3130 <s> 610 0.0000
-3.3130 <s> 611 0.0000
-3.3130 <s> 612 0.0000
-3.3130 <s> 613 0.0000
-3.3130 <s> 614 0.0000
-3.3130 <s> 615 0.0000
-3.3130 <s> 616 0.0000
-3.3130 <s> 617 0.0000
-3.3130 <s> 618 0.0000
-3.3130 <s> 619 0.0000
-3.3130 <s> 62 0.0000
-3.3130 <s> 620 0.0000
-3.3130 <s> 621 0.0000
-3.3130 <s> 622 0.0000
-3.3130 <s> 623 0.0000
-3.3130 <s> 624 0.0000
-3.3130 <s> 625 0.0000
-3.3130 <s> 626 0.0000
-3.3130 <s> 627 0.0000
-3.3130 <s> 628 0.0000
-3.3130 <s> 629 0.0000
-3.3130 <s> 63 0.0000
-3.3130 <s> 630 0.0000
-3.3130 <s> 631 0.0000
-3.3130 <s> 632 0.0000
-3.3130 <s> 633 0.0000
-3.3130 <s> 634 0.0000
-3.3130 <s> 635 0.0000
-3.3130 <s> 636 0.0000
-3.3130 <s> 637 0.0000
-3.3130 <s> 638 0.0000
-3.3130 <s> 639 0.0000
-3.3130 <s> 64 0.0000
-3.3130 <s> 640 0.0000
-3.3130 <s> 641 0.0000
-3.3130 <s> 642 0.0000
-3.3130 <s> 643 0.0000
-3.3130 <s> 644 0.0000
-3.3130 <s> 645 0.0000
-3.3130 <s> 646 0.0000
-3.3130 <s> 647 0.0000
-3.3130 <s> 648 0.0000
-3.3130 <s> 649 0.0000
-3.3130 <s> 65 0.0000
-3.3130 <s> 650 0.0000
-3.3130 <s> 651 0.0000
-3.3130 <s> 652 0.0000
-3.3130 <s> 653 0.0000
-3.3130 <s> 654 0.0000
-3.3130 <s> 655 0.0000
-3.3130 <s> 656 0.0000
-3.3130 <s> 657 0.0000
-3.3130 <s> 658 0.0000
-3.3130 <s> 659 0.0000
-3.3130 <s> 66 0.0000
-3.3130 <s> 660 0.0000
-3.3130 <s> 661 0.0000
-3.3130 <s> 662 0.0000
-3.3130 <s> 663 0.0000
-3.3130 <s> 664 0.0000
-3.3130 <s> 665 0.0000
-3.3130 <s> 666 0.0000
-3.3130 <s> 667 0.0000
-3.3130 <s> 668 0.0000
-3.3130 <s> 669 0.0000
-3.3130 <s> 67 0.0000
-3.3130 <s> 670 0.0000
-3.3130 <s> 671 0.0000
-3.3130 <s> 672 0.0000
-3.3130 <s> 673 0.0000
-3.3130 <s> 674 0.0000
-3.3130 <s> 675 0.0000
-3.3130 <s> 676 0.0000
-3.3130 <s> 677 0.0000
-3.3130 <s> 678 0.0000
-3.3130 <s> 679 0.0000
-3.3130 <s> 68 0.0000
-3.3130 <s> 680 0.0000
-3.3130 <s> 681 0.0000
-3.3130 <s> 682 0.0000
-3.3130 <s> 683 0.0000
-3.3130 <s> 684 0.0000
-3.3130 <s> 685 0.0000
-3.3130 <s> 686 0.0000
-3.3130 <s> 687 0.0000
-3.3130 <s> 688 0.0000
-3.3130 <s> 689 0.0000
-3.3130 <s> 69 0.0000
-3.3130 <s> 690 0.0000
-3.3130 <s> 691 0.0000
-3.3130 <s> 692 0.0000
-3.3130 <s> 693 0.0000
-3.3130 <s> 694 0.0000
-3.3130 <s> 695 0.0000
-3.3130 <s> 696 0.0000
-3.3130 <s> 697 0.0000
-3.3130 <s> 698 0.0000
-3.3130 <s> 699 0.0000
-3.3130 <s> 7 0.0000
-3.3130 <s> 70 0.0000
-3.3130 <s> 700 0.0000
-3.3130 <s> 701 0.0000
-3.3130 <s> 702 0.0000
-3.3130 <s> 703 0.0000
-3.3130 <s> 704 0.0000
-3.3130 <s> 705 0.0000
-3.3130 <s> 706 0.0000
-3.3130 <s> 707 0.0000
-3.3130 <s> 708 0.0000
-3.3130 <s> 709 0.0000
-3.3130 <s> 71 0.0000
-3.3130 <s> 710 0.0000
-3.3130 <s> 711 0.0000
-3.3130 <s> 712 0.0000
-3.3130 <s> 713 0.0000
-3.3130 <s> 714 0.0000
-3.3130 <s> 715 0.0000
-3.3130 <s> 716 0.0000
-3.3130 <s> 717 0.0000
-3.3130 <s> 718 0.0000
-3.3130 <s> 719 0.0000
-3.3130 <s> 72 0.0000
-3.3130 <s> 720 0.0000
-3.3130 <s> 721 0.0000
-3.3130 <s> 722 0.0000
-3.3130 <s> 723 0.0000
-3.3130 <s> 724 0.0000
-3.3130 <s> 725 0.0000
-3.3130 <s> 726 0.0000
-3.3130 <s> 727 0.0000
-3.3130 <s> 728 0.0000
-3.3130 <s> 729 0.0000
-3.3130 <s> 73 0.0000
-3.3130 <s> 730 0.0000
-3.3130 <s> 731 0.0000
-3.3130 <s> 732 0.0000
-3.3130 <s> 733 0.0000
-3.3130 <s> 734 0.0000
-3.3130 <s> 735 0.0000
-3.3130 <s> 736 0.0000
-3.3130 <s> 737 0.0000
-3.3130 <s> 738 0.0000
-3.3130 <s> 739 0.0000
-3.3130 <s> 74 0.0000
-3.3130 <s> 740 0.0000
-3.3130 <s> 741 0.0000
-3.3130 <s> 742 0.0000
-3.3130 <s> 743 0.0000
-3.3130 <s> 744 0.0000
-3.3130 <s> 745 0.0000
-3.3130 <s> 746 0.0000
-3.3130 <s> 747 0.0000
-3.3130 <s> 748 0.0000
-3.3130 <s> 749 0.0000
-3.3130 <s> 75 0.0000
-3.3130 <s> 750 0.0000
-3.3130 <s> 751 0.0000
-3.3130 <s> 752 0.0000
-3.3130 <s> 753 0.0000
-3.3130 <s> 754 0.0000
-3.3130 <s> 755 0.0000
-3.3130 <s> 756 0.0000
-3.3130 <s> 757 0.0000
-3.3130 <s> 758 0.0000
-3.3130 <s> 759 0.0000
-3.3130 <s> 76 0.0000
-3.3130 <s> 760 0.0000
-3.3130 <s> 761 0.0000
-3.3130 <s> 762 0.0000
-3.3130 <s> 763 0.0000
-3.3130 <s> 764 0.0000
-3.3130 <s> 765 0.0000
-3.3130 <s> 766 0.0000
-3.3130 <s> 767 0.0000
-3.3130 <s> 768 0.0000
-3.3130 <s> 769 0.0000
-3.3130 <s> 77 0.0000
-3.3130 <s> 770 0.0000
-3.3130 <s> 771 0.0000
-3.3130 <s> 772 0.0000
-3.3130 <s> 773 0.0000
-3.3130 <s> 774 0.0000
-3.3130 <s> 775 0.0000
-3.3130 <s> 776 0.0000
-3.3130 <s> 777 0.0000
-3.3130 <s> 778 0.0000
-3.3130 <s> 779 0.0000
-3.3130 <s> 78 0.0000
-3.3130 <s> 780 0.0000
-3.3130 <s> 781 0.0000
-3.3130 <s> 782 0.0000
-3.3130 <s> 783 0.0000
-3.3130 <s> 784 0.0000
-3.3130 <s> 785 0.0000
-3.3130 <s> 786 0.0000
-3.3130 <s> 787 0.0000
-3.3130 <s> 788 0.0000
-3.3130 <s> 789 0.0000
-3.3130 <s> 79 0.0000
-3.3130 <s> 790 0.0000
-3.3130 <s> 791 0.0000
-3.3130 <s> 792 0.0000
-3.3130 <s> 793 0.0000
-3.3130 <s> 794 0.0000
-3.3130 <s> 795 0.0000
-3.3130 <s> 796 0.0000
-3.3130 <s> 797 0.0000
-3.3130 <s> 798 0.0000
-3.3130 <s> 799 0.0000
-3.3130 <s> 8 0.0000
-3.3130 <s> 80 0.0000
-3.3130 <s> 800 0.0000
-3.3130 <s> 801 0.0000
-3.3130 <s> 802 0.0000
-3.3130 <s> 803 0.0000
-3.3130 <s> 804 0.0000
-3.3130 <s> 805 0.0000
-3.3130 <s> 806 0.0000
-3.3130 <s> 807 0.0000
-3.3130 <s> 808 0.0000
-3.3130 <s> 809 0.0000
-3.3130 <s> 81 0.0000
-3.3130 <s> 810 0.0000
-3.3130 <s> 811 0.0000
-3.3130 <s> 812 0.0000
-3.3130 <s> 813 0.0000
-3.3130 <s> 814 0.0000
-3.3130 <s> 815 0.0000
-3.3130 <s> 816 0.0000
-3.3130 <s> 817 0.0000
-3.3130 <s> 818 0.0000
-3.3130 <s> 819 0.0000
-3.3130 <s> 82 0.0000
-3.3130 <s> 820 0.0000
-3.3130 <s> 821 0.0000
-3.3130 <s> 822 0.0000
-3.3130 <s> 823 0.0000
-3.3130 <s> 824 0.0000
-3.3130 <s> 825 0.0000
-3.3130 <s> 826 0.0000
-3.3130 <s> 827 0.0000
-3.3130 <s> 828 0.0000
-3.3130 <s> 829 0.0000
-3.3130 <s> 83 0.0000
-3.3130 <s> 830 0.0000
-3.3130 <s> 831 0.0000
-3.3130 <s> 832 0.0000
-3.3130 <s> 833 0.0000
-3.3130 <s> 834 0.0000
-3.3130 <s> 835 0.0000
-3.3130 <s> 836 0.0000
-3.3130 <s> 837 0.0000
-3.3130 <s> 838 0.0000
-3.3130 <s> 839 0.0000
-3.3130 <s> 84 0.0000
-3.3130 <s> 840 0.0000
-3.3130 <s> 841 0.0000
-3.3130 <s> 842 0.0000
-3.3130 <s> 843 0.0000
-3.3130 <s> 844 0.0000
-3.3130 <s> 845 0.0000
-3.3130 <s> 846 0.0000
-3.3130 <s> 847 0.0000
-3.3130 <s> 848 0.0000
-3.3130 <s> 849 0.0000
-3.3130 <s> 85 0.0000
-3.3130 <s> 850 0.0000
-3.3130 <s> 851 0.0000
-3.3130 <s> 852 0.0000
-3.3130 <s> 853 0.0000
-3.3130 <s> 854 0.0000
-3.3130 <s> 855 0.0000
-3.3130 <s> 856 0.0000
-3.3130 <s> 857 0.0000
-3.3130 <s> 858 0.0000
-3.3130 <s> 859 0.0000
-3.3130 <s> 86 0.0000
-3.3130 <s> 860 0.0000
-3.3130 <s> 861 0.0000
-3.3130 <s> 862 0.0000
-3.3130 <s> 863 0.0000
-3.3130 <s> 864 0.0000
-3.3130 <s> 865 0.0000
-3.3130 <s> 866 0.0000
-3.3130 <s> 867 0.0000
-3.3130 <s> 868 0.0000
-3.3130 <s> 869 0.0000
-3.3130 <s> 87 0.0000
-3.3130 <s> 870 0.0000
-3.3130 <s> 871 0.0000
-3.3130 <s> 872 0.0000
-3.3130 <s> 873 0.0000
-3.3130 <s> 874 0.0000
-3.3130 <s> 875 0.0000
-3.3130 <s> 876 0.0000
-3.3130 <s> 877 0.0000
-3.3130 <s> 878 0.0000
-3.3130 <s> 879 0.0000
-3.3130 <s> 88 0.0000
-3.3130 <s> 880 0.0000
-3.3130 <s> 881 0.0000
-3.3130 <s> 882 0.0000
-3.3130 <s> 883 0.0000
-3.3130 <s> 884 0.0000
-3.3130 <s> 885 0.0000
-3.3130 <s> 886 0.0000
-3.3130 <s> 887 0.0000
-3.3130 <s> 888 0.0000
-3.3130 <s> 889 0.0000
-3.3130 <s> 89 0.0000
-3.3130 <s> 890 0.0000
-3.3130 <s> 891 0.0000
-3.3130 <s> 892 0.0000
-3.3130 <s> 893 0.0000
-3.3130 <s> 894 0.0000
-3.3130 <s> 895 0.0000
-3.3130 <s> 896 0.0000
-3.3130 <s> 897 0.0000
-3.3130 <s> 898 0.0000
-3.3130 <s> 899 0.0000
-3.3130 <s> 9 0.0000
-3.3130 <s> 90 0.0000
-3.3130 <s> 900 0.0000
-3.3130 <s> 901 0.0000
-3.3130 <s> 902 0.0000
-3.3130 <s> 903 0.0000
-3.3130 <s> 904 0.0000
-3.3130 <s> 905 0.0000
-3.3130 <s> 906 0.0000
-3.3130 <s> 907 0.0000
-3.3130 <s> 908 0.0000
-3.3130 <s> 909 0.0000
-3.3130 <s> 91 0.0000
-3.3130 <s> 910 0.0000
-3.3130 <s> 911 0.0000
-3.3130 <s> 912 0.0000
-3.3130 <s> 913 0.0000
-3.3130 <s> 914 0.0000
-3.3130 <s> 915 0.0000
-3.3130 <s> 916 0.0000
-3.3130 <s> 917 0.0000
-3.3130 <s> 918 0.0000
-3.3130 <s> 919 0.0000
-3.3130 <s> 92 0.0000
-3.3130 <s> 920 0.0000
-3.3130 <s> 921 0.0000
-3.3130 <s> 922 0.0000
-3.3130 <s> 923 0.0000
-3.3130 <s> 924 0.0000
-3.3130 <s> 925 0.0000
-3.3130 <s> 926 0.0000
-3.3130 <s> 927 0.0000
-3.3130 <s> 928 0.0000
-3.3130 <s> 929 0.0000
-3.3130 <s> 93 0.0000
-3.3130 <s> 930 0.0000
-3.3130 <s> 931 0.0000
-3.3130 <s> 932 0.0000
-3.3130 <s> 933 0.0000
-3.3130 <s> 934 0.0000
-3.3130 <s> 935 0.0000
-3.3130 <s> 936 0.0000
-3.3130 <s> 937 0.0000
-3.3130 <s> 938 0.0000
-3.3130 <s> 939 0.0000
-3.3130 <s> 94 0.0000
-3.3130 <s> 940 0.0000
-3.3130 <s> 941 0.0000
-3.3130 <s> 942 0.0000
-3.3130 <s> 943 0.0000
-3.3130 <s> 944 0.0000
-3.3130 <s> 945 0.0000
-3.3130 <s> 946 0.0000
-3.3130 <s> 947 0.0000
-3.3130 <s> 948 0.0000
-3.3130 <s> 949 0.0000
-3.3130 <s> 95 0.0000
-3.3130 <s> 950 0.0000
-3.3130 <s> 951 0.0000
-3.3130 <s> 952 0.0000
-3.3130 <s> 953 0.0000
-3.3130 <s> 954 0.0000
-3.3130 <s> 955 0.0000
-3.3130 <s> 956 0.0000
-3.3130 <s> 957 0.0000
-3.3130 <s> 958 0.0000
-3.3130 <s> 959 0.0000
-3.3130 <s> 96 0.0000
-3.3130 <s> 960 0.0000
-3.3130 <s> 961 0.0000
-3.3130 <s> 962 0.0000
-3.3130 <s> 963 0.0000
-3.3130 <s> 964 0.0000
-3.3130 <s> 965 0.0000
-3.3130 <s> 966 0.0000
-3.3130 <s> 967 0.0000
-3.3130 <s> 968 0.0000
-3.3130 <s> 969 0.0000
-3.3130 <s> 97 0.0000
-3.3130 <s> 970 0.0000
-3.3130 <s> 971 0.0000
-3.3130 <s> 972 0.0000
-3.3130 <s> 973 0.0000
-3.3130 <s> 974 0.0000
-3.3130 <s> 975 0.0000
-3.3130 <s> 976 0.0000
-3.3130 <s> 977 0.0000
-3.3130 <s> 978 0.0000
-3.3130 <s> 979 0.0000
-3.3130 <s> 98 0.0000
-3.3130 <s> 980 0.0000
-3.3130 <s> 981 0.0000
-3.3130 <s> 982 0.0000
-3.3130 <s> 983 0.0000
-3.3130 <s> 984 0.0000
-3.3130 <s> 985 0.0000
-3.3130 <s> 986 0.0000
-3.3130 <s> 987 0.0000
-3.3130 <s> 988 0.0000
-3.3130 <s> 989 0.0000
-3.3130 <s> 99 0.0000
-3.3130 <s> 990 0.0000
-3.3130 <s> 991 0.0000
-3.3130 <s> 992 0.0000
-3.3130 <s> 993 0.0000
-3.3130 <s> 994 0.0000
-3.3130 <s> 995 0.0000
-3.3130 <s> 996 0.0000
-3.3130 <s> 997 0.0000
-3.3130 <s> 998 0.0000
-3.3130 <s> 999 0.0000
-3.3130 <s> DIX 0.0000
-3.3130 <s> DIXON 0.0000
-3.3130 <s> DOOR 0.0000
-3.3130 <s> FENN 0.0000
-3.3130 <s> FH 0.0000
-3.3130 <s> GO 0.0000
-3.3130 <s> HALL 0.0000
-3.3130 <s> HEAD 0.0000
-3.3130 <s> HEY 0.0000
-3.3130 <s> HUNDRED 0.0000
-3.3130 <s> HUNDRED'S 0.0000
-3.3130 <s> HUNDRED(2) 0.0000
-3.3130 <s> HUNDRED(3) 0.0000
-3.3130 <s> HUNDRED(4) 0.0000
-3.3130 <s> HUNDREDS 0.0000
-3.3130 <s> HUNDREDS(2) 0.0000
-3.3130 <s> HUNDREDS(3) 0.0000
-3.3130 <s> HUNDREDTH 0.0000
-3.3130 <s> HUNDREDTHS 0.0000
-3.3130 <s> HUNDREDWEIGHT 0.0000
-3.3130 <s> OFFICE 0.0000
-3.3130 <s> PLEASE 0.0000
-3.3130 <s> ROOM 0.0000
-3.3130 <s> TO 0.0000
-3.3130 <s> TO(2) 0.0000
-3.3130 <s> TO(3) 0.0000
-3.3130 <s> YO 0.0000
-3.0927 AH </s> -0.3010
-2.3938 AH D -0.1761
-0.3060 AH N 0.0000
-3.0927 AH S -0.2743
-0.7782 AO F -0.3007
-0.7782 AO L -0.1761
-0.7782 AO R -0.2727
-0.6021 AY N -0.0041
-0.6021 AY V -0.1761
-0.9823 D </s> -0.3010
-1.6812 D AO -0.2218
-1.3802 D ER 0.0000
-1.3802 D IH -0.0043
-0.8361 D R -0.2991
-1.3802 D TH -0.2996
-1.6812 D W -0.3003
-1.0792 D Z -0.2954
-0.3010 DIX D -0.2825
-0.3010 DIXON D -0.2825
-0.3010 DOOR D -0.2919
-2.7825 EH D -0.2533
-2.7825 EH F -0.3007
-2.7825 EH N -0.2401
-0.3054 EH V -0.1761
-0.3010 ER D -0.2109
-2.7810 EY </s> -0.3010
-0.3025 EY T -0.0015
-3.0813 F </s> -0.3010
-3.0813 F AH -0.3007
-0.6042 F AY -0.1761
-3.0813 F EH -0.3003
-0.6042 F OW -0.1435
-0.3010 FENN F -0.3007
-0.3010 FH EH -0.3003
-0.3010 G OW -0.2531
-0.3010 GO G 0.0000
-0.3010 HALL HH -0.2852
-0.3010 HEAD HH -0.2852
-0.3010 HEY HH -0.2852
-0.4058 HH AH -0.0049
-1.4472 HH AO -0.2218
-1.4472 HH EH -0.3003
-1.4472 HH EY -0.3003
-0.3010 HUNDRED HH -0.0843
-0.3010 HUNDRED'S HH -0.0843
-0.3010 HUNDRED(2) HH -0.0843
-0.3010 HUNDRED(3) HH -0.0843
-0.3010 HUNDRED(4) HH -0.0843
-0.3010 HUNDREDS HH -0.0843
-0.3010 HUNDREDS(2) HH -0.0843
-0.3010 HUNDREDS(3) HH -0.0843
-0.3010 HUNDREDTH HH -0.0843
-0.3010 HUNDREDTHS HH -0.0843
-0.3010 HUNDREDWEIGHT HH -0.0843
-2.7853 IH </s> -0.3010
-2.4843 IH D -0.2109
-0.3053 IH K 0.0000
-0.9921 IY </s> -0.3010
-1.6911 IY EY -0.0014
-1.3901 IY F -0.0022
-1.6911 IY N -0.2405
-0.7134 IY R -0.2461
-1.3901 IY S -0.1158
-1.6911 IY T -0.1716
-1.6911 IY TH -0.0029
-1.6911 IY W -0.0014
-1.6699 IY Z 0.0000
-0.3010 K S 0.0000
-0.6021 L </s> -0.3010
-0.6021 L IY -0.2916
-0.3010 M </s> -0.3010
-0.8829 N </s> -0.3010
-0.8857 N AY -0.1761
-2.4086 N D -0.2109
-3.0618 N ER 0.0000
-1.5847 N EY -0.0014
-1.2837 N F -0.0022
-1.2837 N S -0.1158
-1.5847 N T -0.1716
-1.5847 N TH -0.0029
-1.5847 N W -0.0014
-1.5847 N Z -0.0110
-0.3010 OFFICE AO -0.2218
-0.9810 OW </s> -0.3010
-2.0396 OW EY -0.0014
-1.7386 OW F -0.0022
-2.0396 OW N -0.2405
-0.5168 OW R -0.2104
-1.7386 OW S -0.1158
-2.0396 OW T -0.1716
-2.0396 OW TH -0.0029
-2.0396 OW W -0.0014
-2.0396 OW Z -0.0110
-0.3010 P L -0.1761
-0.3010 PLEASE P 0.0000
-1.1993 R </s> -0.3010
-2.5046 R AH -0.2993
-1.9025 R EY -0.0014
-1.6015 R F -0.0022
-2.9025 R IH -0.2996
-0.7265 R IY -0.1421
-1.9025 R N -0.2405
-0.9248 R OW -0.2064
-1.6015 R S -0.1158
-1.9025 R T -0.1716
-1.9025 R TH -0.0029
-3.2036 R UW -0.3003
-1.9025 R W -0.0014
-1.9025 R Z -0.0110
-0.3010 ROOM R -0.3008
-1.2247 S </s> -0.3010
-3.2375 S AH -0.0049
-0.7604 S EH -0.0043
-1.9365 S EY -0.0014
-1.6355 S F -0.0022
-0.7604 S IH -0.0043
-1.9365 S N -0.2405
-1.9365 S T -0.1716
-1.9365 S TH -0.0029
-1.9365 S W -0.0014
-1.9365 S Z -0.0110
-1.0631 T </s> -0.3010
-3.0674 T AH -0.3007
-1.7664 T EY -0.0014
-1.4654 T F -0.0022
-3.0674 T IH -0.3003
-1.7664 T N -0.2405
-1.4654 T S -0.1158
-1.7664 T TH -0.0029
-0.5889 T UW -0.0014
-1.7664 T W -0.0014
-1.7664 T Z -0.0110
-2.7810 TH </s> -0.3010
-0.3039 TH R -0.2107
-2.7810 TH S -0.2743
-0.3010 TO T -0.1716
-0.3010 TO(2) T -0.3007
-0.3010 TO(3) T -0.3007
-0.7767 UW </s> -0.3010
-1.4800 UW EY -0.0014
-1.1790 UW F -0.0022
-2.7810 UW M 0.0000
-1.4800 UW N -0.2405
-1.1790 UW S -0.1158
-1.4800 UW T -0.1716
-1.4800 UW TH -0.0029
-1.4800 UW W -0.0014
-1.4800 UW Z -0.0110
-1.0792 V </s> -0.3010
-0.6021 V AH -0.0049
-1.7782 V EY -0.0014
-1.4771 V F -0.0022
-1.7782 V N -0.2405
-1.4771 V S -0.1158
-1.7782 V T -0.1716
-1.7782 V TH -0.0029
-1.7782 V W -0.0014
-1.7782 V Z -0.0110
-0.3025 W AH -0.0049
-2.7796 W EY -0.0014
-0.3010 Y OW -0.2531
-0.3010 YO Y 0.0000
-1.8921 Z </s> -0.3010
-0.3123 Z IY -0.2076

\3-grams:
-0.3010 0 Z IY
-0.3010 0(2) OW </s>
-0.3010 1 W AH
-0.3010 10 W AH
-0.3010 100 W AH
-0.3010 101 W AH
-0.3010 102 W AH
-0.3010 103 W AH
-0.3010 104 W AH
-0.3010 105 W AH
-0.3010 106 W AH
-0.3010 107 W AH
-0.3010 108 W AH
-0.3010 109 W AH
-0.3010 11 W AH
-0.3010 110 W AH
-0.3010 111 W AH
-0.3010 112 W AH
-0.3010 113 W AH
-0.3010 114 W AH
-0.3010 115 W AH
-0.3010 116 W AH
-0.3010 117 W AH
-0.3010 118 W AH
-0.3010 119 W AH
-0.3010 12 W AH
-0.3010 120 W AH
-0.3010 121 W AH
-0.3010 122 W AH
-0.3010 123 W AH
-0.3010 124 W AH
-0.3010 125 W AH
-0.3010 126 W AH
-0.3010 127 W AH
-0.3010 128 W AH
-0.3010 129 W AH
-0.3010 13 W AH
-0.3010 130 W AH
-0.3010 131 W AH
-0.3010 132 W AH
-0.3010 133 W AH
-0.3010 134 W AH
-0.3010 135 W AH
-0.3010 136 W AH
-0.3010 137 W AH
-0.3010 138 W AH
-0.3010 139 W AH
-0.3010 14 W AH
-0.3010 140 W AH
-0.3010 141 W AH
-0.3010 142 W AH
-0.3010 143 W AH
-0.3010 144 W AH
-0.3010 145 W AH
-0.3010 146 W AH
-0.3010 147 W AH
-0.3010 148 W AH
-0.3010 149 W AH
-0.3010 15 W AH
-0.3010 150 W AH
-0.3010 151 W AH
-0.3010 152 W AH
-0.3010 153 W AH
-0.3010 154 W AH
-0.3010 155 W AH
-0.3010 156 W AH
-0.3010 157 W AH
-0.3010 158 W AH
-0.3010 159 W AH
-0.3010 16 W AH
-0.3010 160 W AH
-0.3010 161 W AH
-0.3010 162 W AH
-0.3010 163 W AH
-0.3010 164 W AH
-0.3010 165 W AH
-0.3010 166 W AH
-0.3010 167 W AH
-0.3010 168 W AH
-0.3010 169 W AH
-0.3010 17 W AH
-0.3010 170 W AH
-0.3010 171 W AH
-0.3010 172 W AH
-0.3010 173 W AH
-0.3010 174 W AH
-0.3010 175 W AH
-0.3010 176 W AH
-0.3010 177 W AH
-0.3010 178 W AH
-0.3010 179 W AH
-0.3010 18 W AH
-0.3010 180 W AH
-0.3010 181 W AH
-0.3010 182 W AH
-0.3010 183 W AH
-0.3010 184 W AH
-0.3010 185 W AH
-0.3010 186 W AH
-0.3010 187 W AH
-0.3010 188 W AH
-0.3010 189 W AH
-0.3010 19 W AH
-0.3010 190 W AH
-0.3010 191 W AH
-0.3010 192 W AH
-0.3010 193 W AH
-0.3010 194 W AH
-0.3010 195 W AH
-0.3010 196 W AH
-0.3010 197 W AH
-0.3010 198 W AH
-0.3010 199 W AH
-0.3010 2 T UW
-0.3010 20 T UW
-0.3010 200 T UW
-0.3010 201 T UW
-0.3010 202 T UW
-0.3010 203 T UW
-0.3010 204 T UW
-0.3010 205 T UW
-0.3010 206 T UW
-0.3010 207 T UW
-0.3010 208 T UW
-0.3010 209 T UW
-0.3010 21 T UW
-0.3010 210 T UW
-0.3010 211 T UW
-0.3010 212 T UW
-0.3010 213 T UW
-0.3010 214 T UW
-0.3010 215 T UW
-0.3010 216 T UW
-0.3010 217 T UW
-0.3010 218 T UW
-0.3010 219 T UW
-0.3010 22 T UW
-0.3010 220 T UW
-0.3010 221 T UW
-0.3010 222 T UW
-0.3010 223 T UW
-0.3010 224 T UW
-0.3010 225 T UW
-0.3010 226 T UW
-0.3010 227 T UW
-0.3010 228 T UW
-0.3010 229 T UW
-0.3010 23 T UW
-0.3010 230 T UW
-0.3010 231 T UW
-0.3010 232 T UW
-0.3010 233 T UW
-0.3010 234 T UW
-0.3010 235 T UW
-0.3010 236 T UW
-0.3010 237 T UW
-0.3010 238 T UW
-0.3010 239 T UW
-0.3010 24 T UW
-0.3010 240 T UW
-0.3010 241 T UW
-0.3010 242 T UW
-0.3010 243 T UW
-0.3010 244 T UW
-0.3010 245 T UW
-0.3010 246 T UW
-0.3010 247 T UW
-0.3010 248 T UW
-0.3010 249 T UW
-0.3010 25 T UW
-0.3010 250 T UW
-0.3010 251 T UW
-0.3010 252 T UW
-0.3010 253 T UW
-0.3010 254 T UW
-0.3010 255 T UW
-0.3010 256 T UW
-0.3010 257 T UW
-0.3010 258 T UW
-0.3010 259 T UW
-0.3010 26 T UW
-0.3010 260 T UW
-0.3010 261 T UW
-0.3010 262 T UW
-0.3010 263 T UW
-0.3010 264 T UW
-0.3010 265 T UW
-0.3010 266 T UW
-0.3010 267 T UW
-0.3010 268 T UW
-0.3010 269 T UW
-0.3010 27 T UW
-0.3010 270 T UW
-0.3010 271 T UW
-0.3010 272 T UW
-0.3010 273 T UW
-0.3010 274 T UW
-0.3010 275 T UW
-0.3010 276 T UW
-0.3010 277 T UW
-0.3010 278 T UW
-0.3010 279 T UW
-0.3010 28 T UW
-0.3010 280 T UW
-0.3010 281 T UW
-0.3010 282 T UW
-0.3010 283 T UW
-0.3010 284 T UW
-0.3010 285 T UW
-0.3010 286 T UW
-0.3010 287 T UW
-0.3010 288 T UW
-0.3010 289 T UW
-0.3010 29 T UW
-0.3010 290 T UW
-0.3010 291 T UW
-0.3010 292 T UW
-0.3010 293 T UW
-0.3010 294 T UW
-0.3010 295 T UW
-0.3010 296 T UW
-0.3010 297 T UW
-0.3010 298 T UW
-0.3010 299 T UW
-0.3010 3 TH R
-0.3010 30 TH R
-0.3010 300 TH R
-0.3010 301 TH R
-0.3010 302 TH R
-0.3010 303 TH R
-0.3010 304 TH R
-0.3010 305 TH R
-0.3010 306 TH R
-0.3010 307 TH R
-0.3010 308 TH R
-0.3010 309 TH R
-0.3010 31 TH R
-0.3010 310 TH R
-0.3010 311 TH R
-0.3010 312 TH R
-0.3010 313 TH R
-0.3010 314 TH R
-0.3010 315 TH R
-0.3010 316 TH R
-0.3010 317 TH R
-0.3010 318 TH R
-0.3010 319 TH R
-0.3010 32 TH R
-0.3010 320 TH R
-0.3010 321 TH R
-0.3010 322 TH R
-0.3010 323 TH R
-0.3010 324 TH R
-0.3010 325 TH R
-0.3010 326 TH R
-0.3010 327 TH R
-0.3010 328 TH R
-0.3010 329 TH R
-0.3010 33 TH R
-0.3010 330 TH R
-0.3010 331 TH R
-0.3010 332 TH R
-0.3010 333 TH R
-0.3010 334 TH R
-0.3010 335 TH R
-0.3010 336 TH R
-0.3010 337 TH R
-0.3010 338 TH R
-0.3010 339 TH R
-0.3010 34 TH R
-0.3010 340 TH R
-0.3010 341 TH R
-0.3010 342 TH R
-0.3010 343 TH R
-0.3010 344 TH R
-0.3010 345 TH R
-0.3010 346 TH R
-0.3010 347 TH R
-0.3010 348 TH R
-0.3010 349 TH R
-0.3010 35 TH R
-0.3010 350 TH R
-0.3010 351 TH R
-0.3010 352 TH R
-0.3010 353 TH R
-0.3010 354 TH R
-0.3010 355 TH R
-0.3010 356 TH R
-0.3010 357 TH R
-0.3010 358 TH R
-0.3010 359 TH R
-0.3010 36 TH R
-0.3010 360 TH R
-0.3010 361 TH R
-0.3010 362 TH R
-0.3010 363 TH R
-0.3010 364 TH R
-0.3010 365 TH R
-0.3010 366 TH R
-0.3010 367 TH R
-0.3010 368 TH R
-0.3010 369 TH R
-0.3010 37 TH R
-0.3010 370 TH R
-0.3010 371 TH R
-0.3010 372 TH R
-0.3010 373 TH R
-0.3010 374 TH R
-0.3010 375 TH R
-0.3010 376 TH R
-0.3010 377 TH R
-0.3010 378 TH R
-0.3010 379 TH R
-0.3010 38 TH R
-0.3010 380 TH R
-0.3010 381 TH R
-0.3010 382 TH R
-0.3010 383 TH R
-0.3010 384 TH R
-0.3010 385 TH R
-0.3010 386 TH R
-0.3010 387 TH R
-0.3010 388 TH R
-0.3010 389 TH R
-0.3010 39 TH R
-0.3010 390 TH R
-0.3010 391 TH R
-0.3010 392 TH R
-0.3010 393 TH R
-0.3010 394 TH R
-0.3010 395 TH R
-0.3010 396 TH R
-0.3010 397 TH R
-0.3010 398 TH R
-0.3010 399 TH R
-0.3010 4 F OW
-0.3010 40 F OW
-0.3010 400 F OW
-0.3010 401 F OW
-0.3010 402 F OW
-0.3010 403 F OW
-0.3010 404 F OW
-0.3010 405 F OW
-0.3010 406 F OW
-0.3010 407 F OW
-0.3010 408 F OW
-0.3010 409 F OW
-0.3010 41 F OW
-0.3010 410 F OW
-0.3010 411 F OW
-0.3010 412 F OW
-0.3010 413 F OW
-0.3010 414 F OW
-0.3010 415 F OW
-0.3010 416 F OW
-0.3010 417 F OW
-0.3010 418 F OW
-0.3010 419 F OW
-0.3010 42 F OW
-0.3010 420 F OW
-0.3010 421 F OW
-0.3010 422 F OW
-0.3010 423 F OW
-0.3010 424 F OW
-0.3010 425 F OW
-0.3010 426 F OW
-0.3010 427 F OW
-0.3010 428 F OW
-0.3010 429 F OW
-0.3010 43 F OW
-0.3010 430 F OW
-0.3010 431 F OW
-0.3010 432 F OW
-0.3010 433 F OW
-0.3010 434 F OW
-0.3010 435 F OW
-0.3010 436 F OW
-0.3010 437 F OW
-0.3010 438 F OW
-0.3010 439 F OW
-0.3010 44 F OW
-0.3010 440 F OW
-0.3010 441 F OW
-0.3010 442 F OW
-0.3010 443 F OW
-0.3010 444 F OW
-0.3010 445 F OW
-0.3010 446 F OW
-0.3010 447 F OW
-0.3010 448 F OW
-0.3010 449 F OW
-0.3010 45 F OW
-0.3010 450 F OW
-0.3010 451 F OW
-0.3010 452 F OW
-0.3010 453 F OW
-0.3010 454 F OW
-0.3010 455 F OW
-0.3010 456 F OW
-0.3010 457 F OW
-0.3010 458 F OW
-0.3010 459 F OW
-0.3010 46 F OW
-0.3010 460 F OW
-0.3010 461 F OW
-0.3010 462 F OW
-0.3010 463 F OW
-0.3010 464 F OW
-0.3010 465 F OW
-0.3010 466 F OW
-0.3010 467 F OW
-0.3010 468 F OW
-0.3010 469 F OW
-0.3010 47 F OW
-0.3010 470 F OW
-0.3010 471 F OW
-0.3010 472 F OW
-0.3010 473 F OW
-0.3010 474 F OW
-0.3010 475 F OW
-0.3010 476 F OW
-0.3010 477 F OW
-0.3010 478 F OW
-0.3010 479 F OW
-0.3010 48 F OW
-0.3010 480 F OW
-0.3010 481 F OW
-0.3010 482 F OW
-0.3010 483 F OW
-0.3010 484 F OW
-0.3010 485 F OW
-0.3010 486 F OW
-0.3010 487 F OW
-0.3010 488 F OW
-0.3010 489 F OW
-0.3010 49 F OW
-0.3010 490 F OW
-0.3010 491 F OW
-0.3010 492 F OW
-0.3010 493 F OW
-0.3010 494 F OW
-0.3010 495 F OW
-0.3010 496 F OW
-0.3010 497 F OW
-0.3010 498 F OW
-0.3010 499 F OW
-0.3010 5 F AY
-0.3010 50 F AY
-0.3010 500 F AY
-0.3010 501 F AY
-0.3010 502 F AY
-0.3010 503 F AY
-0.3010 504 F AY
-0.3010 505 F AY
-0.3010 506 F AY
-0.3010 507 F AY
-0.3010 508 F AY
-0.3010 509 F AY
-0.3010 51 F AY
-0.3010 510 F AY
-0.3010 511 F AY
-0.3010 512 F AY
-0.3010 513 F AY
-0.3010 514 F AY
-0.3010 515 F AY
-0.3010 516 F AY
-0.3010 517 F AY
-0.3010 518 F AY
-0.3010 519 F AY
-0.3010 52 F AY
-0.3010 520 F AY
-0.3010 521 F AY
-0.3010 522 F AY
-0.3010 523 F AY
-0.3010 524 F AY
-0.3010 525 F AY
-0.3010 526 F AY
-0.3010 527 F AY
-0.3010 528 F AY
-0.3010 529 F AY
-0.3010 53 F AY
-0.3010 530 F AY
-0.3010 531 F AY
-0.3010 532 F AY
-0.3010 533 F AY
-0.3010 534 F AY
-0.3010 535 F AY
-0.3010 536 F AY
-0.3010 537 F AY
-0.3010 538 F AY
-0.3010 539 F AY
-0.3010 54 F AY
-0.3010 540 F AY
-0.3010 541 F AY
-0.3010 542 F AY
-0.3010 543 F AY
-0.3010 544 F AY
-0.3010 545 F AY
-0.3010 546 F AY
-0.3010 547 F AY
-0.3010 548 F AY
-0.3010 549 F AY
-0.3010 55 F AY
-0.3010 550 F AY
-0.3010 551 F AY
-0.3010 552 F AY
-0.3010 553 F AY
-0.3010 554 F AY
-0.3010 555 F AY
-0.3010 556 F AY
-0.3010 557 F AY
-0.3010 558 F AY
-0.3010 559 F AY
-0.3010 56 F AY
-0.3010 560 F AY
-0.3010 561 F AY
-0.3010 562 F AY
-0.3010 563 F AY
-0.3010 564 F AY
-0.3010 565 F AY
-0.3010 566 F AY
-0.3010 567 F AY
-0.3010 568 F AY
-0.3010 569 F AY
-0.3010 57 F AY
-0.3010 570 F AY
-0.3010 571 F AY
-0.3010 572 F AY
-0.3010 573 F AY
-0.3010 574 F AY
-0.3010 575 F AY
-0.3010 576 F AY
-0.3010 577 F AY
-0.3010 578 F AY
-0.3010 579 F AY
-0.3010 58 F AY
-0.3010 580 F AY
-0.3010 581 F AY
-0.3010 582 F AY
-0.3010 583 F AY
-0.3010 584 F AY
-0.3010 585 F AY
-0.3010 586 F AY
-0.3010 587 F AY
-0.3010 588 F AY
-0.3010 589 F AY
-0.3010 59 F AY
-0.3010 590 F AY
-0.3010 591 F AY
-0.3010 592 F AY
-0.3010 593 F AY
-0.3010 594 F AY
-0.3010 595 F AY
-0.3010 596 F AY
-0.3010 597 F AY
-0.3010 598 F AY
-0.3010 599 F AY
-0.3010 6 S IH
-0.3010 60 S IH
-0.3010 600 S IH
-0.3010 601 S IH
-0.3010 602 S IH
-0.3010 603 S IH
-0.3010 604 S IH
-0.3010 605 S IH
-0.3010 606 S IH
-0.3010 607 S IH
-0.3010 608 S IH
-0.3010 609 S IH
-0.3010 61 S IH
-0.3010 610 S IH
-0.3010 611 S IH
-0.3010 612 S IH
-0.3010 613 S IH
-0.3010 614 S IH
-0.3010 615 S IH
-0.3010 616 S IH
-0.3010 617 S IH
-0.3010 618 S IH
-0.3010 619 S IH
-0.3010 62 S IH
-0.3010 620 S IH
-0.3010 621 S IH
-0.3010 622 S IH
-0.3010 623 S IH
-0.3010 624 S IH
-0.3010 625 S IH
-0.3010 626 S IH
-0.3010 627 S IH
-0.3010 628 S IH
-0.3010 629 S IH
-0.3010 63 S IH
-0.3010 630 S IH
-0.3010 631 S IH
-0.3010 632 S IH
-0.3010 633 S IH
-0.3010 634 S IH
-0.3010 635 S IH
-0.3010 636 S IH
-0.3010 637 S IH
-0.3010 638 S IH
-0.3010 639 S IH
-0.3010 64 S IH
-0.3010 640 S IH
-0.3010 641 S IH
-0.3010 642 S IH
-0.3010 643 S IH
-0.3010 644 S IH
-0.3010 645 S IH
-0.3010 646 S IH
-0.3010 647 S IH
-0.3010 648 S IH
-0.3010 649 S IH
-0.3010 65 S IH
-0.3010 650 S IH
-0.3010 651 S IH
-0.3010 652 S IH
-0.3010 653 S IH
-0.3010 654 S IH
-0.3010 655 S IH
-0.3010 656 S IH
-0.3010 657 S IH
-0.3010 658 S IH
-0.3010 659 S IH
-0.3010 66 S IH
-0.3010 660 S IH
-0.3010 661 S IH
-0.3010 662 S IH
-0.3010 663 S IH
-0.3010 664 S IH
-0.3010 665 S IH
-0.3010 666 S IH
-0.3010 667 S IH
-0.3010 668 S IH
-0.3010 669 S IH
-0.3010 67 S IH
-0.3010 670 S IH
-0.3010 671 S IH
-0.3010 672 S IH
-0.3010 673 S IH
-0.3010 674 S IH
-0.3010 675 S IH
-0.3010 676 S IH
-0.3010 677 S IH
-0.3010 678 S IH
-0.3010 679 S IH
-0.3010 68 S IH
-0.3010 680 S IH
-0.3010 681 S IH
-0.3010 682 S IH
-0.3010 683 S IH
-0.3010 684 S IH
-0.3010 685 S IH
-0.3010 686 S IH
-0.3010 687 S IH
-0.3010 688 S IH
-0.3010 689 S IH
-0.3010 69 S IH
-0.3010 690 S IH
-0.3010 691 S IH
-0.3010 692 S IH
-0.3010 693 S IH
-0.3010 694 S IH
-0.3010 695 S IH
-0.3010 696 S IH
-0.3010 697 S IH
-0.3010 698 S IH
-0.3010 699 S IH
-0.3010 7 S EH
-0.3010 70 S EH
-0.3010 700 S EH
-0.3010 701 S EH
-0.3010 702 S EH
-0.3010 703 S EH
-0.3010 704 S EH
-0.3010 705 S EH
-0.3010 706 S EH
-0.3010 707 S EH
-0.3010 708 S EH
-0.3010 709 S EH
-0.3010 71 S EH
-0.3010 710 S EH
-0.3010 711 S EH
-0.3010 712 S EH
-0.3010 713 S EH
-0.3010 714 S EH
-0.3010 715 S EH
-0.3010 716 S EH
-0.3010 717 S EH
-0.3010 718 S EH
-0.3010 719 S EH
-0.3010 72 S EH
-0.3010 720 S EH
-0.3010 721 S EH
-0.3010 722 S EH
-0.3010 723 S EH
-0.3010 724 S EH
-0.3010 725 S EH
-0.3010 726 S EH
-0.3010 727 S EH
-0.3010 728 S EH
-0.3010 729 S EH
-0.3010 73 S EH
-0.3010 730 S EH
-0.3010 731 S EH
-0.3010 732 S EH
-0.3010 733 S EH
-0.3010 734 S EH
-0.3010 735 S EH
-0.3010 736 S EH
-0.3010 737 S EH
-0.3010 738 S EH
-0.3010 739 S EH
-0.3010 74 S EH
-0.3010 740 S EH
-0.3010 741 S EH
-0.3010 742 S EH
-0.3010 743 S EH
-0.3010 744 S EH
-0.3010 745 S EH
-0.3010 746 S EH
-0.3010 747 S EH
-0.3010 748 S EH
-0.3010 749 S EH
-0.3010 75 S EH
-0.3010 750 S EH
-0.3010 751 S EH
-0.3010 752 S EH
-0.3010 753 S EH
-0.3010 754 S EH
-0.3010 755 S EH
-0.3010 756 S EH
-0.3010 757 S EH
-0.3010 758 S EH
-0.3010 759 S EH
-0.3010 76 S EH
-0.3010 760 S EH
-0.3010 761 S EH
-0.3010 762 S EH
-0.3010 763 S EH
-0.3010 764 S EH
-0.3010 765 S EH
-0.3010 766 S EH
-0.3010 767 S EH
-0.3010 768 S EH
-0.3010 769 S EH
-0.3010 77 S EH
-0.3010 770 S EH
-0.3010 771 S EH
-0.3010 772 S EH
-0.3010 773 S EH
-0.3010 774 S EH
-0.3010 775 S EH
-0.3010 776 S EH
-0.3010 777 S EH
-0.3010 778 S EH
-0.3010 779 S EH
-0.3010 78 S EH
-0.3010 780 S EH
-0.3010 781 S EH
-0.3010 782 S EH
-0.3010 783 S EH
-0.3010 784 S EH
-0.3010 785 S EH
-0.3010 786 S EH
-0.3010 787 S EH
-0.3010 788 S EH
-0.3010 789 S EH
-0.3010 79 S EH
-0.3010 790 S EH
-0.3010 791 S EH
-0.3010 792 S EH
-0.3010 793 S EH
-0.3010 794 S EH
-0.3010 795 S EH
-0.3010 796 S EH
-0.3010 797 S EH
-0.3010 798 S EH
-0.3010 799 S EH
-0.3010 8 EY T
-0.3010 80 EY T
-0.3010 800 EY T
-0.3010 801 EY T
-0.3010 802 EY T
-0.3010 803 EY T
-0.3010 804 EY T
-0.3010 805 EY T
-0.3010 806 EY T
-0.3010 807 EY T
-0.3010 808 EY T
-0.3010 809 EY T
-0.3010 81 EY T
-0.3010 810 EY T
-0.3010 811 EY T
-0.3010 812 EY T
-0.3010 813 EY T
-0.3010 814 EY T
-0.3010 815 EY T
-0.3010 816 EY T
-0.3010 817 EY T
-0.3010 818 EY T
-0.3010 819 EY T
-0.3010 82 EY T
-0.3010 820 EY T
-0.3010 821 EY T
-0.3010 822 EY T
-0.3010 823 EY T
-0.3010 824 EY T
-0.3010 825 EY T
-0.3010 826 EY T
-0.3010 827 EY T
-0.3010 828 EY T
-0.3010 829 EY T
-0.3010 83 EY T
-0.3010 830 EY T
-0.3010 831 EY T
-0.3010 832 EY T
-0.3010 833 EY T
-0.3010 834 EY T
-0.3010 835 EY T
-0.3010 836 EY T
-0.3010 837 EY T
-0.3010 838 EY T
-0.3010 839 EY T
-0.3010 84 EY T
-0.3010 840 EY T
-0.3010 841 EY T
-0.3010 842 EY T
-0.3010 843 EY T
-0.3010 844 EY T
-0.3010 845 EY T
-0.3010 846 EY T
-0.3010 847 EY T
-0.3010 848 EY T
-0.3010 849 EY T
-0.3010 85 EY T
-0.3010 850 EY T
-0.3010 851 EY T
-0.3010 852 EY T
-0.3010 853 EY T
-0.3010 854 EY T
-0.3010 855 EY T
-0.3010 856 EY T
-0.3010 857 EY T
-0.3010 858 EY T
-0.3010 859 EY T
-0.3010 86 EY T
-0.3010 860 EY T
-0.3010 861 EY T
-0.3010 862 EY T
-0.3010 863 EY T
-0.3010 864 EY T
-0.3010 865 EY T
-0.3010 866 EY T
-0.3010 867 EY T
-0.3010 868 EY T
-0.3010 869 EY T
-0.3010 87 EY T
-0.3010 870 EY T
-0.3010 871 EY T
-0.3010 872 EY T
-0.3010 873 EY T
-0.3010 874 EY T
-0.3010 875 EY T
-0.3010 876 EY T
-0.3010 877 EY T
-0.3010 878 EY T
-0.3010 879 EY T
-0.3010 88 EY T
-0.3010 880 EY T
-0.3010 881 EY T
-0.3010 882 EY T
-0.3010 883 EY T
-0.3010 884 EY T
-0.3010 885 EY T
-0.3010 886 EY T
-0.3010 887 EY T
-0.3010 888 EY T
-0.3010 889 EY T
-0.3010 89 EY T
-0.3010 890 EY T
-0.3010 891 EY T
-0.3010 892 EY T
-0.3010 893 EY T
-0.3010 894 EY T
-0.3010 895 EY T
-0.3010 896 EY T
-0.3010 897 EY T
-0.3010 898 EY T
-0.3010 899 EY T
-0.3010 9 N AY
-0.3010 90 N AY
-0.3010 900 N AY
-0.3010 901 N AY
-0.3010 902 N AY
-0.3010 903 N AY
-0.3010 904 N AY
-0.3010 905 N AY
-0.3010 906 N AY
-0.3010 907 N AY
-0.3010 908 N AY
-0.3010 909 N AY
-0.3010 91 N AY
-0.3010 910 N AY
-0.3010 911 N AY
-0.3010 912 N AY
-0.3010 913 N AY
-0.3010 914 N AY
-0.3010 915 N AY
-0.3010 916 N AY
-0.3010 917 N AY
-0.3010 918 N AY
-0.3010 919 N AY
-0.3010 92 N AY
-0.3010 920 N AY
-0.3010 921 N AY
-0.3010 922 N AY
-0.3010 923 N AY
-0.3010 924 N AY
-0.3010 925 N AY
-0.3010 926 N AY
-0.3010 927 N AY
-0.3010 928 N AY
-0.3010 929 N AY
-0.3010 93 N AY
-0.3010 930 N AY
-0.3010 931 N AY
-0.3010 932 N AY
-0.3010 933 N AY
-0.3010 934 N AY
-0.3010 935 N AY
-0.3010 936 N AY
-0.3010 937 N AY
-0.3010 938 N AY
-0.3010 939 N AY
-0.3010 94 N AY
-0.3010 940 N AY
-0.3010 941 N AY
-0.3010 942 N AY
-0.3010 943 N AY
-0.3010 944 N AY
-0.3010 945 N AY
-0.3010 946 N AY
-0.3010 947 N AY
-0.3010 948 N AY
-0.3010 949 N AY
-0.3010 95 N AY
-0.3010 950 N AY
-0.3010 951 N AY
-0.3010 952 N AY
-0.3010 953 N AY
-0.3010 954 N AY
-0.3010 955 N AY
-0.3010 956 N AY
-0.3010 957 N AY
-0.3010 958 N AY
-0.3010 959 N AY
-0.3010 96 N AY
-0.3010 960 N AY
-0.3010 961 N AY
-0.3010 962 N AY
-0.3010 963 N AY
-0.3010 964 N AY
-0.3010 965 N AY
-0.3010 966 N AY
-0.3010 967 N AY
-0.3010 968 N AY
-0.3010 969 N AY
-0.3010 97 N AY
-0.3010 970 N AY
-0.3010 971 N AY
-0.3010 972 N AY
-0.3010 973 N AY
-0.3010 974 N AY
-0.3010 975 N AY
-0.3010 976 N AY
-0.3010 977 N AY
-0.3010 978 N AY
-0.3010 979 N AY
-0.3010 98 N AY
-0.3010 980 N AY
-0.3010 981 N AY
-0.3010 982 N AY
-0.3010 983 N AY
-0.3010 984 N AY
-0.3010 985 N AY
-0.3010 986 N AY
-0.3010 987 N AY
-0.3010 988 N AY
-0.3010 989 N AY
-0.3010 99 N AY
-0.3010 990 N AY
-0.3010 991 N AY
-0.3010 992 N AY
-0.3010 993 N AY
-0.3010 994 N AY
-0.3010 995 N AY
-0.3010 996 N AY
-0.3010 997 N AY
-0.3010 998 N AY
-0.3010 999 N AY
-0.3010 <s> 0 Z
-0.3010 <s> 0(2) OW
-0.3010 <s> 1 W
-0.3010 <s> 10 W
-0.3010 <s> 100 W
-0.3010 <s> 101 W
-0.3010 <s> 102 W
-0.3010 <s> 103 W
-0.3010 <s> 104 W
-0.3010 <s> 105 W
-0.3010 <s> 106 W
-0.3010 <s> 107 W
-0.3010 <s> 108 W
-0.3010 <s> 109 W
-0.3010 <s> 11 W
-0.3010 <s> 110 W
-0.3010 <s> 111 W
-0.3010 <s> 112 W
-0.3010 <s> 113 W
-0.3010 <s> 114 W
-0.3010 <s> 115 W
-0.3010 <s> 116 W
-0.3010 <s> 117 W
-0.3010 <s> 118 W
-0.3010 <s> 119 W
-0.3010 <s> 12 W
-0.3010 <s> 120 W
-0.3010 <s> 121 W
-0.3010 <s> 122 W
-0.3010 <s> 123 W
-0.3010 <s> 124 W
-0.3010 <s> 125 W
-0.3010 <s> 126 W
-0.3010 <s> 127 W
-0.3010 <s> 128 W
-0.3010 <s> 129 W
-0.3010 <s> 13 W
-0.3010 <s> 130 W
-0.3010 <s> 131 W
-0.3010 <s> 132 W
-0.3010 <s> 133 W
-0.3010 <s> 134 W
-0.3010 <s> 135 W
-0.3010 <s> 136 W
-0.3010 <s> 137 W
-0.3010 <s> 138 W
-0.3010 <s> 139 W
-0.3010 <s> 14 W
-0.3010 <s> 140 W
-0.3010 <s> 141 W
-0.3010 <s> 142 W
-0.3010 <s> 143 W
-0.3010 <s> 144 W
-0.3010 <s> 145 W
-0.3010 <s> 146 W
-0.3010 <s> 147 W
-0.3010 <s> 148 W
-0.3010 <s> 149 W
-0.3010 <s> 15 W
-0.3010 <s> 150 W
-0.3010 <s> 151 W
-0.3010 <s> 152 W
-0.3010 <s> 153 W
-0.3010 <s> 154 W
-0.3010 <s> 155 W
-0.3010 <s> 156 W
-0.3010 <s> 157 W
-0.3010 <s> 158 W
-0.3010 <s> 159 W
-0.3010 <s> 16 W
-0.3010 <s> 160 W
-0.3010 <s> 161 W
-0.3010 <s> 162 W
-0.3010 <s> 163 W
-0.3010 <s> 164 W
-0.3010 <s> 165 W
-0.3010 <s> 166 W
-0.3010 <s> 167 W
-0.3010 <s> 168 W
-0.3010 <s> 169 W
-0.3010 <s> 17 W
-0.3010 <s> 170 W
-0.3010 <s> 171 W
-0.3010 <s> 172 W
-0.3010 <s> 173 W
-0.3010 <s> 174 W
-0.3010 <s> 175 W
-0.3010 <s> 176 W
-0.3010 <s> 177 W
-0.3010 <s> 178 W
-0.3010 <s> 179 W
-0.3010 <s> 18 W
-0.3010 <s> 180 W
-0.3010 <s> 181 W
-0.3010 <s> 182 W
-0.3010 <s> 183 W
-0.3010 <s> 184 W
-0.3010 <s> 185 W
-0.3010 <s> 186 W
-0.3010 <s> 187 W
-0.3010 <s> 188 W
-0.3010 <s> 189 W
-0.3010 <s> 19 W
-0.3010 <s> 190 W
-0.3010 <s> 191 W
-0.3010 <s> 192 W
-0.3010 <s> 193 W
-0.3010 <s> 194 W
-0.3010 <s> 195 W
-0.3010 <s> 196 W
-0.3010 <s> 197 W
-0.3010 <s> 198 W
-0.3010 <s> 199 W
-0.3010 <s> 2 T
-0.3010 <s> 20 T
-0.3010 <s> 200 T
-0.3010 <s> 201 T
-0.3010 <s> 202 T
-0.3010 <s> 203 T
-0.3010 <s> 204 T
-0.3010 <s> 205 T
-0.3010 <s> 206 T
-0.3010 <s> 207 T
-0.3010 <s> 208 T
-0.3010 <s> 209 T
-0.3010 <s> 21 T
-0.3010 <s> 210 T
-0.3010 <s> 211 T
-0.3010 <s> 212 T
-0.3010 <s> 213 T
-0.3010 <s> 214 T
-0.3010 <s> 215 T
-0.3010 <s> 216 T
-0.3010 <s> 217 T
-0.3010 <s> 218 T
-0.3010 <s> 219 T
-0.3010 <s> 22 T
-0.3010 <s> 220 T
-0.3010 <s> 221 T
-0.3010 <s> 222 T
-0.3010 <s> 223 T
-0.3010 <s> 224 T
-0.3010 <s> 225 T
-0.3010 <s> 226 T
-0.3010 <s> 227 T
-0.3010 <s> 228 T
-0.3010 <s> 229 T
-0.3010 <s> 23 T
-0.3010 <s> 230 T
-0.3010 <s> 231 T
-0.3010 <s> 232 T
-0.3010 <s> 233 T
-0.3010 <s> 234 T
-0.3010 <s> 235 T
-0.3010 <s> 236 T
-0.3010 <s> 237 T
-0.3010 <s> 238 T
-0.3010 <s> 239 T
-0.3010 <s> 24 T
-0.3010 <s> 240 T
-0.3010 <s> 241 T
-0.3010 <s> 242 T
-0.3010 <s> 243 T
-0.3010 <s> 244 T
-0.3010 <s> 245 T
-0.3010 <s> 246 T
-0.3010 <s> 247 T
-0.3010 <s> 248 T
-0.3010 <s> 249 T
-0.3010 <s> 25 T
-0.3010 <s> 250 T
-0.3010 <s> 251 T
-0.3010 <s> 252 T
-0.3010 <s> 253 T
-0.3010 <s> 254 T
-0.3010 <s> 255 T
-0.3010 <s> 256 T
-0.3010 <s> 257 T
-0.3010 <s> 258 T
-0.3010 <s> 259 T
-0.3010 <s> 26 T
-0.3010 <s> 260 T
-0.3010 <s> 261 T
-0.3010 <s> 262 T
-0.3010 <s> 263 T
-0.3010 <s> 264 T
-0.3010 <s> 265 T
-0.3010 <s> 266 T
-0.3010 <s> 267 T
-0.3010 <s> 268 T
-0.3010 <s> 269 T
-0.3010 <s> 27 T
-0.3010 <s> 270 T
-0.3010 <s> 271 T
-0.3010 <s> 272 T
-0.3010 <s> 273 T
-0.3010 <s> 274 T
-0.3010 <s> 275 T
-0.3010 <s> 276 T
-0.3010 <s> 277 T
-0.3010 <s> 278 T
-0.3010 <s> 279 T
-0.3010 <s> 28 T
-0.3010 <s> 280 T
-0.3010 <s> 281 T
-0.3010 <s> 282 T
-0.3010 <s> 283 T
-0.3010 <s> 284 T
-0.3010 <s> 285 T
-0.3010 <s> 286 T
-0.3010 <s> 287 T
-0.3010 <s> 288 T
-0.3010 <s> 289 T
-0.3010 <s> 29 T
-0.3010 <s> 290 T
-0.3010 <s> 291 T
-0.3010 <s> 292 T
-0.3010 <s> 293 T
-0.3010 <s> 294 T
-0.3010 <s> 295 T
-0.3010 <s> 296 T
-0.3010 <s> 297 T
-0.3010 <s> 298 T
-0.3010 <s> 299 T
-0.3010 <s> 3 TH
-0.3010 <s> 30 TH
-0.3010 <s> 300 TH
-0.3010 <s> 301 TH
-0.3010 <s> 302 TH
-0.3010 <s> 303 TH
-0.3010 <s> 304 TH
-0.3010 <s> 305 TH
-0.3010 <s> 306 TH
-0.3010 <s> 307 TH
-0.3010 <s> 308 TH
-0.3010 <s> 309 TH
-0.3010 <s> 31 TH
-0.3010 <s> 310 TH
-0.3010 <s> 311 TH
-0.3010 <s> 312 TH
-0.3010 <s> 313 TH
-0.3010 <s> 314 TH
-0.3010 <s> 315 TH
-0.3010 <s> 316 TH
-0.3010 <s> 317 TH
-0.3010 <s> 318 TH
-0.3010 <s> 319 TH
-0.3010 <s> 32 TH
-0.3010 <s> 320 TH
-0.3010 <s> 321 TH
-0.3010 <s> 322 TH
-0.3010 <s> 323 TH
-0.3010 <s> 324 TH
-0.3010 <s> 325 TH
-0.3010 <s> 326 TH
-0.3010 <s> 327 TH
-0.3010 <s> 328 TH
-0.3010 <s> 329 TH
-0.3010 <s> 33 TH
-0.3010 <s> 330 TH
-0.3010 <s> 331 TH
-0.3010 <s> 332 TH
-0.3010 <s> 333 TH
-0.3010 <s> 334 TH
-0.3010 <s> 335 TH
-0.3010 <s> 336 TH
-0.3010 <s> 337 TH
-0.3010 <s> 338 TH
-0.3010 <s> 339 TH
-0.3010 <s> 34 TH
-0.3010 <s> 340 TH
-0.3010 <s> 341 TH
-0.3010 <s> 342 TH
-0.3010 <s> 343 TH
-0.3010 <s> 344 TH
-0.3010 <s> 345 TH
-0.3010 <s> 346 TH
-0.3010 <s> 347 TH
-0.3010 <s> 348 TH
-0.3010 <s> 349 TH
-0.3010 <s> 35 TH
-0.3010 <s> 350 TH
-0.3010 <s> 351 TH
-0.3010 <s> 352 TH
-0.3010 <s> 353 TH
-0.3010 <s> 354 TH
-0.3010 <s> 355 TH
-0.3010 <s> 356 TH
-0.3010 <s> 357 TH
-0.3010 <s> 358 TH
-0.3010 <s> 359 TH
-0.3010 <s> 36 TH
-0.3010 <s> 360 TH
-0.3010 <s> 361 TH
-0.3010 <s> 362 TH
-0.3010 <s> 363 TH
-0.3010 <s> 364 TH
-0.3010 <s> 365 TH
-0.3010 <s> 366 TH
-0.3010 <s> 367 TH
-0.3010 <s> 368 TH
-0.3010 <s> 369 TH
-0.3010 <s> 37 TH
-0.3010 <s> 370 TH
-0.3010 <s> 371 TH
-0.3010 <s> 372 TH
-0.3010 <s> 373 TH
-0.3010 <s> 374 TH
-0.3010 <s> 375 TH
-0.3010 <s> 376 TH
-0.3010 <s> 377 TH
-0.3010 <s> 378 TH
-0.3010 <s> 379 TH
-0.3010 <s> 38 TH
-0.3010 <s> 380 TH
-0.3010 <s> 381 TH
-0.3010 <s> 382 TH
-0.3010 <s> 383 TH
-0.3010 <s> 384 TH
-0.3010 <s> 385 TH
-0.3010 <s> 386 TH
-0.3010 <s> 387 TH
-0.3010 <s> 388 TH
-0.3010 <s> 389 TH
-0.3010 <s> 39 TH
-0.3010 <s> 390 TH
-0.3010 <s> 391 TH
-0.3010 <s> 392 TH
-0.3010 <s> 393 TH
-0.3010 <s> 394 TH
-0.3010 <s> 395 TH
-0.3010 <s> 396 TH
-0.3010 <s> 397 TH
-0.3010 <s> 398 TH
-0.3010 <s> 399 TH
-0.3010 <s> 4 F
-0.3010 <s> 40 F
-0.3010 <s> 400 F
-0.3010 <s> 401 F
-0.3010 <s> 402 F
-0.3010 <s> 403 F
-0.3010 <s> 404 F
-0.3010 <s> 405 F
-0.3010 <s> 406 F
-0.3010 <s> 407 F
-0.3010 <s> 408 F
-0.3010 <s> 409 F
-0.3010 <s> 41 F
-0.3010 <s> 410 F
-0.3010 <s> 411 F
-0.3010 <s> 412 F
-0.3010 <s> 413 F
-0.3010 <s> 414 F
-0.3010 <s> 415 F
-0.3010 <s> 416 F
-0.3010 <s> 417 F
-0.3010 <s> 418 F
-0.3010 <s> 419 F
-0.3010 <s> 42 F
-0.3010 <s> 420 F
-0.3010 <s> 421 F
-0.3010 <s> 422 F
-0.3010 <s> 423 F
-0.3010 <s> 424 F
-0.3010 <s> 425 F
-0.3010 <s> 426 F
-0.3010 <s> 427 F
-0.3010 <s> 428 F
-0.3010 <s> 429 F
-0.3010 <s> 43 F
-0.3010 <s> 430 F
-0.3010 <s> 431 F
-0.3010 <s> 432 F
-0.3010 <s> 433 F
-0.3010 <s> 434 F
-0.3010 <s> 435 F
-0.3010 <s> 436 F
-0.3010 <s> 437 F
-0.3010 <s> 438 F
-0.3010 <s> 439 F
-0.3010 <s> 44 F
-0.3010 <s> 440 F
-0.3010 <s> 441 F
-0.3010 <s> 442 F
-0.3010 <s> 443 F
-0.3010 <s> 444 F
-0.3010 <s> 445 F
-0.3010 <s> 446 F
-0.3010 <s> 447 F
-0.3010 <s> 448 F
-0.3010 <s> 449 F
-0.3010 <s> 45 F
-0.3010 <s> 450 F
-0.3010 <s> 451 F
-0.3010 <s> 452 F
-0.3010 <s> 453 F
-0.3010 <s> 454 F
-0.3010 <s> 455 F
-0.3010 <s> 456 F
-0.3010 <s> 457 F
-0.3010 <s> 458 F
-0.3010 <s> 459 F
-0.3010 <s> 46 F
-0.3010 <s> 460 F
-0.3010 <s> 461 F
-0.3010 <s> 462 F
-0.3010 <s> 463 F
-0.3010 <s> 464 F
-0.3010 <s> 465 F
-0.3010 <s> 466 F
-0.3010 <s> 467 F
-0.3010 <s> 468 F
-0.3010 <s> 469 F
-0.3010 <s> 47 F
-0.3010 <s> 470 F
-0.3010 <s> 471 F
-0.3010 <s> 472 F
-0.3010 <s> 473 F
-0.3010 <s> 474 F
-0.3010 <s> 475 F
-0.3010 <s> 476 F
-0.3010 <s> 477 F
-0.3010 <s> 478 F
-0.3010 <s> 479 F
-0.3010 <s> 48 F
-0.3010 <s> 480 F
-0.3010 <s> 481 F
-0.3010 <s> 482 F
-0.3010 <s> 483 F
-0.3010 <s> 484 F
-0.3010 <s> 485 F
-0.3010 <s> 486 F
-0.3010 <s> 487 F
-0.3010 <s> 488 F
-0.3010 <s> 489 F
-0.3010 <s> 49 F
-0.3010 <s> 490 F
-0.3010 <s> 491 F
-0.3010 <s> 492 F
-0.3010 <s> 493 F
-0.3010 <s> 494 F
-0.3010 <s> 495 F
-0.3010 <s> 496 F
-0.3010 <s> 497 F
-0.3010 <s> 498 F
-0.3010 <s> 499 F
-0.3010 <s> 5 F
-0.3010 <s> 50 F
-0.3010 <s> 500 F
-0.3010 <s> 501 F
-0.3010 <s> 502 F
-0.3010 <s> 503 F
-0.3010 <s> 504 F
-0.3010 <s> 505 F
-0.3010 <s> 506 F
-0.3010 <s> 507 F
-0.3010 <s> 508 F
-0.3010 <s> 509 F
-0.3010 <s> 51 F
-0.3010 <s> 510 F
-0.3010 <s> 511 F
-0.3010 <s> 512 F
-0.3010 <s> 513 F
-0.3010 <s> 514 F
-0.3010 <s> 515 F
-0.3010 <s> 516 F
-0.3010 <s> 517 F
-0.3010 <s> 518 F
-0.3010 <s> 519 F
-0.3010 <s> 52 F
-0.3010 <s> 520 F
-0.3010 <s> 521 F
-0.3010 <s> 522 F
-0.3010 <s> 523 F
-0.3010 <s> 524 F
-0.3010 <s> 525 F
-0.3010 <s> 526 F
-0.3010 <s> 527 F
-0.3010 <s> 528 F
-0.3010 <s> 529 F
-0.3010 <s> 53 F
-0.3010 <s> 530 F
-0.3010 <s> 531 F
-0.3010 <s> 532 F
-0.3010 <s> 533 F
-0.3010 <s> 534 F
-0.3010 <s> 535 F
-0.3010 <s> 536 F
-0.3010 <s> 537 F
-0.3010 <s> 538 F
-0.3010 <s> 539 F
-0.3010 <s> 54 F
-0.3010 <s> 540 F
-0.3010 <s> 541 F
-0.3010 <s> 542 F
-0.3010 <s> 543 F
-0.3010 <s> 544 F
-0.3010 <s> 545 F
-0.3010 <s> 546 F
-0.3010 <s> 547 F
-0.3010 <s> 548 F
-0.3010 <s> 549 F
-0.3010 <s> 55 F
-0.3010 <s> 550 F
-0.3010 <s> 551 F
-0.3010 <s> 552 F
-0.3010 <s> 553 F
-0.3010 <s> 554 F
-0.3010 <s> 555 F
-0.3010 <s> 556 F
-0.3010 <s> 557 F
-0.3010 <s> 558 F
-0.3010 <s> 559 F
-0.3010 <s> 56 F
-0.3010 <s> 560 F
-0.3010 <s> 561 F
-0.3010 <s> 562 F
-0.3010 <s> 563 F
-0.3010 <s> 564 F
-0.3010 <s> 565 F
-0.3010 <s> 566 F
-0.3010 <s> 567 F
-0.3010 <s> 568 F
-0.3010 <s> 569 F
-0.3010 <s> 57 F
-0.3010 <s> 570 F
-0.3010 <s> 571 F
-0.3010 <s> 572 F
-0.3010 <s> 573 F
-0.3010 <s> 574 F
-0.3010 <s> 575 F
-0.3010 <s> 576 F
-0.3010 <s> 577 F
-0.3010 <s> 578 F
-0.3010 <s> 579 F
-0.3010 <s> 58 F
-0.3010 <s> 580 F
-0.3010 <s> 581 F
-0.3010 <s> 582 F
-0.3010 <s> 583 F
-0.3010 <s> 584 F
-0.3010 <s> 585 F
-0.3010 <s> 586 F
-0.3010 <s> 587 F
-0.3010 <s> 588 F
-0.3010 <s> 589 F
-0.3010 <s> 59 F
-0.3010 <s> 590 F
-0.3010 <s> 591 F
-0.3010 <s> 592 F
-0.3010 <s> 593 F
-0.3010 <s> 594 F
-0.3010 <s> 595 F
-0.3010 <s> 596 F
-0.3010 <s> 597 F
-0.3010 <s> 598 F
-0.3010 <s> 599 F
-0.3010 <s> 6 S
-0.3010 <s> 60 S
-0.3010 <s> 600 S
-0.3010 <s> 601 S
-0.3010 <s> 602 S
-0.3010 <s> 603 S
-0.3010 <s> 604 S
-0.3010 <s> 605 S
-0.3010 <s> 606 S
-0.3010 <s> 607 S
-0.3010 <s> 608 S
-0.3010 <s> 609 S
-0.3010 <s> 61 S
-0.3010 <s> 610 S
-0.3010 <s> 611 S
-0.3010 <s> 612 S
-0.3010 <s> 613 S
-0.3010 <s> 614 S
-0.3010 <s> 615 S
-0.3010 <s> 616 S
-0.3010 <s> 617 S
-0.3010 <s> 618 S
-0.3010 <s> 619 S
-0.3010 <s> 62 S
-0.3010 <s> 620 S
-0.3010 <s> 621 S
-0.3010 <s> 622 S
-0.3010 <s> 623 S
-0.3010 <s> 624 S
-0.3010 <s> 625 S
-0.3010 <s> 626 S
-0.3010 <s> 627 S
-0.3010 <s> 628 S
-0.3010 <s> 629 S
-0.3010 <s> 63 S
-0.3010 <s> 630 S
-0.3010 <s> 631 S
-0.3010 <s> 632 S
-0.3010 <s> 633 S
-0.3010 <s> 634 S
-0.3010 <s> 635 S
-0.3010 <s> 636 S
-0.3010 <s> 637 S
-0.3010 <s> 638 S
-0.3010 <s> 639 S
-0.3010 <s> 64 S
-0.3010 <s> 640 S
-0.3010 <s> 641 S
-0.3010 <s> 642 S
-0.3010 <s> 643 S
-0.3010 <s> 644 S
-0.3010 <s> 645 S
-0.3010 <s> 646 S
-0.3010 <s> 647 S
-0.3010 <s> 648 S
-0.3010 <s> 649 S
-0.3010 <s> 65 S
-0.3010 <s> 650 S
-0.3010 <s> 651 S
-0.3010 <s> 652 S
-0.3010 <s> 653 S
-0.3010 <s> 654 S
-0.3010 <s> 655 S
-0.3010 <s> 656 S
-0.3010 <s> 657 S
-0.3010 <s> 658 S
-0.3010 <s> 659 S
-0.3010 <s> 66 S
-0.3010 <s> 660 S
-0.3010 <s> 661 S
-0.3010 <s> 662 S
-0.3010 <s> 663 S
-0.3010 <s> 664 S
-0.3010 <s> 665 S
-0.3010 <s> 666 S
-0.3010 <s> 667 S
-0.3010 <s> 668 S
-0.3010 <s> 669 S
-0.3010 <s> 67 S
-0.3010 <s> 670 S
-0.3010 <s> 671 S
-0.3010 <s> 672 S
-0.3010 <s> 673 S
-0.3010 <s> 674 S
-0.3010 <s> 675 S
-0.3010 <s> 676 S
-0.3010 <s> 677 S
-0.3010 <s> 678 S
-0.3010 <s> 679 S
-0.3010 <s> 68 S
-0.3010 <s> 680 S
-0.3010 <s> 681 S
-0.3010 <s> 682 S
-0.3010 <s> 683 S
-0.3010 <s> 684 S
-0.3010 <s> 685 S
-0.3010 <s> 686 S
-0.3010 <s> 687 S
-0.3010 <s> 688 S
-0.3010 <s> 689 S
-0.3010 <s> 69 S
-0.3010 <s> 690 S
-0.3010 <s> 691 S
-0.3010 <s> 692 S
-0.3010 <s> 693 S
-0.3010 <s> 694 S
-0.3010 <s> 695 S
-0.3010 <s> 696 S
-0.3010 <s> 697 S
-0.3010 <s> 698 S
