Language model created by QuickLM on Sat Apr  8 21:08:45 EDT 2017
Copyright (c) 1996-2010 Carnegie Mellon University and Alexander I. Rudnicky

The model is in standard ARPA format, designed by Doug Paul while he was at MITRE.

The code that was used to produce this language model is available in Open Source.
Please visit http://www.speech.cs.cmu.edu/tools/ for more information

The (fixed) discount mass is 0.5. The backoffs are computed using the ratio method.
This model based on a corpus of 1028 sentences and 1030 words

\data\
ngram 1=1030
ngram 2=2056
ngram 3=1028

\1-grams:
-3.7901 0 -0.2218
-3.7901 1 -0.2218
-3.7901 10 -0.2218
-3.7901 100 -0.2218
-3.7901 101 -0.2218
-3.7901 102 -0.2218
-3.7901 103 -0.2218
-3.7901 104 -0.2218
-3.7901 105 -0.2218
-3.7901 106 -0.2218
-3.7901 107 -0.2218
-3.7901 108 -0.2218
-3.7901 109 -0.2218
-3.7901 11 -0.2218
-3.7901 110 -0.2218
-3.7901 111 -0.2218
-3.7901 112 -0.2218
-3.7901 113 -0.2218
-3.7901 114 -0.2218
-3.7901 115 -0.2218
-3.7901 116 -0.2218
-3.7901 117 -0.2218
-3.7901 118 -0.2218
-3.7901 119 -0.2218
-3.7901 12 -0.2218
-3.7901 120 -0.2218
-3.7901 121 -0.2218
-3.7901 122 -0.2218
-3.7901 123 -0.2218
-3.7901 124 -0.2218
-3.7901 125 -0.2218
-3.7901 126 -0.2218
-3.7901 127 -0.2218
-3.7901 128 -0.2218
-3.7901 129 -0.2218
-3.7901 13 -0.2218
-3.7901 130 -0.2218
-3.7901 131 -0.2218
-3.7901 132 -0.2218
-3.7901 133 -0.2218
-3.7901 134 -0.2218
-3.7901 135 -0.2218
-3.7901 136 -0.2218
-3.7901 137 -0.2218
-3.7901 138 -0.2218
-3.7901 139 -0.2218
-3.7901 14 -0.2218
-3.7901 140 -0.2218
-3.7901 141 -0.2218
-3.7901 142 -0.2218
-3.7901 143 -0.2218
-3.7901 144 -0.2218
-3.7901 145 -0.2218
-3.7901 146 -0.2218
-3.7901 147 -0.2218
-3.7901 148 -0.2218
-3.7901 149 -0.2218
-3.7901 15 -0.2218
-3.7901 150 -0.2218
-3.7901 151 -0.2218
-3.7901 152 -0.2218
-3.7901 153 -0.2218
-3.7901 154 -0.2218
-3.7901 155 -0.2218
-3.7901 156 -0.2218
-3.7901 157 -0.2218
-3.7901 158 -0.2218
-3.7901 159 -0.2218
-3.7901 16 -0.2218
-3.7901 160 -0.2218
-3.7901 161 -0.2218
-3.7901 162 -0.2218
-3.7901 163 -0.2218
-3.7901 164 -0.2218
-3.7901 165 -0.2218
-3.7901 166 -0.2218
-3.7901 167 -0.2218
-3.7901 168 -0.2218
-3.7901 169 -0.2218
-3.7901 17 -0.2218
-3.7901 170 -0.2218
-3.7901 171 -0.2218
-3.7901 172 -0.2218
-3.7901 173 -0.2218
-3.7901 174 -0.2218
-3.7901 175 -0.2218
-3.7901 176 -0.2218
-3.7901 177 -0.2218
-3.7901 178 -0.2218
-3.7901 179 -0.2218
-3.7901 18 -0.2218
-3.7901 180 -0.2218
-3.7901 181 -0.2218
-3.7901 182 -0.2218
-3.7901 183 -0.2218
-3.7901 184 -0.2218
-3.7901 185 -0.2218
-3.7901 186 -0.2218
-3.7901 187 -0.2218
-3.7901 188 -0.2218
-3.7901 189 -0.2218
-3.7901 19 -0.2218
-3.7901 190 -0.2218
-3.7901 191 -0.2218
-3.7901 192 -0.2218
-3.7901 193 -0.2218
-3.7901 194 -0.2218
-3.7901 195 -0.2218
-3.7901 196 -0.2218
-3.7901 197 -0.2218
-3.7901 198 -0.2218
-3.7901 199 -0.2218
-3.7901 2 -0.2218
-3.7901 20 -0.2218
-3.7901 200 -0.2218
-3.7901 201 -0.2218
-3.7901 202 -0.2218
-3.7901 203 -0.2218
-3.7901 204 -0.2218
-3.7901 205 -0.2218
-3.7901 206 -0.2218
-3.7901 207 -0.2218
-3.7901 208 -0.2218
-3.7901 209 -0.2218
-3.7901 21 -0.2218
-3.7901 210 -0.2218
-3.7901 211 -0.2218
-3.7901 212 -0.2218
-3.7901 213 -0.2218
-3.7901 214 -0.2218
-3.7901 215 -0.2218
-3.7901 216 -0.2218
-3.7901 217 -0.2218
-3.7901 218 -0.2218
-3.7901 219 -0.2218
-3.7901 22 -0.2218
-3.7901 220 -0.2218
-3.7901 221 -0.2218
-3.7901 222 -0.2218
-3.7901 223 -0.2218
-3.7901 224 -0.2218
-3.7901 225 -0.2218
-3.7901 226 -0.2218
-3.7901 227 -0.2218
-3.7901 228 -0.2218
-3.7901 229 -0.2218
-3.7901 23 -0.2218
-3.7901 230 -0.2218
-3.7901 231 -0.2218
-3.7901 232 -0.2218
-3.7901 233 -0.2218
-3.7901 234 -0.2218
-3.7901 235 -0.2218
-3.7901 236 -0.2218
-3.7901 237 -0.2218
-3.7901 238 -0.2218
-3.7901 239 -0.2218
-3.7901 24 -0.2218
-3.7901 240 -0.2218
-3.7901 241 -0.2218
-3.7901 242 -0.2218
-3.7901 243 -0.2218
-3.7901 244 -0.2218
-3.7901 245 -0.2218
-3.7901 246 -0.2218
-3.7901 247 -0.2218
-3.7901 248 -0.2218
-3.7901 249 -0.2218
-3.7901 25 -0.2218
-3.7901 250 -0.2218
-3.7901 251 -0.2218
-3.7901 252 -0.2218
-3.7901 253 -0.2218
-3.7901 254 -0.2218
-3.7901 255 -0.2218
-3.7901 256 -0.2218
-3.7901 257 -0.2218
-3.7901 258 -0.2218
-3.7901 259 -0.2218
-3.7901 26 -0.2218
-3.7901 260 -0.2218
-3.7901 261 -0.2218
-3.7901 262 -0.2218
-3.7901 263 -0.2218
-3.7901 264 -0.2218
-3.7901 265 -0.2218
-3.7901 266 -0.2218
-3.7901 267 -0.2218
-3.7901 268 -0.2218
-3.7901 269 -0.2218
-3.7901 27 -0.2218
-3.7901 270 -0.2218
-3.7901 271 -0.2218
-3.7901 272 -0.2218
-3.7901 273 -0.2218
-3.7901 274 -0.2218
-3.7901 275 -0.2218
-3.7901 276 -0.2218
-3.7901 277 -0.2218
-3.7901 278 -0.2218
-3.7901 279 -0.2218
-3.7901 28 -0.2218
-3.7901 280 -0.2218
-3.7901 281 -0.2218
-3.7901 282 -0.2218
-3.7901 283 -0.2218
-3.7901 284 -0.2218
-3.7901 285 -0.2218
-3.7901 286 -0.2218
-3.7901 287 -0.2218
-3.7901 288 -0.2218
-3.7901 289 -0.2218
-3.7901 29 -0.2218
-3.7901 290 -0.2218
-3.7901 291 -0.2218
-3.7901 292 -0.2218
-3.7901 293 -0.2218
-3.7901 294 -0.2218
-3.7901 295 -0.2218
-3.7901 296 -0.2218
-3.7901 297 -0.2218
-3.7901 298 -0.2218
-3.7901 299 -0.2218
-3.7901 3 -0.2218
-3.7901 30 -0.2218
-3.7901 300 -0.2218
-3.7901 301 -0.2218
-3.7901 302 -0.2218
-3.7901 303 -0.2218
-3.7901 304 -0.2218
-3.7901 305 -0.2218
-3.7901 306 -0.2218
-3.7901 307 -0.2218
-3.7901 308 -0.2218
-3.7901 309 -0.2218
-3.7901 31 -0.2218
-3.7901 310 -0.2218
-3.7901 311 -0.2218
-3.7901 312 -0.2218
-3.7901 313 -0.2218
-3.7901 314 -0.2218
-3.7901 315 -0.2218
-3.7901 316 -0.2218
-3.7901 317 -0.2218
-3.7901 318 -0.2218
-3.7901 319 -0.2218
-3.7901 32 -0.2218
-3.7901 320 -0.2218
-3.7901 321 -0.2218
-3.7901 322 -0.2218
-3.7901 323 -0.2218
-3.7901 324 -0.2218
-3.7901 325 -0.2218
-3.7901 326 -0.2218
-3.7901 327 -0.2218
-3.7901 328 -0.2218
-3.7901 329 -0.2218
-3.7901 33 -0.2218
-3.7901 330 -0.2218
-3.7901 331 -0.2218
-3.7901 332 -0.2218
-3.7901 333 -0.2218
-3.7901 334 -0.2218
-3.7901 335 -0.2218
-3.7901 336 -0.2218
-3.7901 337 -0.2218
-3.7901 338 -0.2218
-3.7901 339 -0.2218
-3.7901 34 -0.2218
-3.7901 340 -0.2218
-3.7901 341 -0.2218
-3.7901 342 -0.2218
-3.7901 343 -0.2218
-3.7901 344 -0.2218
-3.7901 345 -0.2218
-3.7901 346 -0.2218
-3.7901 347 -0.2218
-3.7901 348 -0.2218
-3.7901 349 -0.2218
-3.7901 35 -0.2218
-3.7901 350 -0.2218
-3.7901 351 -0.2218
-3.7901 352 -0.2218
-3.7901 353 -0.2218
-3.7901 354 -0.2218
-3.7901 355 -0.2218
-3.7901 356 -0.2218
-3.7901 357 -0.2218
-3.7901 358 -0.2218
-3.7901 359 -0.2218
-3.7901 36 -0.2218
-3.7901 360 -0.2218
-3.7901 361 -0.2218
-3.7901 362 -0.2218
-3.7901 363 -0.2218
-3.7901 364 -0.2218
-3.7901 365 -0.2218
-3.7901 366 -0.2218
-3.7901 367 -0.2218
-3.7901 368 -0.2218
-3.7901 369 -0.2218
-3.7901 37 -0.2218
-3.7901 370 -0.2218
-3.7901 371 -0.2218
-3.7901 372 -0.2218
-3.7901 373 -0.2218
-3.7901 374 -0.2218
-3.7901 375 -0.2218
-3.7901 376 -0.2218
-3.7901 377 -0.2218
-3.7901 378 -0.2218
-3.7901 379 -0.2218
-3.7901 38 -0.2218
-3.7901 380 -0.2218
-3.7901 381 -0.2218
-3.7901 382 -0.2218
-3.7901 383 -0.2218
-3.7901 384 -0.2218
-3.7901 385 -0.2218
-3.7901 386 -0.2218
-3.7901 387 -0.2218
-3.7901 388 -0.2218
-3.7901 389 -0.2218
-3.7901 39 -0.2218
-3.7901 390 -0.2218
-3.7901 391 -0.2218
-3.7901 392 -0.2218
-3.7901 393 -0.2218
-3.7901 394 -0.2218
-3.7901 395 -0.2218
-3.7901 396 -0.2218
-3.7901 397 -0.2218
-3.7901 398 -0.2218
-3.7901 399 -0.2218
-3.7901 4 -0.2218
-3.7901 40 -0.2218
-3.7901 400 -0.2218
-3.7901 401 -0.2218
-3.7901 402 -0.2218
-3.7901 403 -0.2218
-3.7901 404 -0.2218
-3.7901 405 -0.2218
-3.7901 406 -0.2218
-3.7901 407 -0.2218
-3.7901 408 -0.2218
-3.7901 409 -0.2218
-3.7901 41 -0.2218
-3.7901 410 -0.2218
-3.7901 411 -0.2218
-3.7901 412 -0.2218
-3.7901 413 -0.2218
-3.7901 414 -0.2218
-3.7901 415 -0.2218
-3.7901 416 -0.2218
-3.7901 417 -0.2218
-3.7901 418 -0.2218
-3.7901 419 -0.2218
-3.7901 42 -0.2218
-3.7901 420 -0.2218
-3.7901 421 -0.2218
-3.7901 422 -0.2218
-3.7901 423 -0.2218
-3.7901 424 -0.2218
-3.7901 425 -0.2218
-3.7901 426 -0.2218
-3.7901 427 -0.2218
-3.7901 428 -0.2218
-3.7901 429 -0.2218
-3.7901 43 -0.2218
-3.7901 430 -0.2218
-3.7901 431 -0.2218
-3.7901 432 -0.2218
-3.7901 433 -0.2218
-3.7901 434 -0.2218
-3.7901 435 -0.2218
-3.7901 436 -0.2218
-3.7901 437 -0.2218
-3.7901 438 -0.2218
-3.7901 439 -0.2218
-3.7901 44 -0.2218
-3.7901 440 -0.2218
-3.7901 441 -0.2218
-3.7901 442 -0.2218
-3.7901 443 -0.2218
-3.7901 444 -0.2218
-3.7901 445 -0.2218
-3.7901 446 -0.2218
-3.7901 447 -0.2218
-3.7901 448 -0.2218
-3.7901 449 -0.2218
-3.7901 45 -0.2218
-3.7901 450 -0.2218
-3.7901 451 -0.2218
-3.7901 452 -0.2218
-3.7901 453 -0.2218
-3.7901 454 -0.2218
-3.7901 455 -0.2218
-3.7901 456 -0.2218
-3.7901 457 -0.2218
-3.7901 458 -0.2218
-3.7901 459 -0.2218
-3.7901 46 -0.2218
-3.7901 460 -0.2218
-3.7901 461 -0.2218
-3.7901 462 -0.2218
-3.7901 463 -0.2218
-3.7901 464 -0.2218
-3.7901 465 -0.2218
-3.7901 466 -0.2218
-3.7901 467 -0.2218
-3.7901 468 -0.2218
-3.7901 469 -0.2218
-3.7901 47 -0.2218
-3.7901 470 -0.2218
-3.7901 471 -0.2218
-3.7901 472 -0.2218
-3.7901 473 -0.2218
-3.7901 474 -0.2218
-3.7901 475 -0.2218
-3.7901 476 -0.2218
-3.7901 477 -0.2218
-3.7901 478 -0.2218
-3.7901 479 -0.2218
-3.7901 48 -0.2218
-3.7901 480 -0.2218
-3.7901 481 -0.2218
-3.7901 482 -0.2218
-3.7901 483 -0.2218
-3.7901 484 -0.2218
-3.7901 485 -0.2218
-3.7901 486 -0.2218
-3.7901 487 -0.2218
-3.7901 488 -0.2218
-3.7901 489 -0.2218
-3.7901 49 -0.2218
-3.7901 490 -0.2218
-3.7901 491 -0.2218
-3.7901 492 -0.2218
-3.7901 493 -0.2218
-3.7901 494 -0.2218
-3.7901 495 -0.2218
-3.7901 496 -0.2218
-3.7901 497 -0.2218
-3.7901 498 -0.2218
-3.7901 499 -0.2218
-3.7901 5 -0.2218
-3.7901 50 -0.2218
-3.7901 500 -0.2218
-3.7901 501 -0.2218
-3.7901 502 -0.2218
-3.7901 503 -0.2218
-3.7901 504 -0.2218
-3.7901 505 -0.2218
-3.7901 506 -0.2218
-3.7901 507 -0.2218
-3.7901 508 -0.2218
-3.7901 509 -0.2218
-3.7901 51 -0.2218
-3.7901 510 -0.2218
-3.7901 511 -0.2218
-3.7901 512 -0.2218
-3.7901 513 -0.2218
-3.7901 514 -0.2218
-3.7901 515 -0.2218
-3.7901 516 -0.2218
-3.7901 517 -0.2218
-3.7901 518 -0.2218
-3.7901 519 -0.2218
-3.7901 52 -0.2218
-3.7901 520 -0.2218
-3.7901 521 -0.2218
-3.7901 522 -0.2218
-3.7901 523 -0.2218
-3.7901 524 -0.2218
-3.7901 525 -0.2218
-3.7901 526 -0.2218
-3.7901 527 -0.2218
-3.7901 528 -0.2218
-3.7901 529 -0.2218
-3.7901 53 -0.2218
-3.7901 530 -0.2218
-3.7901 531 -0.2218
-3.7901 532 -0.2218
-3.7901 533 -0.2218
-3.7901 534 -0.2218
-3.7901 535 -0.2218
-3.7901 536 -0.2218
-3.7901 537 -0.2218
-3.7901 538 -0.2218
-3.7901 539 -0.2218
-3.7901 54 -0.2218
-3.7901 540 -0.2218
-3.7901 541 -0.2218
-3.7901 542 -0.2218
-3.7901 543 -0.2218
-3.7901 544 -0.2218
-3.7901 545 -0.2218
-3.7901 546 -0.2218
-3.7901 547 -0.2218
-3.7901 548 -0.2218
-3.7901 549 -0.2218
-3.7901 55 -0.2218
-3.7901 550 -0.2218
-3.7901 551 -0.2218
-3.7901 552 -0.2218
-3.7901 553 -0.2218
-3.7901 554 -0.2218
-3.7901 555 -0.2218
-3.7901 556 -0.2218
-3.7901 557 -0.2218
-3.7901 558 -0.2218
-3.7901 559 -0.2218
-3.7901 56 -0.2218
-3.7901 560 -0.2218
-3.7901 561 -0.2218
-3.7901 562 -0.2218
-3.7901 563 -0.2218
-3.7901 564 -0.2218
-3.7901 565 -0.2218
-3.7901 566 -0.2218
-3.7901 567 -0.2218
-3.7901 568 -0.2218
-3.7901 569 -0.2218
-3.7901 57 -0.2218
-3.7901 570 -0.2218
-3.7901 571 -0.2218
-3.7901 572 -0.2218
-3.7901 573 -0.2218
-3.7901 574 -0.2218
-3.7901 575 -0.2218
-3.7901 576 -0.2218
-3.7901 577 -0.2218
-3.7901 578 -0.2218
-3.7901 579 -0.2218
-3.7901 58 -0.2218
-3.7901 580 -0.2218
-3.7901 581 -0.2218
-3.7901 582 -0.2218
-3.7901 583 -0.2218
-3.7901 584 -0.2218
-3.7901 585 -0.2218
-3.7901 586 -0.2218
-3.7901 587 -0.2218
-3.7901 588 -0.2218
-3.7901 589 -0.2218
-3.7901 59 -0.2218
-3.7901 590 -0.2218
-3.7901 591 -0.2218
-3.7901 592 -0.2218
-3.7901 593 -0.2218
-3.7901 594 -0.2218
-3.7901 595 -0.2218
-3.7901 596 -0.2218
-3.7901 597 -0.2218
-3.7901 598 -0.2218
-3.7901 599 -0.2218
-3.7901 6 -0.2218
-3.7901 60 -0.2218
-3.7901 600 -0.2218
-3.7901 601 -0.2218
-3.7901 602 -0.2218
-3.7901 603 -0.2218
-3.7901 604 -0.2218
-3.7901 605 -0.2218
-3.7901 606 -0.2218
-3.7901 607 -0.2218
-3.7901 608 -0.2218
-3.7901 609 -0.2218
-3.7901 61 -0.2218
-3.7901 610 -0.2218
-3.7901 611 -0.2218
-3.7901 612 -0.2218
-3.7901 613 -0.2218
-3.7901 614 -0.2218
-3.7901 615 -0.2218
-3.7901 616 -0.2218
-3.7901 617 -0.2218
-3.7901 618 -0.2218
-3.7901 619 -0.2218
-3.7901 62 -0.2218
-3.7901 620 -0.2218
-3.7901 621 -0.2218
-3.7901 622 -0.2218
-3.7901 623 -0.2218
-3.7901 624 -0.2218
-3.7901 625 -0.2218
-3.7901 626 -0.2218
-3.7901 627 -0.2218
-3.7901 628 -0.2218
-3.7901 629 -0.2218
-3.7901 63 -0.2218
-3.7901 630 -0.2218
-3.7901 631 -0.2218
-3.7901 632 -0.2218
-3.7901 633 -0.2218
-3.7901 634 -0.2218
-3.7901 635 -0.2218
-3.7901 636 -0.2218
-3.7901 637 -0.2218
-3.7901 638 -0.2218
-3.7901 639 -0.2218
-3.7901 64 -0.2218
-3.7901 640 -0.2218
-3.7901 641 -0.2218
-3.7901 642 -0.2218
-3.7901 643 -0.2218
-3.7901 644 -0.2218
-3.7901 645 -0.2218
-3.7901 646 -0.2218
-3.7901 647 -0.2218
-3.7901 648 -0.2218
-3.7901 649 -0.2218
-3.7901 65 -0.2218
-3.7901 650 -0.2218
-3.7901 651 -0.2218
-3.7901 652 -0.2218
-3.7901 653 -0.2218
-3.7901 654 -0.2218
-3.7901 655 -0.2218
-3.7901 656 -0.2218
-3.7901 657 -0.2218
-3.7901 658 -0.2218
-3.7901 659 -0.2218
-3.7901 66 -0.2218
-3.7901 660 -0.2218
-3.7901 661 -0.2218
-3.7901 662 -0.2218
-3.7901 663 -0.2218
-3.7901 664 -0.2218
-3.7901 665 -0.2218
-3.7901 666 -0.2218
-3.7901 667 -0.2218
-3.7901 668 -0.2218
-3.7901 669 -0.2218
-3.7901 67 -0.2218
-3.7901 670 -0.2218
-3.7901 671 -0.2218
-3.7901 672 -0.2218
-3.7901 673 -0.2218
-3.7901 674 -0.2218
-3.7901 675 -0.2218
-3.7901 676 -0.2218
-3.7901 677 -0.2218
-3.7901 678 -0.2218
-3.7901 679 -0.2218
-3.7901 68 -0.2218
-3.7901 680 -0.2218
-3.7901 681 -0.2218
-3.7901 682 -0.2218
-3.7901 683 -0.2218
-3.7901 684 -0.2218
-3.7901 685 -0.2218
-3.7901 686 -0.2218
-3.7901 687 -0.2218
-3.7901 688 -0.2218
-3.7901 689 -0.2218
-3.7901 69 -0.2218
-3.7901 690 -0.2218
-3.7901 691 -0.2218
-3.7901 692 -0.2218
-3.7901 693 -0.2218
-3.7901 694 -0.2218
-3.7901 695 -0.2218
-3.7901 696 -0.2218
-3.7901 697 -0.2218
-3.7901 698 -0.2218
-3.7901 699 -0.2218
-3.7901 7 -0.2218
-3.7901 70 -0.2218
-3.7901 700 -0.2218
-3.7901 701 -0.2218
-3.7901 702 -0.2218
-3.7901 703 -0.2218
-3.7901 704 -0.2218
-3.7901 705 -0.2218
-3.7901 706 -0.2218
-3.7901 707 -0.2218
-3.7901 708 -0.2218
-3.7901 709 -0.2218
-3.7901 71 -0.2218
-3.7901 710 -0.2218
-3.7901 711 -0.2218
-3.7901 712 -0.2218
-3.7901 713 -0.2218
-3.7901 714 -0.2218
-3.7901 715 -0.2218
-3.7901 716 -0.2218
-3.7901 717 -0.2218
-3.7901 718 -0.2218
-3.7901 719 -0.2218
-3.7901 72 -0.2218
-3.7901 720 -0.2218
-3.7901 721 -0.2218
-3.7901 722 -0.2218
-3.7901 723 -0.2218
-3.7901 724 -0.2218
-3.7901 725 -0.2218
-3.7901 726 -0.2218
-3.7901 727 -0.2218
-3.7901 728 -0.2218
-3.7901 729 -0.2218
-3.7901 73 -0.2218
-3.7901 730 -0.2218
-3.7901 731 -0.2218
-3.7901 732 -0.2218
-3.7901 733 -0.2218
-3.7901 734 -0.2218
-3.7901 735 -0.2218
-3.7901 736 -0.2218
-3.7901 737 -0.2218
-3.7901 738 -0.2218
-3.7901 739 -0.2218
-3.7901 74 -0.2218
-3.7901 740 -0.2218
-3.7901 741 -0.2218
-3.7901 742 -0.2218
-3.7901 743 -0.2218
-3.7901 744 -0.2218
-3.7901 745 -0.2218
-3.7901 746 -0.2218
-3.7901 747 -0.2218
-3.7901 748 -0.2218
-3.7901 749 -0.2218
-3.7901 75 -0.2218
-3.7901 750 -0.2218
-3.7901 751 -0.2218
-3.7901 752 -0.2218
-3.7901 753 -0.2218
-3.7901 754 -0.2218
-3.7901 755 -0.2218
-3.7901 756 -0.2218
-3.7901 757 -0.2218
-3.7901 758 -0.2218
-3.7901 759 -0.2218
-3.7901 76 -0.2218
-3.7901 760 -0.2218
-3.7901 761 -0.2218
-3.7901 762 -0.2218
-3.7901 763 -0.2218
-3.7901 764 -0.2218
-3.7901 765 -0.2218
-3.7901 766 -0.2218
-3.7901 767 -0.2218
-3.7901 768 -0.2218
-3.7901 769 -0.2218
-3.7901 77 -0.2218
-3.7901 770 -0.2218
-3.7901 771 -0.2218
-3.7901 772 -0.2218
-3.7901 773 -0.2218
-3.7901 774 -0.2218
-3.7901 775 -0.2218
-3.7901 776 -0.2218
-3.7901 777 -0.2218
-3.7901 778 -0.2218
-3.7901 779 -0.2218
-3.7901 78 -0.2218
-3.7901 780 -0.2218
-3.7901 781 -0.2218
-3.7901 782 -0.2218
-3.7901 783 -0.2218
-3.7901 784 -0.2218
-3.7901 785 -0.2218
-3.7901 786 -0.2218
-3.7901 787 -0.2218
-3.7901 788 -0.2218
-3.7901 789 -0.2218
-3.7901 79 -0.2218
-3.7901 790 -0.2218
-3.7901 791 -0.2218
-3.7901 792 -0.2218
-3.7901 793 -0.2218
-3.7901 794 -0.2218
-3.7901 795 -0.2218
-3.7901 796 -0.2218
-3.7901 797 -0.2218
-3.7901 798 -0.2218
-3.7901 799 -0.2218
-3.7901 8 -0.2218
-3.7901 80 -0.2218
-3.7901 800 -0.2218
-3.7901 801 -0.2218
-3.7901 802 -0.2218
-3.7901 803 -0.2218
-3.7901 804 -0.2218
-3.7901 805 -0.2218
-3.7901 806 -0.2218
-3.7901 807 -0.2218
-3.7901 808 -0.2218
-3.7901 809 -0.2218
-3.7901 81 -0.2218
-3.7901 810 -0.2218
-3.7901 811 -0.2218
-3.7901 812 -0.2218
-3.7901 813 -0.2218
-3.7901 814 -0.2218
-3.7901 815 -0.2218
-3.7901 816 -0.2218
-3.7901 817 -0.2218
-3.7901 818 -0.2218
-3.7901 819 -0.2218
-3.7901 82 -0.2218
-3.7901 820 -0.2218
-3.7901 821 -0.2218
-3.7901 822 -0.2218
-3.7901 823 -0.2218
-3.7901 824 -0.2218
-3.7901 825 -0.2218
-3.7901 826 -0.2218
-3.7901 827 -0.2218
-3.7901 828 -0.2218
-3.7901 829 -0.2218
-3.7901 83 -0.2218
-3.7901 830 -0.2218
-3.7901 831 -0.2218
-3.7901 832 -0.2218
-3.7901 833 -0.2218
-3.7901 834 -0.2218
-3.7901 835 -0.2218
-3.7901 836 -0.2218
-3.7901 837 -0.2218
-3.7901 838 -0.2218
-3.7901 839 -0.2218
-3.7901 84 -0.2218
-3.7901 840 -0.2218
-3.7901 841 -0.2218
-3.7901 842 -0.2218
-3.7901 843 -0.2218
-3.7901 844 -0.2218
-3.7901 845 -0.2218
-3.7901 846 -0.2218
-3.7901 847 -0.2218
-3.7901 848 -0.2218
-3.7901 849 -0.2218
-3.7901 85 -0.2218
-3.7901 850 -0.2218
-3.7901 851 -0.2218
-3.7901 852 -0.2218
-3.7901 853 -0.2218
-3.7901 854 -0.2218
-3.7901 855 -0.2218
-3.7901 856 -0.2218
-3.7901 857 -0.2218
-3.7901 858 -0.2218
-3.7901 859 -0.2218
-3.7901 86 -0.2218
-3.7901 860 -0.2218
-3.7901 861 -0.2218
-3.7901 862 -0.2218
-3.7901 863 -0.2218
-3.7901 864 -0.2218
-3.7901 865 -0.2218
-3.7901 866 -0.2218
-3.7901 867 -0.2218
-3.7901 868 -0.2218
-3.7901 869 -0.2218
-3.7901 87 -0.2218
-3.7901 870 -0.2218
-3.7901 871 -0.2218
-3.7901 872 -0.2218
-3.7901 873 -0.2218
-3.7901 874 -0.2218
-3.7901 875 -0.2218
-3.7901 876 -0.2218
-3.7901 877 -0.2218
-3.7901 878 -0.2218
-3.7901 879 -0.2218
-3.7901 88 -0.2218
-3.7901 880 -0.2218
-3.7901 881 -0.2218
-3.7901 882 -0.2218
-3.7901 883 -0.2218
-3.7901 884 -0.2218
-3.7901 885 -0.2218
-3.7901 886 -0.2218
-3.7901 887 -0.2218
-3.7901 888 -0.2218
-3.7901 889 -0.2218
-3.7901 89 -0.2218
-3.7901 890 -0.2218
-3.7901 891 -0.2218
-3.7901 892 -0.2218
-3.7901 893 -0.2218
-3.7901 894 -0.2218
-3.7901 895 -0.2218
-3.7901 896 -0.2218
-3.7901 897 -0.2218
-3.7901 898 -0.2218
-3.7901 899 -0.2218
-3.7901 9 -0.2218
-3.7901 90 -0.2218
-3.7901 900 -0.2218
-3.7901 901 -0.2218
-3.7901 902 -0.2218
-3.7901 903 -0.2218
-3.7901 904 -0.2218
-3.7901 905 -0.2218
-3.7901 906 -0.2218
-3.7901 907 -0.2218
-3.7901 908 -0.2218
-3.7901 909 -0.2218
-3.7901 91 -0.2218
-3.7901 910 -0.2218
-3.7901 911 -0.2218
-3.7901 912 -0.2218
-3.7901 913 -0.2218
-3.7901 914 -0.2218
-3.7901 915 -0.2218
-3.7901 916 -0.2218
-3.7901 917 -0.2218
-3.7901 918 -0.2218
-3.7901 919 -0.2218
-3.7901 92 -0.2218
-3.7901 920 -0.2218
-3.7901 921 -0.2218
-3.7901 922 -0.2218
-3.7901 923 -0.2218
-3.7901 924 -0.2218
-3.7901 925 -0.2218
-3.7901 926 -0.2218
-3.7901 927 -0.2218
-3.7901 928 -0.2218
-3.7901 929 -0.2218
-3.7901 93 -0.2218
-3.7901 930 -0.2218
-3.7901 931 -0.2218
-3.7901 932 -0.2218
-3.7901 933 -0.2218
-3.7901 934 -0.2218
-3.7901 935 -0.2218
-3.7901 936 -0.2218
-3.7901 937 -0.2218
-3.7901 938 -0.2218
-3.7901 939 -0.2218
-3.7901 94 -0.2218
-3.7901 940 -0.2218
-3.7901 941 -0.2218
-3.7901 942 -0.2218
-3.7901 943 -0.2218
-3.7901 944 -0.2218
-3.7901 945 -0.2218
-3.7901 946 -0.2218
-3.7901 947 -0.2218
-3.7901 948 -0.2218
-3.7901 949 -0.2218
-3.7901 95 -0.2218
-3.7901 950 -0.2218
-3.7901 951 -0.2218
-3.7901 952 -0.2218
-3.7901 953 -0.2218
-3.7901 954 -0.2218
-3.7901 955 -0.2218
-3.7901 956 -0.2218
-3.7901 957 -0.2218
-3.7901 958 -0.2218
-3.7901 959 -0.2218
-3.7901 96 -0.2218
-3.7901 960 -0.2218
-3.7901 961 -0.2218
-3.7901 962 -0.2218
-3.7901 963 -0.2218
-3.7901 964 -0.2218
-3.7901 965 -0.2218
-3.7901 966 -0.2218
-3.7901 967 -0.2218
-3.7901 968 -0.2218
-3.7901 969 -0.2218
-3.7901 97 -0.2218
-3.7901 970 -0.2218
-3.7901 971 -0.2218
-3.7901 972 -0.2218
-3.7901 973 -0.2218
-3.7901 974 -0.2218
-3.7901 975 -0.2218
-3.7901 976 -0.2218
-3.7901 977 -0.2218
-3.7901 978 -0.2218
-3.7901 979 -0.2218
-3.7901 98 -0.2218
-3.7901 980 -0.2218
-3.7901 981 -0.2218
-3.7901 982 -0.2218
-3.7901 983 -0.2218
-3.7901 984 -0.2218
-3.7901 985 -0.2218
-3.7901 986 -0.2218
-3.7901 987 -0.2218
-3.7901 988 -0.2218
-3.7901 989 -0.2218
-3.7901 99 -0.2218
-3.7901 990 -0.2218
-3.7901 991 -0.2218
-3.7901 992 -0.2218
-3.7901 993 -0.2218
-3.7901 994 -0.2218
-3.7901 995 -0.2218
-3.7901 996 -0.2218
-3.7901 997 -0.2218
-3.7901 998 -0.2218
-3.7901 999 -0.2218
-0.7782 </s> -0.3010
-0.7782 <s> -0.2218
-3.7901 BACKWARD -0.2218
-3.7901 DIX -0.2218
-3.7901 DIXON -0.2218
-3.7901 DOOR -0.2218
-3.7901 DOWN -0.2218
-3.7901 FENN -0.2218
-3.7901 FH -0.2218
-3.7901 FORWARD -0.2218
-3.7901 GO -0.2218
-3.7901 HALL -0.2218
-3.7901 HALT -0.2218
-3.7901 HEAD -0.2218
-3.7901 HEY -0.2218
-3.7901 HUNDRED -0.2218
-3.7901 LEFT -0.2218
-3.7901 MOVE -0.2218
-3.7901 OFFICE -0.2218
-3.7901 PLEASE -0.2218
-3.7901 RIGHT -0.2218
-3.7901 ROOM -0.2218
-3.7901 ROTATE -0.2218
-3.7901 SLOW -0.2218
-3.7901 SPEED -0.2218
-3.7901 STOP -0.2218
-3.7901 TO -0.2218
-3.7901 TURN -0.2218
-3.7901 UP -0.2218
-3.7901 YO -0.2218

\2-grams:
-0.3010 0 </s> -0.3010
-0.3010 1 </s> -0.3010
-0.3010 10 </s> -0.3010
-0.3010 100 </s> -0.3010
-0.3010 101 </s> -0.3010
-0.3010 102 </s> -0.3010
-0.3010 103 </s> -0.3010
-0.3010 104 </s> -0.3010
-0.3010 105 </s> -0.3010
-0.3010 106 </s> -0.3010
-0.3010 107 </s> -0.3010
-0.3010 108 </s> -0.3010
-0.3010 109 </s> -0.3010
-0.3010 11 </s> -0.3010
-0.3010 110 </s> -0.3010
-0.3010 111 </s> -0.3010
-0.3010 112 </s> -0.3010
-0.3010 113 </s> -0.3010
-0.3010 114 </s> -0.3010
-0.3010 115 </s> -0.3010
-0.3010 116 </s> -0.3010
-0.3010 117 </s> -0.3010
-0.3010 118 </s> -0.3010
-0.3010 119 </s> -0.3010
-0.3010 12 </s> -0.3010
-0.3010 120 </s> -0.3010
-0.3010 121 </s> -0.3010
-0.3010 122 </s> -0.3010
-0.3010 123 </s> -0.3010
-0.3010 124 </s> -0.3010
-0.3010 125 </s> -0.3010
-0.3010 126 </s> -0.3010
-0.3010 127 </s> -0.3010
-0.3010 128 </s> -0.3010
-0.3010 129 </s> -0.3010
-0.3010 13 </s> -0.3010
-0.3010 130 </s> -0.3010
-0.3010 131 </s> -0.3010
-0.3010 132 </s> -0.3010
-0.3010 133 </s> -0.3010
-0.3010 134 </s> -0.3010
-0.3010 135 </s> -0.3010
-0.3010 136 </s> -0.3010
-0.3010 137 </s> -0.3010
-0.3010 138 </s> -0.3010
-0.3010 139 </s> -0.3010
-0.3010 14 </s> -0.3010
-0.3010 140 </s> -0.3010
-0.3010 141 </s> -0.3010
-0.3010 142 </s> -0.3010
-0.3010 143 </s> -0.3010
-0.3010 144 </s> -0.3010
-0.3010 145 </s> -0.3010
-0.3010 146 </s> -0.3010
-0.3010 147 </s> -0.3010
-0.3010 148 </s> -0.3010
-0.3010 149 </s> -0.3010
-0.3010 15 </s> -0.3010
-0.3010 150 </s> -0.3010
-0.3010 151 </s> -0.3010
-0.3010 152 </s> -0.3010
-0.3010 153 </s> -0.3010
-0.3010 154 </s> -0.3010
-0.3010 155 </s> -0.3010
-0.3010 156 </s> -0.3010
-0.3010 157 </s> -0.3010
-0.3010 158 </s> -0.3010
-0.3010 159 </s> -0.3010
-0.3010 16 </s> -0.3010
-0.3010 160 </s> -0.3010
-0.3010 161 </s> -0.3010
-0.3010 162 </s> -0.3010
-0.3010 163 </s> -0.3010
-0.3010 164 </s> -0.3010
-0.3010 165 </s> -0.3010
-0.3010 166 </s> -0.3010
-0.3010 167 </s> -0.3010
-0.3010 168 </s> -0.3010
-0.3010 169 </s> -0.3010
-0.3010 17 </s> -0.3010
-0.3010 170 </s> -0.3010
-0.3010 171 </s> -0.3010
-0.3010 172 </s> -0.3010
-0.3010 173 </s> -0.3010
-0.3010 174 </s> -0.3010
-0.3010 175 </s> -0.3010
-0.3010 176 </s> -0.3010
-0.3010 177 </s> -0.3010
-0.3010 178 </s> -0.3010
-0.3010 179 </s> -0.3010
-0.3010 18 </s> -0.3010
-0.3010 180 </s> -0.3010
-0.3010 181 </s> -0.3010
-0.3010 182 </s> -0.3010
-0.3010 183 </s> -0.3010
-0.3010 184 </s> -0.3010
-0.3010 185 </s> -0.3010
-0.3010 186 </s> -0.3010
-0.3010 187 </s> -0.3010
-0.3010 188 </s> -0.3010
-0.3010 189 </s> -0.3010
-0.3010 19 </s> -0.3010
-0.3010 190 </s> -0.3010
-0.3010 191 </s> -0.3010
-0.3010 192 </s> -0.3010
-0.3010 193 </s> -0.3010
-0.3010 194 </s> -0.3010
-0.3010 195 </s> -0.3010
-0.3010 196 </s> -0.3010
-0.3010 197 </s> -0.3010
-0.3010 198 </s> -0.3010
-0.3010 199 </s> -0.3010
-0.3010 2 </s> -0.3010
-0.3010 20 </s> -0.3010
-0.3010 200 </s> -0.3010
-0.3010 201 </s> -0.3010
-0.3010 202 </s> -0.3010
-0.3010 203 </s> -0.3010
-0.3010 204 </s> -0.3010
-0.3010 205 </s> -0.3010
-0.3010 206 </s> -0.3010
-0.3010 207 </s> -0.3010
-0.3010 208 </s> -0.3010
-0.3010 209 </s> -0.3010
-0.3010 21 </s> -0.3010
-0.3010 210 </s> -0.3010
-0.3010 211 </s> -0.3010
-0.3010 212 </s> -0.3010
-0.3010 213 </s> -0.3010
-0.3010 214 </s> -0.3010
-0.3010 215 </s> -0.3010
-0.3010 216 </s> -0.3010
-0.3010 217 </s> -0.3010
-0.3010 218 </s> -0.3010
-0.3010 219 </s> -0.3010
-0.3010 22 </s> -0.3010
-0.3010 220 </s> -0.3010
-0.3010 221 </s> -0.3010
-0.3010 222 </s> -0.3010
-0.3010 223 </s> -0.3010
-0.3010 224 </s> -0.3010
-0.3010 225 </s> -0.3010
-0.3010 226 </s> -0.3010
-0.3010 227 </s> -0.3010
-0.3010 228 </s> -0.3010
-0.3010 229 </s> -0.3010
-0.3010 23 </s> -0.3010
-0.3010 230 </s> -0.3010
-0.3010 231 </s> -0.3010
-0.3010 232 </s> -0.3010
-0.3010 233 </s> -0.3010
-0.3010 234 </s> -0.3010
-0.3010 235 </s> -0.3010
-0.3010 236 </s> -0.3010
-0.3010 237 </s> -0.3010
-0.3010 238 </s> -0.3010
-0.3010 239 </s> -0.3010
-0.3010 24 </s> -0.3010
-0.3010 240 </s> -0.3010
-0.3010 241 </s> -0.3010
-0.3010 242 </s> -0.3010
-0.3010 243 </s> -0.3010
-0.3010 244 </s> -0.3010
-0.3010 245 </s> -0.3010
-0.3010 246 </s> -0.3010
-0.3010 247 </s> -0.3010
-0.3010 248 </s> -0.3010
-0.3010 249 </s> -0.3010
-0.3010 25 </s> -0.3010
-0.3010 250 </s> -0.3010
-0.3010 251 </s> -0.3010
-0.3010 252 </s> -0.3010
-0.3010 253 </s> -0.3010
-0.3010 254 </s> -0.3010
-0.3010 255 </s> -0.3010
-0.3010 256 </s> -0.3010
-0.3010 257 </s> -0.3010
-0.3010 258 </s> -0.3010
-0.3010 259 </s> -0.3010
-0.3010 26 </s> -0.3010
-0.3010 260 </s> -0.3010
-0.3010 261 </s> -0.3010
-0.3010 262 </s> -0.3010
-0.3010 263 </s> -0.3010
-0.3010 264 </s> -0.3010
-0.3010 265 </s> -0.3010
-0.3010 266 </s> -0.3010
-0.3010 267 </s> -0.3010
-0.3010 268 </s> -0.3010
-0.3010 269 </s> -0.3010
-0.3010 27 </s> -0.3010
-0.3010 270 </s> -0.3010
-0.3010 271 </s> -0.3010
-0.3010 272 </s> -0.3010
-0.3010 273 </s> -0.3010
-0.3010 274 </s> -0.3010
-0.3010 275 </s> -0.3010
-0.3010 276 </s> -0.3010
-0.3010 277 </s> -0.3010
-0.3010 278 </s> -0.3010
-0.3010 279 </s> -0.3010
-0.3010 28 </s> -0.3010
-0.3010 280 </s> -0.3010
-0.3010 281 </s> -0.3010
-0.3010 282 </s> -0.3010
-0.3010 283 </s> -0.3010
-0.3010 284 </s> -0.3010
-0.3010 285 </s> -0.3010
-0.3010 286 </s> -0.3010
-0.3010 287 </s> -0.3010
-0.3010 288 </s> -0.3010
-0.3010 289 </s> -0.3010
-0.3010 29 </s> -0.3010
-0.3010 290 </s> -0.3010
-0.3010 291 </s> -0.3010
-0.3010 292 </s> -0.3010
-0.3010 293 </s> -0.3010
-0.3010 294 </s> -0.3010
-0.3010 295 </s> -0.3010
-0.3010 296 </s> -0.3010
-0.3010 297 </s> -0.3010
-0.3010 298 </s> -0.3010
-0.3010 299 </s> -0.3010
-0.3010 3 </s> -0.3010
-0.3010 30 </s> -0.3010
-0.3010 300 </s> -0.3010
-0.3010 301 </s> -0.3010
-0.3010 302 </s> -0.3010
-0.3010 303 </s> -0.3010
-0.3010 304 </s> -0.3010
-0.3010 305 </s> -0.3010
-0.3010 306 </s> -0.3010
-0.3010 307 </s> -0.3010
-0.3010 308 </s> -0.3010
-0.3010 309 </s> -0.3010
-0.3010 31 </s> -0.3010
-0.3010 310 </s> -0.3010
-0.3010 311 </s> -0.3010
-0.3010 312 </s> -0.3010
-0.3010 313 </s> -0.3010
-0.3010 314 </s> -0.3010
-0.3010 315 </s> -0.3010
-0.3010 316 </s> -0.3010
-0.3010 317 </s> -0.3010
-0.3010 318 </s> -0.3010
-0.3010 319 </s> -0.3010
-0.3010 32 </s> -0.3010
-0.3010 320 </s> -0.3010
-0.3010 321 </s> -0.3010
-0.3010 322 </s> -0.3010
-0.3010 323 </s> -0.3010
-0.3010 324 </s> -0.3010
-0.3010 325 </s> -0.3010
-0.3010 326 </s> -0.3010
-0.3010 327 </s> -0.3010
-0.3010 328 </s> -0.3010
-0.3010 329 </s> -0.3010
-0.3010 33 </s> -0.3010
-0.3010 330 </s> -0.3010
-0.3010 331 </s> -0.3010
-0.3010 332 </s> -0.3010
-0.3010 333 </s> -0.3010
-0.3010 334 </s> -0.3010
-0.3010 335 </s> -0.3010
-0.3010 336 </s> -0.3010
-0.3010 337 </s> -0.3010
-0.3010 338 </s> -0.3010
-0.3010 339 </s> -0.3010
-0.3010 34 </s> -0.3010
-0.3010 340 </s> -0.3010
-0.3010 341 </s> -0.3010
-0.3010 342 </s> -0.3010
-0.3010 343 </s> -0.3010
-0.3010 344 </s> -0.3010
-0.3010 345 </s> -0.3010
-0.3010 346 </s> -0.3010
-0.3010 347 </s> -0.3010
-0.3010 348 </s> -0.3010
-0.3010 349 </s> -0.3010
-0.3010 35 </s> -0.3010
-0.3010 350 </s> -0.3010
-0.3010 351 </s> -0.3010
-0.3010 352 </s> -0.3010
-0.3010 353 </s> -0.3010
-0.3010 354 </s> -0.3010
-0.3010 355 </s> -0.3010
-0.3010 356 </s> -0.3010
-0.3010 357 </s> -0.3010
-0.3010 358 </s> -0.3010
-0.3010 359 </s> -0.3010
-0.3010 36 </s> -0.3010
-0.3010 360 </s> -0.3010
-0.3010 361 </s> -0.3010
-0.3010 362 </s> -0.3010
-0.3010 363 </s> -0.3010
-0.3010 364 </s> -0.3010
-0.3010 365 </s> -0.3010
-0.3010 366 </s> -0.3010
-0.3010 367 </s> -0.3010
-0.3010 368 </s> -0.3010
-0.3010 369 </s> -0.3010
-0.3010 37 </s> -0.3010
-0.3010 370 </s> -0.3010
-0.3010 371 </s> -0.3010
-0.3010 372 </s> -0.3010
-0.3010 373 </s> -0.3010
-0.3010 374 </s> -0.3010
-0.3010 375 </s> -0.3010
-0.3010 376 </s> -0.3010
-0.3010 377 </s> -0.3010
-0.3010 378 </s> -0.3010
-0.3010 379 </s> -0.3010
-0.3010 38 </s> -0.3010
-0.3010 380 </s> -0.3010
-0.3010 381 </s> -0.3010
-0.3010 382 </s> -0.3010
-0.3010 383 </s> -0.3010
-0.3010 384 </s> -0.3010
-0.3010 385 </s> -0.3010
-0.3010 386 </s> -0.3010
-0.3010 387 </s> -0.3010
-0.3010 388 </s> -0.3010
-0.3010 389 </s> -0.3010
-0.3010 39 </s> -0.3010
-0.3010 390 </s> -0.3010
-0.3010 391 </s> -0.3010
-0.3010 392 </s> -0.3010
-0.3010 393 </s> -0.3010
-0.3010 394 </s> -0.3010
-0.3010 395 </s> -0.3010
-0.3010 396 </s> -0.3010
-0.3010 397 </s> -0.3010
-0.3010 398 </s> -0.3010
-0.3010 399 </s> -0.3010
-0.3010 4 </s> -0.3010
-0.3010 40 </s> -0.3010
-0.3010 400 </s> -0.3010
-0.3010 401 </s> -0.3010
-0.3010 402 </s> -0.3010
-0.3010 403 </s> -0.3010
-0.3010 404 </s> -0.3010
-0.3010 405 </s> -0.3010
-0.3010 406 </s> -0.3010
-0.3010 407 </s> -0.3010
-0.3010 408 </s> -0.3010
-0.3010 409 </s> -0.3010
-0.3010 41 </s> -0.3010
-0.3010 410 </s> -0.3010
-0.3010 411 </s> -0.3010
-0.3010 412 </s> -0.3010
-0.3010 413 </s> -0.3010
-0.3010 414 </s> -0.3010
-0.3010 415 </s> -0.3010
-0.3010 416 </s> -0.3010
-0.3010 417 </s> -0.3010
-0.3010 418 </s> -0.3010
-0.3010 419 </s> -0.3010
-0.3010 42 </s> -0.3010
-0.3010 420 </s> -0.3010
-0.3010 421 </s> -0.3010
-0.3010 422 </s> -0.3010
-0.3010 423 </s> -0.3010
-0.3010 424 </s> -0.3010
-0.3010 425 </s> -0.3010
-0.3010 426 </s> -0.3010
-0.3010 427 </s> -0.3010
-0.3010 428 </s> -0.3010
-0.3010 429 </s> -0.3010
-0.3010 43 </s> -0.3010
-0.3010 430 </s> -0.3010
-0.3010 431 </s> -0.3010
-0.3010 432 </s> -0.3010
-0.3010 433 </s> -0.3010
-0.3010 434 </s> -0.3010
-0.3010 435 </s> -0.3010
-0.3010 436 </s> -0.3010
-0.3010 437 </s> -0.3010
-0.3010 438 </s> -0.3010
-0.3010 439 </s> -0.3010
-0.3010 44 </s> -0.3010
-0.3010 440 </s> -0.3010
-0.3010 441 </s> -0.3010
-0.3010 442 </s> -0.3010
-0.3010 443 </s> -0.3010
-0.3010 444 </s> -0.3010
-0.3010 445 </s> -0.3010
-0.3010 446 </s> -0.3010
-0.3010 447 </s> -0.3010
-0.3010 448 </s> -0.3010
-0.3010 449 </s> -0.3010
-0.3010 45 </s> -0.3010
-0.3010 450 </s> -0.3010
-0.3010 451 </s> -0.3010
-0.3010 452 </s> -0.3010
-0.3010 453 </s> -0.3010
-0.3010 454 </s> -0.3010
-0.3010 455 </s> -0.3010
-0.3010 456 </s> -0.3010
-0.3010 457 </s> -0.3010
-0.3010 458 </s> -0.3010
-0.3010 459 </s> -0.3010
-0.3010 46 </s> -0.3010
-0.3010 460 </s> -0.3010
-0.3010 461 </s> -0.3010
-0.3010 462 </s> -0.3010
-0.3010 463 </s> -0.3010
-0.3010 464 </s> -0.3010
-0.3010 465 </s> -0.3010
-0.3010 466 </s> -0.3010
-0.3010 467 </s> -0.3010
-0.3010 468 </s> -0.3010
-0.3010 469 </s> -0.3010
-0.3010 47 </s> -0.3010
-0.3010 470 </s> -0.3010
-0.3010 471 </s> -0.3010
-0.3010 472 </s> -0.3010
-0.3010 473 </s> -0.3010
-0.3010 474 </s> -0.3010
-0.3010 475 </s> -0.3010
-0.3010 476 </s> -0.3010
-0.3010 477 </s> -0.3010
-0.3010 478 </s> -0.3010
-0.3010 479 </s> -0.3010
-0.3010 48 </s> -0.3010
-0.3010 480 </s> -0.3010
-0.3010 481 </s> -0.3010
-0.3010 482 </s> -0.3010
-0.3010 483 </s> -0.3010
-0.3010 484 </s> -0.3010
-0.3010 485 </s> -0.3010
-0.3010 486 </s> -0.3010
-0.3010 487 </s> -0.3010
-0.3010 488 </s> -0.3010
-0.3010 489 </s> -0.3010
-0.3010 49 </s> -0.3010
-0.3010 490 </s> -0.3010
-0.3010 491 </s> -0.3010
-0.3010 492 </s> -0.3010
-0.3010 493 </s> -0.3010
-0.3010 494 </s> -0.3010
-0.3010 495 </s> -0.3010
-0.3010 496 </s> -0.3010
-0.3010 497 </s> -0.3010
-0.3010 498 </s> -0.3010
-0.3010 499 </s> -0.3010
-0.3010 5 </s> -0.3010
-0.3010 50 </s> -0.3010
-0.3010 500 </s> -0.3010
-0.3010 501 </s> -0.3010
-0.3010 502 </s> -0.3010
-0.3010 503 </s> -0.3010
-0.3010 504 </s> -0.3010
-0.3010 505 </s> -0.3010
-0.3010 506 </s> -0.3010
-0.3010 507 </s> -0.3010
-0.3010 508 </s> -0.3010
-0.3010 509 </s> -0.3010
-0.3010 51 </s> -0.3010
-0.3010 510 </s> -0.3010
-0.3010 511 </s> -0.3010
-0.3010 512 </s> -0.3010
-0.3010 513 </s> -0.3010
-0.3010 514 </s> -0.3010
-0.3010 515 </s> -0.3010
-0.3010 516 </s> -0.3010
-0.3010 517 </s> -0.3010
-0.3010 518 </s> -0.3010
-0.3010 519 </s> -0.3010
-0.3010 52 </s> -0.3010
-0.3010 520 </s> -0.3010
-0.3010 521 </s> -0.3010
-0.3010 522 </s> -0.3010
-0.3010 523 </s> -0.3010
-0.3010 524 </s> -0.3010
-0.3010 525 </s> -0.3010
-0.3010 526 </s> -0.3010
-0.3010 527 </s> -0.3010
-0.3010 528 </s> -0.3010
-0.3010 529 </s> -0.3010
-0.3010 53 </s> -0.3010
-0.3010 530 </s> -0.3010
-0.3010 531 </s> -0.3010
-0.3010 532 </s> -0.3010
-0.3010 533 </s> -0.3010
-0.3010 534 </s> -0.3010
-0.3010 535 </s> -0.3010
-0.3010 536 </s> -0.3010
-0.3010 537 </s> -0.3010
-0.3010 538 </s> -0.3010
-0.3010 539 </s> -0.3010
-0.3010 54 </s> -0.3010
-0.3010 540 </s> -0.3010
-0.3010 541 </s> -0.3010
-0.3010 542 </s> -0.3010
-0.3010 543 </s> -0.3010
-0.3010 544 </s> -0.3010
-0.3010 545 </s> -0.3010
-0.3010 546 </s> -0.3010
-0.3010 547 </s> -0.3010
-0.3010 548 </s> -0.3010
-0.3010 549 </s> -0.3010
-0.3010 55 </s> -0.3010
-0.3010 550 </s> -0.3010
-0.3010 551 </s> -0.3010
-0.3010 552 </s> -0.3010
-0.3010 553 </s> -0.3010
-0.3010 554 </s> -0.3010
-0.3010 555 </s> -0.3010
-0.3010 556 </s> -0.3010
-0.3010 557 </s> -0.3010
-0.3010 558 </s> -0.3010
-0.3010 559 </s> -0.3010
-0.3010 56 </s> -0.3010
-0.3010 560 </s> -0.3010
-0.3010 561 </s> -0.3010
-0.3010 562 </s> -0.3010
-0.3010 563 </s> -0.3010
-0.3010 564 </s> -0.3010
-0.3010 565 </s> -0.3010
-0.3010 566 </s> -0.3010
-0.3010 567 </s> -0.3010
-0.3010 568 </s> -0.3010
-0.3010 569 </s> -0.3010
-0.3010 57 </s> -0.3010
-0.3010 570 </s> -0.3010
-0.3010 571 </s> -0.3010
-0.3010 572 </s> -0.3010
-0.3010 573 </s> -0.3010
-0.3010 574 </s> -0.3010
-0.3010 575 </s> -0.3010
-0.3010 576 </s> -0.3010
-0.3010 577 </s> -0.3010
-0.3010 578 </s> -0.3010
-0.3010 579 </s> -0.3010
-0.3010 58 </s> -0.3010
-0.3010 580 </s> -0.3010
-0.3010 581 </s> -0.3010
-0.3010 582 </s> -0.3010
-0.3010 583 </s> -0.3010
-0.3010 584 </s> -0.3010
-0.3010 585 </s> -0.3010
-0.3010 586 </s> -0.3010
-0.3010 587 </s> -0.3010
-0.3010 588 </s> -0.3010
-0.3010 589 </s> -0.3010
-0.3010 59 </s> -0.3010
-0.3010 590 </s> -0.3010
-0.3010 591 </s> -0.3010
-0.3010 592 </s> -0.3010
-0.3010 593 </s> -0.3010
-0.3010 594 </s> -0.3010
-0.3010 595 </s> -0.3010
-0.3010 596 </s> -0.3010
-0.3010 597 </s> -0.3010
-0.3010 598 </s> -0.3010
-0.3010 599 </s> -0.3010
-0.3010 6 </s> -0.3010
-0.3010 60 </s> -0.3010
-0.3010 600 </s> -0.3010
-0.3010 601 </s> -0.3010
-0.3010 602 </s> -0.3010
-0.3010 603 </s> -0.3010
-0.3010 604 </s> -0.3010
-0.3010 605 </s> -0.3010
-0.3010 606 </s> -0.3010
-0.3010 607 </s> -0.3010
-0.3010 608 </s> -0.3010
-0.3010 609 </s> -0.3010
-0.3010 61 </s> -0.3010
-0.3010 610 </s> -0.3010
-0.3010 611 </s> -0.3010
-0.3010 612 </s> -0.3010
-0.3010 613 </s> -0.3010
-0.3010 614 </s> -0.3010
-0.3010 615 </s> -0.3010
-0.3010 616 </s> -0.3010
-0.3010 617 </s> -0.3010
-0.3010 618 </s> -0.3010
-0.3010 619 </s> -0.3010
-0.3010 62 </s> -0.3010
-0.3010 620 </s> -0.3010
-0.3010 621 </s> -0.3010
-0.3010 622 </s> -0.3010
-0.3010 623 </s> -0.3010
-0.3010 624 </s> -0.3010
-0.3010 625 </s> -0.3010
-0.3010 626 </s> -0.3010
-0.3010 627 </s> -0.3010
-0.3010 628 </s> -0.3010
-0.3010 629 </s> -0.3010
-0.3010 63 </s> -0.3010
-0.3010 630 </s> -0.3010
-0.3010 631 </s> -0.3010
-0.3010 632 </s> -0.3010
-0.3010 633 </s> -0.3010
-0.3010 634 </s> -0.3010
-0.3010 635 </s> -0.3010
-0.3010 636 </s> -0.3010
-0.3010 637 </s> -0.3010
-0.3010 638 </s> -0.3010
-0.3010 639 </s> -0.3010
-0.3010 64 </s> -0.3010
-0.3010 640 </s> -0.3010
-0.3010 641 </s> -0.3010
-0.3010 642 </s> -0.3010
-0.3010 643 </s> -0.3010
-0.3010 644 </s> -0.3010
-0.3010 645 </s> -0.3010
-0.3010 646 </s> -0.3010
-0.3010 647 </s> -0.3010
-0.3010 648 </s> -0.3010
-0.3010 649 </s> -0.3010
-0.3010 65 </s> -0.3010
-0.3010 650 </s> -0.3010
-0.3010 651 </s> -0.3010
-0.3010 652 </s> -0.3010
-0.3010 653 </s> -0.3010
-0.3010 654 </s> -0.3010
-0.3010 655 </s> -0.3010
-0.3010 656 </s> -0.3010
-0.3010 657 </s> -0.3010
-0.3010 658 </s> -0.3010
-0.3010 659 </s> -0.3010
-0.3010 66 </s> -0.3010
-0.3010 660 </s> -0.3010
-0.3010 661 </s> -0.3010
-0.3010 662 </s> -0.3010
-0.3010 663 </s> -0.3010
-0.3010 664 </s> -0.3010
-0.3010 665 </s> -0.3010
-0.3010 666 </s> -0.3010
-0.3010 667 </s> -0.3010
-0.3010 668 </s> -0.3010
-0.3010 669 </s> -0.3010
-0.3010 67 </s> -0.3010
-0.3010 670 </s> -0.3010
-0.3010 671 </s> -0.3010
-0.3010 672 </s> -0.3010
-0.3010 673 </s> -0.3010
-0.3010 674 </s> -0.3010
-0.3010 675 </s> -0.3010
-0.3010 676 </s> -0.3010
-0.3010 677 </s> -0.3010
-0.3010 678 </s> -0.3010
-0.3010 679 </s> -0.3010
-0.3010 68 </s> -0.3010
-0.3010 680 </s> -0.3010
-0.3010 681 </s> -0.3010
-0.3010 682 </s> -0.3010
-0.3010 683 </s> -0.3010
-0.3010 684 </s> -0.3010
-0.3010 685 </s> -0.3010
-0.3010 686 </s> -0.3010
-0.3010 687 </s> -0.3010
-0.3010 688 </s> -0.3010
-0.3010 689 </s> -0.3010
-0.3010 69 </s> -0.3010
-0.3010 690 </s> -0.3010
-0.3010 691 </s> -0.3010
-0.3010 692 </s> -0.3010
-0.3010 693 </s> -0.3010
-0.3010 694 </s> -0.3010
-0.3010 695 </s> -0.3010
-0.3010 696 </s> -0.3010
-0.3010 697 </s> -0.3010
-0.3010 698 </s> -0.3010
-0.3010 699 </s> -0.3010
-0.3010 7 </s> -0.3010
-0.3010 70 </s> -0.3010
-0.3010 700 </s> -0.3010
-0.3010 701 </s> -0.3010
-0.3010 702 </s> -0.3010
-0.3010 703 </s> -0.3010
-0.3010 704 </s> -0.3010
-0.3010 705 </s> -0.3010
-0.3010 706 </s> -0.3010
-0.3010 707 </s> -0.3010
-0.3010 708 </s> -0.3010
-0.3010 709 </s> -0.3010
-0.3010 71 </s> -0.3010
-0.3010 710 </s> -0.3010
-0.3010 711 </s> -0.3010
-0.3010 712 </s> -0.3010
-0.3010 713 </s> -0.3010
-0.3010 714 </s> -0.3010
-0.3010 715 </s> -0.3010
-0.3010 716 </s> -0.3010
-0.3010 717 </s> -0.3010
-0.3010 718 </s> -0.3010
-0.3010 719 </s> -0.3010
-0.3010 72 </s> -0.3010
-0.3010 720 </s> -0.3010
-0.3010 721 </s> -0.3010
-0.3010 722 </s> -0.3010
-0.3010 723 </s> -0.3010
-0.3010 724 </s> -0.3010
-0.3010 725 </s> -0.3010
-0.3010 726 </s> -0.3010
-0.3010 727 </s> -0.3010
-0.3010 728 </s> -0.3010
-0.3010 729 </s> -0.3010
-0.3010 73 </s> -0.3010
-0.3010 730 </s> -0.3010
-0.3010 731 </s> -0.3010
-0.3010 732 </s> -0.3010
-0.3010 733 </s> -0.3010
-0.3010 734 </s> -0.3010
-0.3010 735 </s> -0.3010
-0.3010 736 </s> -0.3010
-0.3010 737 </s> -0.3010
-0.3010 738 </s> -0.3010
-0.3010 739 </s> -0.3010
-0.3010 74 </s> -0.3010
-0.3010 740 </s> -0.3010
-0.3010 741 </s> -0.3010
-0.3010 742 </s> -0.3010
-0.3010 743 </s> -0.3010
-0.3010 744 </s> -0.3010
-0.3010 745 </s> -0.3010
-0.3010 746 </s> -0.3010
-0.3010 747 </s> -0.3010
-0.3010 748 </s> -0.3010
-0.3010 749 </s> -0.3010
-0.3010 75 </s> -0.3010
-0.3010 750 </s> -0.3010
-0.3010 751 </s> -0.3010
-0.3010 752 </s> -0.3010
-0.3010 753 </s> -0.3010
-0.3010 754 </s> -0.3010
-0.3010 755 </s> -0.3010
-0.3010 756 </s> -0.3010
-0.3010 757 </s> -0.3010
-0.3010 758 </s> -0.3010
-0.3010 759 </s> -0.3010
-0.3010 76 </s> -0.3010
-0.3010 760 </s> -0.3010
-0.3010 761 </s> -0.3010
-0.3010 762 </s> -0.3010
-0.3010 763 </s> -0.3010
-0.3010 764 </s> -0.3010
-0.3010 765 </s> -0.3010
-0.3010 766 </s> -0.3010
-0.3010 767 </s> -0.3010
-0.3010 768 </s> -0.3010
-0.3010 769 </s> -0.3010
-0.3010 77 </s> -0.3010
-0.3010 770 </s> -0.3010
-0.3010 771 </s> -0.3010
-0.3010 772 </s> -0.3010
-0.3010 773 </s> -0.3010
-0.3010 774 </s> -0.3010
-0.3010 775 </s> -0.3010
-0.3010 776 </s> -0.3010
-0.3010 777 </s> -0.3010
-0.3010 778 </s> -0.3010
-0.3010 779 </s> -0.3010
-0.3010 78 </s> -0.3010
-0.3010 780 </s> -0.3010
-0.3010 781 </s> -0.3010
-0.3010 782 </s> -0.3010
-0.3010 783 </s> -0.3010
-0.3010 784 </s> -0.3010
-0.3010 785 </s> -0.3010
-0.3010 786 </s> -0.3010
-0.3010 787 </s> -0.3010
-0.3010 788 </s> -0.3010
-0.3010 789 </s> -0.3010
-0.3010 79 </s> -0.3010
-0.3010 790 </s> -0.3010
-0.3010 791 </s> -0.3010
-0.3010 792 </s> -0.3010
-0.3010 793 </s> -0.3010
-0.3010 794 </s> -0.3010
-0.3010 795 </s> -0.3010
-0.3010 796 </s> -0.3010
-0.3010 797 </s> -0.3010
-0.3010 798 </s> -0.3010
-0.3010 799 </s> -0.3010
-0.3010 8 </s> -0.3010
-0.3010 80 </s> -0.3010
-0.3010 800 </s> -0.3010
-0.3010 801 </s> -0.3010
-0.3010 802 </s> -0.3010
-0.3010 803 </s> -0.3010
-0.3010 804 </s> -0.3010
-0.3010 805 </s> -0.3010
-0.3010 806 </s> -0.3010
-0.3010 807 </s> -0.3010
-0.3010 808 </s> -0.3010
-0.3010 809 </s> -0.3010
-0.3010 81 </s> -0.3010
-0.3010 810 </s> -0.3010
-0.3010 811 </s> -0.3010
-0.3010 812 </s> -0.3010
-0.3010 813 </s> -0.3010
-0.3010 814 </s> -0.3010
-0.3010 815 </s> -0.3010
-0.3010 816 </s> -0.3010
-0.3010 817 </s> -0.3010
-0.3010 818 </s> -0.3010
-0.3010 819 </s> -0.3010
-0.3010 82 </s> -0.3010
-0.3010 820 </s> -0.3010
-0.3010 821 </s> -0.3010
-0.3010 822 </s> -0.3010
-0.3010 823 </s> -0.3010
-0.3010 824 </s> -0.3010
-0.3010 825 </s> -0.3010
-0.3010 826 </s> -0.3010
-0.3010 827 </s> -0.3010
-0.3010 828 </s> -0.3010
-0.3010 829 </s> -0.3010
-0.3010 83 </s> -0.3010
-0.3010 830 </s> -0.3010
-0.3010 831 </s> -0.3010
-0.3010 832 </s> -0.3010
-0.3010 833 </s> -0.3010
-0.3010 834 </s> -0.3010
-0.3010 835 </s> -0.3010
-0.3010 836 </s> -0.3010
-0.3010 837 </s> -0.3010
-0.3010 838 </s> -0.3010
-0.3010 839 </s> -0.3010
-0.3010 84 </s> -0.3010
-0.3010 840 </s> -0.3010
-0.3010 841 </s> -0.3010
-0.3010 842 </s> -0.3010
-0.3010 843 </s> -0.3010
-0.3010 844 </s> -0.3010
-0.3010 845 </s> -0.3010
-0.3010 846 </s> -0.3010
-0.3010 847 </s> -0.3010
-0.3010 848 </s> -0.3010
-0.3010 849 </s> -0.3010
-0.3010 85 </s> -0.3010
-0.3010 850 </s> -0.3010
-0.3010 851 </s> -0.3010
-0.3010 852 </s> -0.3010
-0.3010 853 </s> -0.3010
-0.3010 854 </s> -0.3010
-0.3010 855 </s> -0.3010
-0.3010 856 </s> -0.3010
-0.3010 857 </s> -0.3010
-0.3010 858 </s> -0.3010
-0.3010 859 </s> -0.3010
-0.3010 86 </s> -0.3010
-0.3010 860 </s> -0.3010
-0.3010 861 </s> -0.3010
-0.3010 862 </s> -0.3010
-0.3010 863 </s> -0.3010
-0.3010 864 </s> -0.3010
-0.3010 865 </s> -0.3010
-0.3010 866 </s> -0.3010
-0.3010 867 </s> -0.3010
-0.3010 868 </s> -0.3010
-0.3010 869 </s> -0.3010
-0.3010 87 </s> -0.3010
-0.3010 870 </s> -0.3010
-0.3010 871 </s> -0.3010
-0.3010 872 </s> -0.3010
-0.3010 873 </s> -0.3010
-0.3010 874 </s> -0.3010
-0.3010 875 </s> -0.3010
-0.3010 876 </s> -0.3010
-0.3010 877 </s> -0.3010
-0.3010 878 </s> -0.3010
-0.3010 879 </s> -0.3010
-0.3010 88 </s> -0.3010
-0.3010 880 </s> -0.3010
-0.3010 881 </s> -0.3010
-0.3010 882 </s> -0.3010
-0.3010 883 </s> -0.3010
-0.3010 884 </s> -0.3010
-0.3010 885 </s> -0.3010
-0.3010 886 </s> -0.3010
-0.3010 887 </s> -0.3010
-0.3010 888 </s> -0.3010
-0.3010 889 </s> -0.3010
-0.3010 89 </s> -0.3010
-0.3010 890 </s> -0.3010
-0.3010 891 </s> -0.3010
-0.3010 892 </s> -0.3010
-0.3010 893 </s> -0.3010
-0.3010 894 </s> -0.3010
-0.3010 895 </s> -0.3010
-0.3010 896 </s> -0.3010
-0.3010 897 </s> -0.3010
-0.3010 898 </s> -0.3010
-0.3010 899 </s> -0.3010
-0.3010 9 </s> -0.3010
-0.3010 90 </s> -0.3010
-0.3010 900 </s> -0.3010
-0.3010 901 </s> -0.3010
-0.3010 902 </s> -0.3010
-0.3010 903 </s> -0.3010
-0.3010 904 </s> -0.3010
-0.3010 905 </s> -0.3010
-0.3010 906 </s> -0.3010
-0.3010 907 </s> -0.3010
-0.3010 908 </s> -0.3010
-0.3010 909 </s> -0.3010
-0.3010 91 </s> -0.3010
-0.3010 910 </s> -0.3010
-0.3010 911 </s> -0.3010
-0.3010 912 </s> -0.3010
-0.3010 913 </s> -0.3010
-0.3010 914 </s> -0.3010
-0.3010 915 </s> -0.3010
-0.3010 916 </s> -0.3010
-0.3010 917 </s> -0.3010
-0.3010 918 </s> -0.3010
-0.3010 919 </s> -0.3010
-0.3010 92 </s> -0.3010
-0.3010 920 </s> -0.3010
-0.3010 921 </s> -0.3010
-0.3010 922 </s> -0.3010
-0.3010 923 </s> -0.3010
-0.3010 924 </s> -0.3010
-0.3010 925 </s> -0.3010
-0.3010 926 </s> -0.3010
-0.3010 927 </s> -0.3010
-0.3010 928 </s> -0.3010
-0.3010 929 </s> -0.3010
-0.3010 93 </s> -0.3010
-0.3010 930 </s> -0.3010
-0.3010 931 </s> -0.3010
-0.3010 932 </s> -0.3010
-0.3010 933 </s> -0.3010
-0.3010 934 </s> -0.3010
-0.3010 935 </s> -0.3010
-0.3010 936 </s> -0.3010
-0.3010 937 </s> -0.3010
-0.3010 938 </s> -0.3010
-0.3010 939 </s> -0.3010
-0.3010 94 </s> -0.3010
-0.3010 940 </s> -0.3010
-0.3010 941 </s> -0.3010
-0.3010 942 </s> -0.3010
-0.3010 943 </s> -0.3010
-0.3010 944 </s> -0.3010
-0.3010 945 </s> -0.3010
-0.3010 946 </s> -0.3010
-0.3010 947 </s> -0.3010
-0.3010 948 </s> -0.3010
-0.3010 949 </s> -0.3010
-0.3010 95 </s> -0.3010
-0.3010 950 </s> -0.3010
-0.3010 951 </s> -0.3010
-0.3010 952 </s> -0.3010
-0.3010 953 </s> -0.3010
-0.3010 954 </s> -0.3010
-0.3010 955 </s> -0.3010
-0.3010 956 </s> -0.3010
-0.3010 957 </s> -0.3010
-0.3010 958 </s> -0.3010
-0.3010 959 </s> -0.3010
-0.3010 96 </s> -0.3010
-0.3010 960 </s> -0.3010
-0.3010 961 </s> -0.3010
-0.3010 962 </s> -0.3010
-0.3010 963 </s> -0.3010
-0.3010 964 </s> -0.3010
-0.3010 965 </s> -0.3010
-0.3010 966 </s> -0.3010
-0.3010 967 </s> -0.3010
-0.3010 968 </s> -0.3010
-0.3010 969 </s> -0.3010
-0.3010 97 </s> -0.3010
-0.3010 970 </s> -0.3010
-0.3010 971 </s> -0.3010
-0.3010 972 </s> -0.3010
-0.3010 973 </s> -0.3010
-0.3010 974 </s> -0.3010
-0.3010 975 </s> -0.3010
-0.3010 976 </s> -0.3010
-0.3010 977 </s> -0.3010
-0.3010 978 </s> -0.3010
-0.3010 979 </s> -0.3010
-0.3010 98 </s> -0.3010
-0.3010 980 </s> -0.3010
-0.3010 981 </s> -0.3010
-0.3010 982 </s> -0.3010
-0.3010 983 </s> -0.3010
-0.3010 984 </s> -0.3010
-0.3010 985 </s> -0.3010
-0.3010 986 </s> -0.3010
-0.3010 987 </s> -0.3010
-0.3010 988 </s> -0.3010
-0.3010 989 </s> -0.3010
-0.3010 99 </s> -0.3010
-0.3010 990 </s> -0.3010
-0.3010 991 </s> -0.3010
-0.3010 992 </s> -0.3010
-0.3010 993 </s> -0.3010
-0.3010 994 </s> -0.3010
-0.3010 995 </s> -0.3010
-0.3010 996 </s> -0.3010
-0.3010 997 </s> -0.3010
-0.3010 998 </s> -0.3010
-0.3010 999 </s> -0.3010
-3.3130 <s> 0 0.0000
-3.3130 <s> 1 0.0000
-3.3130 <s> 10 0.0000
-3.3130 <s> 100 0.0000
-3.3130 <s> 101 0.0000
-3.3130 <s> 102 0.0000
-3.3130 <s> 103 0.0000
-3.3130 <s> 104 0.0000
-3.3130 <s> 105 0.0000
-3.3130 <s> 106 0.0000
-3.3130 <s> 107 0.0000
-3.3130 <s> 108 0.0000
-3.3130 <s> 109 0.0000
-3.3130 <s> 11 0.0000
-3.3130 <s> 110 0.0000
-3.3130 <s> 111 0.0000
-3.3130 <s> 112 0.0000
-3.3130 <s> 113 0.0000
-3.3130 <s> 114 0.0000
-3.3130 <s> 115 0.0000
-3.3130 <s> 116 0.0000
-3.3130 <s> 117 0.0000
-3.3130 <s> 118 0.0000
-3.3130 <s> 119 0.0000
-3.3130 <s> 12 0.0000
-3.3130 <s> 120 0.0000
-3.3130 <s> 121 0.0000
-3.3130 <s> 122 0.0000
-3.3130 <s> 123 0.0000
-3.3130 <s> 124 0.0000
-3.3130 <s> 125 0.0000
-3.3130 <s> 126 0.0000
-3.3130 <s> 127 0.0000
-3.3130 <s> 128 0.0000
-3.3130 <s> 129 0.0000
-3.3130 <s> 13 0.0000
-3.3130 <s> 130 0.0000
-3.3130 <s> 131 0.0000
-3.3130 <s> 132 0.0000
-3.3130 <s> 133 0.0000
-3.3130 <s> 134 0.0000
-3.3130 <s> 135 0.0000
-3.3130 <s> 136 0.0000
-3.3130 <s> 137 0.0000
-3.3130 <s> 138 0.0000
-3.3130 <s> 139 0.0000
-3.3130 <s> 14 0.0000
-3.3130 <s> 140 0.0000
-3.3130 <s> 141 0.0000
-3.3130 <s> 142 0.0000
-3.3130 <s> 143 0.0000
-3.3130 <s> 144 0.0000
-3.3130 <s> 145 0.0000
-3.3130 <s> 146 0.0000
-3.3130 <s> 147 0.0000
-3.3130 <s> 148 0.0000
-3.3130 <s> 149 0.0000
-3.3130 <s> 15 0.0000
-3.3130 <s> 150 0.0000
-3.3130 <s> 151 0.0000
-3.3130 <s> 152 0.0000
-3.3130 <s> 153 0.0000
-3.3130 <s> 154 0.0000
-3.3130 <s> 155 0.0000
-3.3130 <s> 156 0.0000
-3.3130 <s> 157 0.0000
-3.3130 <s> 158 0.0000
-3.3130 <s> 159 0.0000
-3.3130 <s> 16 0.0000
-3.3130 <s> 160 0.0000
-3.3130 <s> 161 0.0000
-3.3130 <s> 162 0.0000
-3.3130 <s> 163 0.0000
-3.3130 <s> 164 0.0000
-3.3130 <s> 165 0.0000
-3.3130 <s> 166 0.0000
-3.3130 <s> 167 0.0000
-3.3130 <s> 168 0.0000
-3.3130 <s> 169 0.0000
-3.3130 <s> 17 0.0000
-3.3130 <s> 170 0.0000
-3.3130 <s> 171 0.0000
-3.3130 <s> 172 0.0000
-3.3130 <s> 173 0.0000
-3.3130 <s> 174 0.0000
-3.3130 <s> 175 0.0000
-3.3130 <s> 176 0.0000
-3.3130 <s> 177 0.0000
-3.3130 <s> 178 0.0000
-3.3130 <s> 179 0.0000
-3.3130 <s> 18 0.0000
-3.3130 <s> 180 0.0000
-3.3130 <s> 181 0.0000
-3.3130 <s> 182 0.0000
-3.3130 <s> 183 0.0000
-3.3130 <s> 184 0.0000
-3.3130 <s> 185 0.0000
-3.3130 <s> 186 0.0000
-3.3130 <s> 187 0.0000
-3.3130 <s> 188 0.0000
-3.3130 <s> 189 0.0000
-3.3130 <s> 19 0.0000
-3.3130 <s> 190 0.0000
-3.3130 <s> 191 0.0000
-3.3130 <s> 192 0.0000
-3.3130 <s> 193 0.0000
-3.3130 <s> 194 0.0000
-3.3130 <s> 195 0.0000
-3.3130 <s> 196 0.0000
-3.3130 <s> 197 0.0000
-3.3130 <s> 198 0.0000
-3.3130 <s> 199 0.0000
-3.3130 <s> 2 0.0000
-3.3130 <s> 20 0.0000
-3.3130 <s> 200 0.0000
-3.3130 <s> 201 0.0000
-3.3130 <s> 202 0.0000
-3.3130 <s> 203 0.0000
-3.3130 <s> 204 0.0000
-3.3130 <s> 205 0.0000
-3.3130 <s> 206 0.0000
-3.3130 <s> 207 0.0000
-3.3130 <s> 208 0.0000
-3.3130 <s> 209 0.0000
-3.3130 <s> 21 0.0000
-3.3130 <s> 210 0.0000
-3.3130 <s> 211 0.0000
-3.3130 <s> 212 0.0000
-3.3130 <s> 213 0.0000
-3.3130 <s> 214 0.0000
-3.3130 <s> 215 0.0000
-3.3130 <s> 216 0.0000
-3.3130 <s> 217 0.0000
-3.3130 <s> 218 0.0000
-3.3130 <s> 219 0.0000
-3.3130 <s> 22 0.0000
-3.3130 <s> 220 0.0000
-3.3130 <s> 221 0.0000
-3.3130 <s> 222 0.0000
-3.3130 <s> 223 0.0000
-3.3130 <s> 224 0.0000
-3.3130 <s> 225 0.0000
-3.3130 <s> 226 0.0000
-3.3130 <s> 227 0.0000
-3.3130 <s> 228 0.0000
-3.3130 <s> 229 0.0000
-3.3130 <s> 23 0.0000
-3.3130 <s> 230 0.0000
-3.3130 <s> 231 0.0000
-3.3130 <s> 232 0.0000
-3.3130 <s> 233 0.0000
-3.3130 <s> 234 0.0000
-3.3130 <s> 235 0.0000
-3.3130 <s> 236 0.0000
-3.3130 <s> 237 0.0000
-3.3130 <s> 238 0.0000
-3.3130 <s> 239 0.0000
-3.3130 <s> 24 0.0000
-3.3130 <s> 240 0.0000
-3.3130 <s> 241 0.0000
-3.3130 <s> 242 0.0000
-3.3130 <s> 243 0.0000
-3.3130 <s> 244 0.0000
-3.3130 <s> 245 0.0000
-3.3130 <s> 246 0.0000
-3.3130 <s> 247 0.0000
-3.3130 <s> 248 0.0000
-3.3130 <s> 249 0.0000
-3.3130 <s> 25 0.0000
-3.3130 <s> 250 0.0000
-3.3130 <s> 251 0.0000
-3.3130 <s> 252 0.0000
-3.3130 <s> 253 0.0000
-3.3130 <s> 254 0.0000
-3.3130 <s> 255 0.0000
-3.3130 <s> 256 0.0000
-3.3130 <s> 257 0.0000
-3.3130 <s> 258 0.0000
-3.3130 <s> 259 0.0000
-3.3130 <s> 26 0.0000
-3.3130 <s> 260 0.0000
-3.3130 <s> 261 0.0000
-3.3130 <s> 262 0.0000
-3.3130 <s> 263 0.0000
-3.3130 <s> 264 0.0000
-3.3130 <s> 265 0.0000
-3.3130 <s> 266 0.0000
-3.3130 <s> 267 0.0000
-3.3130 <s> 268 0.0000
-3.3130 <s> 269 0.0000
-3.3130 <s> 27 0.0000
-3.3130 <s> 270 0.0000
-3.3130 <s> 271 0.0000
-3.3130 <s> 272 0.0000
-3.3130 <s> 273 0.0000
-3.3130 <s> 274 0.0000
-3.3130 <s> 275 0.0000
-3.3130 <s> 276 0.0000
-3.3130 <s> 277 0.0000
-3.3130 <s> 278 0.0000
-3.3130 <s> 279 0.0000
-3.3130 <s> 28 0.0000
-3.3130 <s> 280 0.0000
-3.3130 <s> 281 0.0000
-3.3130 <s> 282 0.0000
-3.3130 <s> 283 0.0000
-3.3130 <s> 284 0.0000
-3.3130 <s> 285 0.0000
-3.3130 <s> 286 0.0000
-3.3130 <s> 287 0.0000
-3.3130 <s> 288 0.0000
-3.3130 <s> 289 0.0000
-3.3130 <s> 29 0.0000
-3.3130 <s> 290 0.0000
-3.3130 <s> 291 0.0000
-3.3130 <s> 292 0.0000
-3.3130 <s> 293 0.0000
-3.3130 <s> 294 0.0000
-3.3130 <s> 295 0.0000
-3.3130 <s> 296 0.0000
-3.3130 <s> 297 0.0000
-3.3130 <s> 298 0.0000
-3.3130 <s> 299 0.0000
-3.3130 <s> 3 0.0000
-3.3130 <s> 30 0.0000
-3.3130 <s> 300 0.0000
-3.3130 <s> 301 0.0000
-3.3130 <s> 302 0.0000
-3.3130 <s> 303 0.0000
-3.3130 <s> 304 0.0000
-3.3130 <s> 305 0.0000
-3.3130 <s> 306 0.0000
-3.3130 <s> 307 0.0000
-3.3130 <s> 308 0.0000
-3.3130 <s> 309 0.0000
-3.3130 <s> 31 0.0000
-3.3130 <s> 310 0.0000
-3.3130 <s> 311 0.0000
-3.3130 <s> 312 0.0000
-3.3130 <s> 313 0.0000
-3.3130 <s> 314 0.0000
-3.3130 <s> 315 0.0000
-3.3130 <s> 316 0.0000
-3.3130 <s> 317 0.0000
-3.3130 <s> 318 0.0000
-3.3130 <s> 319 0.0000
-3.3130 <s> 32 0.0000
-3.3130 <s> 320 0.0000
-3.3130 <s> 321 0.0000
-3.3130 <s> 322 0.0000
-3.3130 <s> 323 0.0000
-3.3130 <s> 324 0.0000
-3.3130 <s> 325 0.0000
-3.3130 <s> 326 0.0000
-3.3130 <s> 327 0.0000
-3.3130 <s> 328 0.0000
-3.3130 <s> 329 0.0000
-3.3130 <s> 33 0.0000
-3.3130 <s> 330 0.0000
-3.3130 <s> 331 0.0000
-3.3130 <s> 332 0.0000
-3.3130 <s> 333 0.0000
-3.3130 <s> 334 0.0000
-3.3130 <s> 335 0.0000
-3.3130 <s> 336 0.0000
-3.3130 <s> 337 0.0000
-3.3130 <s> 338 0.0000
-3.3130 <s> 339 0.0000
-3.3130 <s> 34 0.0000
-3.3130 <s> 340 0.0000
-3.3130 <s> 341 0.0000
-3.3130 <s> 342 0.0000
-3.3130 <s> 343 0.0000
-3.3130 <s> 344 0.0000
-3.3130 <s> 345 0.0000
-3.3130 <s> 346 0.0000
-3.3130 <s> 347 0.0000
-3.3130 <s> 348 0.0000
-3.3130 <s> 349 0.0000
-3.3130 <s> 35 0.0000
-3.3130 <s> 350 0.0000
-3.3130 <s> 351 0.0000
-3.3130 <s> 352 0.0000
-3.3130 <s> 353 0.0000
-3.3130 <s> 354 0.0000
-3.3130 <s> 355 0.0000
-3.3130 <s> 356 0.0000
-3.3130 <s> 357 0.0000
-3.3130 <s> 358 0.0000
-3.3130 <s> 359 0.0000
-3.3130 <s> 36 0.0000
-3.3130 <s> 360 0.0000
-3.3130 <s> 361 0.0000
-3.3130 <s> 362 0.0000
-3.3130 <s> 363 0.0000
-3.3130 <s> 364 0.0000
-3.3130 <s> 365 0.0000
-3.3130 <s> 366 0.0000
-3.3130 <s> 367 0.0000
-3.3130 <s> 368 0.0000
-3.3130 <s> 369 0.0000
-3.3130 <s> 37 0.0000
-3.3130 <s> 370 0.0000
-3.3130 <s> 371 0.0000
-3.3130 <s> 372 0.0000
-3.3130 <s> 373 0.0000
-3.3130 <s> 374 0.0000
-3.3130 <s> 375 0.0000
-3.3130 <s> 376 0.0000
-3.3130 <s> 377 0.0000
-3.3130 <s> 378 0.0000
-3.3130 <s> 379 0.0000
-3.3130 <s> 38 0.0000
-3.3130 <s> 380 0.0000
-3.3130 <s> 381 0.0000
-3.3130 <s> 382 0.0000
-3.3130 <s> 383 0.0000
-3.3130 <s> 384 0.0000
-3.3130 <s> 385 0.0000
-3.3130 <s> 386 0.0000
-3.3130 <s> 387 0.0000
-3.3130 <s> 388 0.0000
-3.3130 <s> 389 0.0000
-3.3130 <s> 39 0.0000
-3.3130 <s> 390 0.0000
-3.3130 <s> 391 0.0000
-3.3130 <s> 392 0.0000
-3.3130 <s> 393 0.0000
-3.3130 <s> 394 0.0000
-3.3130 <s> 395 0.0000
-3.3130 <s> 396 0.0000
-3.3130 <s> 397 0.0000
-3.3130 <s> 398 0.0000
-3.3130 <s> 399 0.0000
-3.3130 <s> 4 0.0000
-3.3130 <s> 40 0.0000
-3.3130 <s> 400 0.0000
-3.3130 <s> 401 0.0000
-3.3130 <s> 402 0.0000
-3.3130 <s> 403 0.0000
-3.3130 <s> 404 0.0000
-3.3130 <s> 405 0.0000
-3.3130 <s> 406 0.0000
-3.3130 <s> 407 0.0000
-3.3130 <s> 408 0.0000
-3.3130 <s> 409 0.0000
-3.3130 <s> 41 0.0000
-3.3130 <s> 410 0.0000
-3.3130 <s> 411 0.0000
-3.3130 <s> 412 0.0000
-3.3130 <s> 413 0.0000
-3.3130 <s> 414 0.0000
-3.3130 <s> 415 0.0000
-3.3130 <s> 416 0.0000
-3.3130 <s> 417 0.0000
-3.3130 <s> 418 0.0000
-3.3130 <s> 419 0.0000
-3.3130 <s> 42 0.0000
-3.3130 <s> 420 0.0000
-3.3130 <s> 421 0.0000
-3.3130 <s> 422 0.0000
-3.3130 <s> 423 0.0000
-3.3130 <s> 424 0.0000
-3.3130 <s> 425 0.0000
-3.3130 <s> 426 0.0000
-3.3130 <s> 427 0.0000
-3.3130 <s> 428 0.0000
-3.3130 <s> 429 0.0000
-3.3130 <s> 43 0.0000
-3.3130 <s> 430 0.0000
-3.3130 <s> 431 0.0000
-3.3130 <s> 432 0.0000
-3.3130 <s> 433 0.0000
-3.3130 <s> 434 0.0000
-3.3130 <s> 435 0.0000
-3.3130 <s> 436 0.0000
-3.3130 <s> 437 0.0000
-3.3130 <s> 438 0.0000
-3.3130 <s> 439 0.0000
-3.3130 <s> 44 0.0000
-3.3130 <s> 440 0.0000
-3.3130 <s> 441 0.0000
-3.3130 <s> 442 0.0000
-3.3130 <s> 443 0.0000
-3.3130 <s> 444 0.0000
-3.3130 <s> 445 0.0000
-3.3130 <s> 446 0.0000
-3.3130 <s> 447 0.0000
-3.3130 <s> 448 0.0000
-3.3130 <s> 449 0.0000
-3.3130 <s> 45 0.0000
-3.3130 <s> 450 0.0000
-3.3130 <s> 451 0.0000
-3.3130 <s> 452 0.0000
-3.3130 <s> 453 0.0000
-3.3130 <s> 454 0.0000
-3.3130 <s> 455 0.0000
-3.3130 <s> 456 0.0000
-3.3130 <s> 457 0.0000
-3.3130 <s> 458 0.0000
-3.3130 <s> 459 0.0000
-3.3130 <s> 46 0.0000
-3.3130 <s> 460 0.0000
-3.3130 <s> 461 0.0000
-3.3130 <s> 462 0.0000
-3.3130 <s> 463 0.0000
-3.3130 <s> 464 0.0000
-3.3130 <s> 465 0.0000
-3.3130 <s> 466 0.0000
-3.3130 <s> 467 0.0000
-3.3130 <s> 468 0.0000
-3.3130 <s> 469 0.0000
-3.3130 <s> 47 0.0000
-3.3130 <s> 470 0.0000
-3.3130 <s> 471 0.0000
-3.3130 <s> 472 0.0000
-3.3130 <s> 473 0.0000
-3.3130 <s> 474 0.0000
-3.3130 <s> 475 0.0000
-3.3130 <s> 476 0.0000
-3.3130 <s> 477 0.0000
-3.3130 <s> 478 0.0000
-3.3130 <s> 479 0.0000
-3.3130 <s> 48 0.0000
-3.3130 <s> 480 0.0000
-3.3130 <s> 481 0.0000
-3.3130 <s> 482 0.0000
-3.3130 <s> 483 0.0000
-3.3130 <s> 484 0.0000
-3.3130 <s> 485 0.0000
-3.3130 <s> 486 0.0000
-3.3130 <s> 487 0.0000
-3.3130 <s> 488 0.0000
-3.3130 <s> 489 0.0000
-3.3130 <s> 49 0.0000
-3.3130 <s> 490 0.0000
-3.3130 <s> 491 0.0000
-3.3130 <s> 492 0.0000
-3.3130 <s> 493 0.0000
-3.3130 <s> 494 0.0000
-3.3130 <s> 495 0.0000
-3.3130 <s> 496 0.0000
-3.3130 <s> 497 0.0000
-3.3130 <s> 498 0.0000
-3.3130 <s> 499 0.0000
-3.3130 <s> 5 0.0000
-3.3130 <s> 50 0.0000
-3.3130 <s> 500 0.0000
-3.3130 <s> 501 0.0000
-3.3130 <s> 502 0.0000
-3.3130 <s> 503 0.0000
-3.3130 <s> 504 0.0000
-3.3130 <s> 505 0.0000
-3.3130 <s> 506 0.0000
-3.3130 <s> 507 0.0000
-3.3130 <s> 508 0.0000
-3.3130 <s> 509 0.0000
-3.3130 <s> 51 0.0000
-3.3130 <s> 510 0.0000
-3.3130 <s> 511 0.0000
-3.3130 <s> 512 0.0000
-3.3130 <s> 513 0.0000
-3.3130 <s> 514 0.0000
-3.3130 <s> 515 0.0000
-3.3130 <s> 516 0.0000
-3.3130 <s> 517 0.0000
-3.3130 <s> 518 0.0000
-3.3130 <s> 519 0.0000
-3.3130 <s> 52 0.0000
-3.3130 <s> 520 0.0000
-3.3130 <s> 521 0.0000
-3.3130 <s> 522 0.0000
-3.3130 <s> 523 0.0000
-3.3130 <s> 524 0.0000
-3.3130 <s> 525 0.0000
-3.3130 <s> 526 0.0000
-3.3130 <s> 527 0.0000
-3.3130 <s> 528 0.0000
-3.3130 <s> 529 0.0000
-3.3130 <s> 53 0.0000
-3.3130 <s> 530 0.0000
-3.3130 <s> 531 0.0000
-3.3130 <s> 532 0.0000
-3.3130 <s> 533 0.0000
-3.3130 <s> 534 0.0000
-3.3130 <s> 535 0.0000
-3.3130 <s> 536 0.0000
-3.3130 <s> 537 0.0000
-3.3130 <s> 538 0.0000
-3.3130 <s> 539 0.0000
-3.3130 <s> 54 0.0000
-3.3130 <s> 540 0.0000
-3.3130 <s> 541 0.0000
-3.3130 <s> 542 0.0000
-3.3130 <s> 543 0.0000
-3.3130 <s> 544 0.0000
-3.3130 <s> 545 0.0000
-3.3130 <s> 546 0.0000
-3.3130 <s> 547 0.0000
-3.3130 <s> 548 0.0000
-3.3130 <s> 549 0.0000
-3.3130 <s> 55 0.0000
-3.3130 <s> 550 0.0000
-3.3130 <s> 551 0.0000
-3.3130 <s> 552 0.0000
-3.3130 <s> 553 0.0000
-3.3130 <s> 554 0.0000
-3.3130 <s> 555 0.0000
-3.3130 <s> 556 0.0000
-3.3130 <s> 557 0.0000
-3.3130 <s> 558 0.0000
-3.3130 <s> 559 0.0000
-3.3130 <s> 56 0.0000
-3.3130 <s> 560 0.0000
-3.3130 <s> 561 0.0000
-3.3130 <s> 562 0.0000
-3.3130 <s> 563 0.0000
-3.3130 <s> 564 0.0000
-3.3130 <s> 565 0.0000
-3.3130 <s> 566 0.0000
-3.3130 <s> 567 0.0000
-3.3130 <s> 568 0.0000
-3.3130 <s> 569 0.0000
-3.3130 <s> 57 0.0000
-3.3130 <s> 570 0.0000
-3.3130 <s> 571 0.0000
-3.3130 <s> 572 0.0000
-3.3130 <s> 573 0.0000
-3.3130 <s> 574 0.0000
-3.3130 <s> 575 0.0000
-3.3130 <s> 576 0.0000
-3.3130 <s> 577 0.0000
-3.3130 <s> 578 0.0000
-3.3130 <s> 579 0.0000
-3.3130 <s> 58 0.0000
-3.3130 <s> 580 0.0000
-3.3130 <s> 581 0.0000
-3.3130 <s> 582 0.0000
-3.3130 <s> 583 0.0000
-3.3130 <s> 584 0.0000
-3.3130 <s> 585 0.0000
-3.3130 <s> 586 0.0000
-3.3130 <s> 587 0.0000
-3.3130 <s> 588 0.0000
-3.3130 <s> 589 0.0000
-3.3130 <s> 59 0.0000
-3.3130 <s> 590 0.0000
-3.3130 <s> 591 0.0000
-3.3130 <s> 592 0.0000
-3.3130 <s> 593 0.0000
-3.3130 <s> 594 0.0000
-3.3130 <s> 595 0.0000
-3.3130 <s> 596 0.0000
-3.3130 <s> 597 0.0000
-3.3130 <s> 598 0.0000
-3.3130 <s> 599 0.0000
-3.3130 <s> 6 0.0000
-3.3130 <s> 60 0.0000
-3.3130 <s> 600 0.0000
-3.3130 <s> 601 0.0000
-3.3130 <s> 602 0.0000
-3.3130 <s> 603 0.0000
-3.3130 <s> 604 0.0000
-3.3130 <s> 605 0.0000
-3.3130 <s> 606 0.0000
-3.3130 <s> 607 0.0000
-3.3130 <s> 608 0.0000
-3.3130 <s> 609 0.0000
-3.3130 <s> 61 0.0000
-3.3130 <s> 610 0.0000
-3.3130 <s> 611 0.0000
-3.3130 <s> 612 0.0000
-3.3130 <s> 613 0.0000
-3.3130 <s> 614 0.0000
-3.3130 <s> 615 0.0000
-3.3130 <s> 616 0.0000
-3.3130 <s> 617 0.0000
-3.3130 <s> 618 0.0000
-3.3130 <s> 619 0.0000
-3.3130 <s> 62 0.0000
-3.3130 <s> 620 0.0000
-3.3130 <s> 621 0.0000
-3.3130 <s> 622 0.0000
-3.3130 <s> 623 0.0000
-3.3130 <s> 624 0.0000
-3.3130 <s> 625 0.0000
-3.3130 <s> 626 0.0000
-3.3130 <s> 627 0.0000
-3.3130 <s> 628 0.0000
-3.3130 <s> 629 0.0000
-3.3130 <s> 63 0.0000
-3.3130 <s> 630 0.0000
-3.3130 <s> 631 0.0000
-3.3130 <s> 632 0.0000
-3.3130 <s> 633 0.0000
-3.3130 <s> 634 0.0000
-3.3130 <s> 635 0.0000
-3.3130 <s> 636 0.0000
-3.3130 <s> 637 0.0000
-3.3130 <s> 638 0.0000
-3.3130 <s> 639 0.0000
-3.3130 <s> 64 0.0000
-3.3130 <s> 640 0.0000
-3.3130 <s> 641 0.0000
-3.3130 <s> 642 0.0000
-3.3130 <s> 643 0.0000
-3.3130 <s> 644 0.0000
-3.3130 <s> 645 0.0000
-3.3130 <s> 646 0.0000
-3.3130 <s> 647 0.0000
-3.3130 <s> 648 0.0000
-3.3130 <s> 649 0.0000
-3.3130 <s> 65 0.0000
-3.3130 <s> 650 0.0000
-3.3130 <s> 651 0.0000
-3.3130 <s> 652 0.0000
-3.3130 <s> 653 0.0000
-3.3130 <s> 654 0.0000
-3.3130 <s> 655 0.0000
-3.3130 <s> 656 0.0000
-3.3130 <s> 657 0.0000
-3.3130 <s> 658 0.0000
-3.3130 <s> 659 0.0000
-3.3130 <s> 66 0.0000
-3.3130 <s> 660 0.0000
-3.3130 <s> 661 0.0000
-3.3130 <s> 662 0.0000
-3.3130 <s> 663 0.0000
-3.3130 <s> 664 0.0000
-3.3130 <s> 665 0.0000
-3.3130 <s> 666 0.0000
-3.3130 <s> 667 0.0000
-3.3130 <s> 668 0.0000
-3.3130 <s> 669 0.0000
-3.3130 <s> 67 0.0000
-3.3130 <s> 670 0.0000
-3.3130 <s> 671 0.0000
-3.3130 <s> 672 0.0000
-3.3130 <s> 673 0.0000
-3.3130 <s> 674 0.0000
-3.3130 <s> 675 0.0000
-3.3130 <s> 676 0.0000
-3.3130 <s> 677 0.0000
-3.3130 <s> 678 0.0000
-3.3130 <s> 679 0.0000
-3.3130 <s> 68 0.0000
-3.3130 <s> 680 0.0000
-3.3130 <s> 681 0.0000
-3.3130 <s> 682 0.0000
-3.3130 <s> 683 0.0000
-3.3130 <s> 684 0.0000
-3.3130 <s> 685 0.0000
-3.3130 <s> 686 0.0000
-3.3130 <s> 687 0.0000
-3.3130 <s> 688 0.0000
-3.3130 <s> 689 0.0000
-3.3130 <s> 69 0.0000
-3.3130 <s> 690 0.0000
-3.3130 <s> 691 0.0000
-3.3130 <s> 692 0.0000
-3.3130 <s> 693 0.0000
-3.3130 <s> 694 0.0000
-3.3130 <s> 695 0.0000
-3.3130 <s> 696 0.0000
-3.3130 <s> 697 0.0000
-3.3130 <s> 698 0.0000
-3.3130 <s> 699 0.0000
-3.3130 <s> 7 0.0000
-3.3130 <s> 70 0.0000
-3.3130 <s> 700 0.0000
-3.3130 <s> 701 0.0000
-3.3130 <s> 702 0.0000
-3.3130 <s> 703 0.0000
-3.3130 <s> 704 0.0000
-3.3130 <s> 705 0.0000
-3.3130 <s> 706 0.0000
-3.3130 <s> 707 0.0000
-3.3130 <s> 708 0.0000
-3.3130 <s> 709 0.0000
-3.3130 <s> 71 0.0000
-3.3130 <s> 710 0.0000
-3.3130 <s> 711 0.0000
-3.3130 <s> 712 0.0000
-3.3130 <s> 713 0.0000
-3.3130 <s> 714 0.0000
-3.3130 <s> 715 0.0000
-3.3130 <s> 716 0.0000
-3.3130 <s> 717 0.0000
-3.3130 <s> 718 0.0000
-3.3130 <s> 719 0.0000
-3.3130 <s> 72 0.0000
-3.3130 <s> 720 0.0000
-3.3130 <s> 721 0.0000
-3.3130 <s> 722 0.0000
-3.3130 <s> 723 0.0000
-3.3130 <s> 724 0.0000
-3.3130 <s> 725 0.0000
-3.3130 <s> 726 0.0000
-3.3130 <s> 727 0.0000
-3.3130 <s> 728 0.0000
-3.3130 <s> 729 0.0000
-3.3130 <s> 73 0.0000
-3.3130 <s> 730 0.0000
-3.3130 <s> 731 0.0000
-3.3130 <s> 732 0.0000
-3.3130 <s> 733 0.0000
-3.3130 <s> 734 0.0000
-3.3130 <s> 735 0.0000
-3.3130 <s> 736 0.0000
-3.3130 <s> 737 0.0000
-3.3130 <s> 738 0.0000
-3.3130 <s> 739 0.0000
-3.3130 <s> 74 0.0000
-3.3130 <s> 740 0.0000
-3.3130 <s> 741 0.0000
-3.3130 <s> 742 0.0000
-3.3130 <s> 743 0.0000
-3.3130 <s> 744 0.0000
-3.3130 <s> 745 0.0000
-3.3130 <s> 746 0.0000
-3.3130 <s> 747 0.0000
-3.3130 <s> 748 0.0000
-3.3130 <s> 749 0.0000
-3.3130 <s> 75 0.0000
-3.3130 <s> 750 0.0000
-3.3130 <s> 751 0.0000
-3.3130 <s> 752 0.0000
-3.3130 <s> 753 0.0000
-3.3130 <s> 754 0.0000
-3.3130 <s> 755 0.0000
-3.3130 <s> 756 0.0000
-3.3130 <s> 757 0.0000
-3.3130 <s> 758 0.0000
-3.3130 <s> 759 0.0000
-3.3130 <s> 76 0.0000
-3.3130 <s> 760 0.0000
-3.3130 <s> 761 0.0000
-3.3130 <s> 762 0.0000
-3.3130 <s> 763 0.0000
-3.3130 <s> 764 0.0000
-3.3130 <s> 765 0.0000
-3.3130 <s> 766 0.0000
-3.3130 <s> 767 0.0000
-3.3130 <s> 768 0.0000
-3.3130 <s> 769 0.0000
-3.3130 <s> 77 0.0000
-3.3130 <s> 770 0.0000
-3.3130 <s> 771 0.0000
-3.3130 <s> 772 0.0000
-3.3130 <s> 773 0.0000
-3.3130 <s> 774 0.0000
-3.3130 <s> 775 0.0000
-3.3130 <s> 776 0.0000
-3.3130 <s> 777 0.0000
-3.3130 <s> 778 0.0000
-3.3130 <s> 779 0.0000
-3.3130 <s> 78 0.0000
-3.3130 <s> 780 0.0000
-3.3130 <s> 781 0.0000
-3.3130 <s> 782 0.0000
-3.3130 <s> 783 0.0000
-3.3130 <s> 784 0.0000
-3.3130 <s> 785 0.0000
-3.3130 <s> 786 0.0000
-3.3130 <s> 787 0.0000
-3.3130 <s> 788 0.0000
-3.3130 <s> 789 0.0000
-3.3130 <s> 79 0.0000
-3.3130 <s> 790 0.0000
-3.3130 <s> 791 0.0000
-3.3130 <s> 792 0.0000
-3.3130 <s> 793 0.0000
-3.3130 <s> 794 0.0000
-3.3130 <s> 795 0.0000
-3.3130 <s> 796 0.0000
-3.3130 <s> 797 0.0000
-3.3130 <s> 798 0.0000
-3.3130 <s> 799 0.0000
-3.3130 <s> 8 0.0000
-3.3130 <s> 80 0.0000
-3.3130 <s> 800 0.0000
-3.3130 <s> 801 0.0000
-3.3130 <s> 802 0.0000
-3.3130 <s> 803 0.0000
-3.3130 <s> 804 0.0000
-3.3130 <s> 805 0.0000
-3.3130 <s> 806 0.0000
-3.3130 <s> 807 0.0000
-3.3130 <s> 808 0.0000
-3.3130 <s> 809 0.0000
-3.3130 <s> 81 0.0000
-3.3130 <s> 810 0.0000
-3.3130 <s> 811 0.0000
-3.3130 <s> 812 0.0000
-3.3130 <s> 813 0.0000
-3.3130 <s> 814 0.0000
-3.3130 <s> 815 0.0000
-3.3130 <s> 816 0.0000
-3.3130 <s> 817 0.0000
-3.3130 <s> 818 0.0000
-3.3130 <s> 819 0.0000
-3.3130 <s> 82 0.0000
-3.3130 <s> 820 0.0000
-3.3130 <s> 821 0.0000
-3.3130 <s> 822 0.0000
-3.3130 <s> 823 0.0000
-3.3130 <s> 824 0.0000
-3.3130 <s> 825 0.0000
-3.3130 <s> 826 0.0000
-3.3130 <s> 827 0.0000
-3.3130 <s> 828 0.0000
-3.3130 <s> 829 0.0000
-3.3130 <s> 83 0.0000
-3.3130 <s> 830 0.0000
-3.3130 <s> 831 0.0000
-3.3130 <s> 832 0.0000
-3.3130 <s> 833 0.0000
-3.3130 <s> 834 0.0000
-3.3130 <s> 835 0.0000
-3.3130 <s> 836 0.0000
-3.3130 <s> 837 0.0000
-3.3130 <s> 838 0.0000
-3.3130 <s> 839 0.0000
-3.3130 <s> 84 0.0000
-3.3130 <s> 840 0.0000
-3.3130 <s> 841 0.0000
-3.3130 <s> 842 0.0000
-3.3130 <s> 843 0.0000
-3.3130 <s> 844 0.0000
-3.3130 <s> 845 0.0000
-3.3130 <s> 846 0.0000
-3.3130 <s> 847 0.0000
-3.3130 <s> 848 0.0000
-3.3130 <s> 849 0.0000
-3.3130 <s> 85 0.0000
-3.3130 <s> 850 0.0000
-3.3130 <s> 851 0.0000
-3.3130 <s> 852 0.0000
-3.3130 <s> 853 0.0000
-3.3130 <s> 854 0.0000
-3.3130 <s> 855 0.0000
-3.3130 <s> 856 0.0000
-3.3130 <s> 857 0.0000
-3.3130 <s> 858 0.0000
-3.3130 <s> 859 0.0000
-3.3130 <s> 86 0.0000
-3.3130 <s> 860 0.0000
-3.3130 <s> 861 0.0000
-3.3130 <s> 862 0.0000
-3.3130 <s> 863 0.0000
-3.3130 <s> 864 0.0000
-3.3130 <s> 865 0.0000
-3.3130 <s> 866 0.0000
-3.3130 <s> 867 0.0000
-3.3130 <s> 868 0.0000
-3.3130 <s> 869 0.0000
-3.3130 <s> 87 0.0000
-3.3130 <s> 870 0.0000
-3.3130 <s> 871 0.0000
-3.3130 <s> 872 0.0000
-3.3130 <s> 873 0.0000
-3.3130 <s> 874 0.0000
-3.3130 <s> 875 0.0000
-3.3130 <s> 876 0.0000
-3.3130 <s> 877 0.0000
-3.3130 <s> 878 0.0000
-3.3130 <s> 879 0.0000
-3.3130 <s> 88 0.0000
-3.3130 <s> 880 0.0000
-3.3130 <s> 881 0.0000
-3.3130 <s> 882 0.0000
-3.3130 <s> 883 0.0000
-3.3130 <s> 884 0.0000
-3.3130 <s> 885 0.0000
-3.3130 <s> 886 0.0000
-3.3130 <s> 887 0.0000
-3.3130 <s> 888 0.0000
-3.3130 <s> 889 0.0000
-3.3130 <s> 89 0.0000
-3.3130 <s> 890 0.0000
-3.3130 <s> 891 0.0000
-3.3130 <s> 892 0.0000
-3.3130 <s> 893 0.0000
-3.3130 <s> 894 0.0000
-3.3130 <s> 895 0.0000
-3.3130 <s> 896 0.0000
-3.3130 <s> 897 0.0000
-3.3130 <s> 898 0.0000
-3.3130 <s> 899 0.0000
-3.3130 <s> 9 0.0000
-3.3130 <s> 90 0.0000
-3.3130 <s> 900 0.0000
-3.3130 <s> 901 0.0000
-3.3130 <s> 902 0.0000
-3.3130 <s> 903 0.0000
-3.3130 <s> 904 0.0000
-3.3130 <s> 905 0.0000
-3.3130 <s> 906 0.0000
-3.3130 <s> 907 0.0000
-3.3130 <s> 908 0.0000
-3.3130 <s> 909 0.0000
-3.3130 <s> 91 0.0000
-3.3130 <s> 910 0.0000
-3.3130 <s> 911 0.0000
-3.3130 <s> 912 0.0000
-3.3130 <s> 913 0.0000
-3.3130 <s> 914 0.0000
-3.3130 <s> 915 0.0000
-3.3130 <s> 916 0.0000
-3.3130 <s> 917 0.0000
-3.3130 <s> 918 0.0000
-3.3130 <s> 919 0.0000
-3.3130 <s> 92 0.0000
-3.3130 <s> 920 0.0000
-3.3130 <s> 921 0.0000
-3.3130 <s> 922 0.0000
-3.3130 <s> 923 0.0000
-3.3130 <s> 924 0.0000
-3.3130 <s> 925 0.0000
-3.3130 <s> 926 0.0000
-3.3130 <s> 927 0.0000
-3.3130 <s> 928 0.0000
-3.3130 <s> 929 0.0000
-3.3130 <s> 93 0.0000
-3.3130 <s> 930 0.0000
-3.3130 <s> 931 0.0000
-3.3130 <s> 932 0.0000
-3.3130 <s> 933 0.0000
-3.3130 <s> 934 0.0000
-3.3130 <s> 935 0.0000
-3.3130 <s> 936 0.0000
-3.3130 <s> 937 0.0000
-3.3130 <s> 938 0.0000
-3.3130 <s> 939 0.0000
-3.3130 <s> 94 0.0000
-3.3130 <s> 940 0.0000
-3.3130 <s> 941 0.0000
-3.3130 <s> 942 0.0000
-3.3130 <s> 943 0.0000
-3.3130 <s> 944 0.0000
-3.3130 <s> 945 0.0000
-3.3130 <s> 946 0.0000
-3.3130 <s> 947 0.0000
-3.3130 <s> 948 0.0000
-3.3130 <s> 949 0.0000
-3.3130 <s> 95 0.0000
-3.3130 <s> 950 0.0000
-3.3130 <s> 951 0.0000
-3.3130 <s> 952 0.0000
-3.3130 <s> 953 0.0000
-3.3130 <s> 954 0.0000
-3.3130 <s> 955 0.0000
-3.3130 <s> 956 0.0000
-3.3130 <s> 957 0.0000
-3.3130 <s> 958 0.0000
-3.3130 <s> 959 0.0000
-3.3130 <s> 96 0.0000
-3.3130 <s> 960 0.0000
-3.3130 <s> 961 0.0000
-3.3130 <s> 962 0.0000
-3.3130 <s> 963 0.0000
-3.3130 <s> 964 0.0000
-3.3130 <s> 965 0.0000
-3.3130 <s> 966 0.0000
-3.3130 <s> 967 0.0000
-3.3130 <s> 968 0.0000
-3.3130 <s> 969 0.0000
-3.3130 <s> 97 0.0000
-3.3130 <s> 970 0.0000
-3.3130 <s> 971 0.0000
-3.3130 <s> 972 0.0000
-3.3130 <s> 973 0.0000
-3.3130 <s> 974 0.0000
-3.3130 <s> 975 0.0000
-3.3130 <s> 976 0.0000
-3.3130 <s> 977 0.0000
-3.3130 <s> 978 0.0000
-3.3130 <s> 979 0.0000
-3.3130 <s> 98 0.0000
-3.3130 <s> 980 0.0000
-3.3130 <s> 981 0.0000
-3.3130 <s> 982 0.0000
-3.3130 <s> 983 0.0000
-3.3130 <s> 984 0.0000
-3.3130 <s> 985 0.0000
-3.3130 <s> 986 0.0000
-3.3130 <s> 987 0.0000
-3.3130 <s> 988 0.0000
-3.3130 <s> 989 0.0000
-3.3130 <s> 99 0.0000
-3.3130 <s> 990 0.0000
-3.3130 <s> 991 0.0000
-3.3130 <s> 992 0.0000
-3.3130 <s> 993 0.0000
-3.3130 <s> 994 0.0000
-3.3130 <s> 995 0.0000
-3.3130 <s> 996 0.0000
-3.3130 <s> 997 0.0000
-3.3130 <s> 998 0.0000
-3.3130 <s> 999 0.0000
-3.3130 <s> BACKWARD 0.0000
-3.3130 <s> DIX 0.0000
-3.3130 <s> DIXON 0.0000
-3.3130 <s> DOOR 0.0000
-3.3130 <s> DOWN 0.0000
-3.3130 <s> FENN 0.0000
-3.3130 <s> FH 0.0000
-3.3130 <s> FORWARD 0.0000
-3.3130 <s> GO 0.0000
-3.3130 <s> HALL 0.0000
-3.3130 <s> HALT 0.0000
-3.3130 <s> HEAD 0.0000
-3.3130 <s> HEY 0.0000
-3.3130 <s> HUNDRED 0.0000
-3.3130 <s> LEFT 0.0000
-3.3130 <s> MOVE 0.0000
-3.3130 <s> OFFICE 0.0000
-3.3130 <s> PLEASE 0.0000
-3.3130 <s> RIGHT 0.0000
-3.3130 <s> ROOM 0.0000
-3.3130 <s> ROTATE 0.0000
-3.3130 <s> SLOW 0.0000
-3.3130 <s> SPEED 0.0000
-3.3130 <s> STOP 0.0000
-3.3130 <s> TO 0.0000
-3.3130 <s> TURN 0.0000
-3.3130 <s> UP 0.0000
-3.3130 <s> YO 0.0000
-0.3010 BACKWARD </s> -0.3010
-0.3010 DIX </s> -0.3010
-0.3010 DIXON </s> -0.3010
-0.3010 DOOR </s> -0.3010
-0.3010 DOWN </s> -0.3010
-0.3010 FENN </s> -0.3010
-0.3010 FH </s> -0.3010
-0.3010 FORWARD </s> -0.3010
-0.3010 GO </s> -0.3010
-0.3010 HALL </s> -0.3010
-0.3010 HALT </s> -0.3010
-0.3010 HEAD </s> -0.3010
-0.3010 HEY </s> -0.3010
-0.3010 HUNDRED </s> -0.3010
-0.3010 LEFT </s> -0.3010
-0.3010 MOVE </s> -0.3010
-0.3010 OFFICE </s> -0.3010
-0.3010 PLEASE </s> -0.3010
-0.3010 RIGHT </s> -0.3010
-0.3010 ROOM </s> -0.3010
-0.3010 ROTATE </s> -0.3010
-0.3010 SLOW </s> -0.3010
-0.3010 SPEED </s> -0.3010
-0.3010 STOP </s> -0.3010
-0.3010 TO </s> -0.3010
-0.3010 TURN </s> -0.3010
-0.3010 UP </s> -0.3010
-0.3010 YO </s> -0.3010

\3-grams:
-0.3010 <s> 0 </s>
-0.3010 <s> 1 </s>
-0.3010 <s> 10 </s>
-0.3010 <s> 100 </s>
-0.3010 <s> 101 </s>
-0.3010 <s> 102 </s>
-0.3010 <s> 103 </s>
-0.3010 <s> 104 </s>
-0.3010 <s> 105 </s>
-0.3010 <s> 106 </s>
-0.3010 <s> 107 </s>
-0.3010 <s> 108 </s>
-0.3010 <s> 109 </s>
-0.3010 <s> 11 </s>
-0.3010 <s> 110 </s>
-0.3010 <s> 111 </s>
-0.3010 <s> 112 </s>
-0.3010 <s> 113 </s>
-0.3010 <s> 114 </s>
-0.3010 <s> 115 </s>
-0.3010 <s> 116 </s>
-0.3010 <s> 117 </s>
-0.3010 <s> 118 </s>
-0.3010 <s> 119 </s>
-0.3010 <s> 12 </s>
-0.3010 <s> 120 </s>
-0.3010 <s> 121 </s>
-0.3010 <s> 122 </s>
-0.3010 <s> 123 </s>
-0.3010 <s> 124 </s>
-0.3010 <s> 125 </s>
-0.3010 <s> 126 </s>
-0.3010 <s> 127 </s>
-0.3010 <s> 128 </s>
-0.3010 <s> 129 </s>
-0.3010 <s> 13 </s>
-0.3010 <s> 130 </s>
-0.3010 <s> 131 </s>
-0.3010 <s> 132 </s>
-0.3010 <s> 133 </s>
-0.3010 <s> 134 </s>
-0.3010 <s> 135 </s>
-0.3010 <s> 136 </s>
-0.3010 <s> 137 </s>
-0.3010 <s> 138 </s>
-0.3010 <s> 139 </s>
-0.3010 <s> 14 </s>
-0.3010 <s> 140 </s>
-0.3010 <s> 141 </s>
-0.3010 <s> 142 </s>
-0.3010 <s> 143 </s>
-0.3010 <s> 144 </s>
-0.3010 <s> 145 </s>
-0.3010 <s> 146 </s>
-0.3010 <s> 147 </s>
-0.3010 <s> 148 </s>
-0.3010 <s> 149 </s>
-0.3010 <s> 15 </s>
-0.3010 <s> 150 </s>
-0.3010 <s> 151 </s>
-0.3010 <s> 152 </s>
-0.3010 <s> 153 </s>
-0.3010 <s> 154 </s>
-0.3010 <s> 155 </s>
-0.3010 <s> 156 </s>
-0.3010 <s> 157 </s>
-0.3010 <s> 158 </s>
-0.3010 <s> 159 </s>
-0.3010 <s> 16 </s>
-0.3010 <s> 160 </s>
-0.3010 <s> 161 </s>
-0.3010 <s> 162 </s>
-0.3010 <s> 163 </s>
-0.3010 <s> 164 </s>
-0.3010 <s> 165 </s>
-0.3010 <s> 166 </s>
-0.3010 <s> 167 </s>
-0.3010 <s> 168 </s>
-0.3010 <s> 169 </s>
-0.3010 <s> 17 </s>
-0.3010 <s> 170 </s>
-0.3010 <s> 171 </s>
-0.3010 <s> 172 </s>
-0.3010 <s> 173 </s>
-0.3010 <s> 174 </s>
-0.3010 <s> 175 </s>
-0.3010 <s> 176 </s>
-0.3010 <s> 177 </s>
-0.3010 <s> 178 </s>
-0.3010 <s> 179 </s>
-0.3010 <s> 18 </s>
-0.3010 <s> 180 </s>
-0.3010 <s> 181 </s>
-0.3010 <s> 182 </s>
-0.3010 <s> 183 </s>
-0.3010 <s> 184 </s>
-0.3010 <s> 185 </s>
-0.3010 <s> 186 </s>
-0.3010 <s> 187 </s>
-0.3010 <s> 188 </s>
-0.3010 <s> 189 </s>
-0.3010 <s> 19 </s>
-0.3010 <s> 190 </s>
-0.3010 <s> 191 </s>
-0.3010 <s> 192 </s>
-0.3010 <s> 193 </s>
-0.3010 <s> 194 </s>
-0.3010 <s> 195 </s>
-0.3010 <s> 196 </s>
-0.3010 <s> 197 </s>
-0.3010 <s> 198 </s>
-0.3010 <s> 199 </s>
-0.3010 <s> 2 </s>
-0.3010 <s> 20 </s>
-0.3010 <s> 200 </s>
-0.3010 <s> 201 </s>
-0.3010 <s> 202 </s>
-0.3010 <s> 203 </s>
-0.3010 <s> 204 </s>
-0.3010 <s> 205 </s>
-0.3010 <s> 206 </s>
-0.3010 <s> 207 </s>
-0.3010 <s> 208 </s>
-0.3010 <s> 209 </s>
-0.3010 <s> 21 </s>
-0.3010 <s> 210 </s>
-0.3010 <s> 211 </s>
-0.3010 <s> 212 </s>
-0.3010 <s> 213 </s>
-0.3010 <s> 214 </s>
-0.3010 <s> 215 </s>
-0.3010 <s> 216 </s>
-0.3010 <s> 217 </s>
-0.3010 <s> 218 </s>
-0.3010 <s> 219 </s>
-0.3010 <s> 22 </s>
-0.3010 <s> 220 </s>
-0.3010 <s> 221 </s>
-0.3010 <s> 222 </s>
-0.3010 <s> 223 </s>
-0.3010 <s> 224 </s>
-0.3010 <s> 225 </s>
-0.3010 <s> 226 </s>
-0.3010 <s> 227 </s>
-0.3010 <s> 228 </s>
-0.3010 <s> 229 </s>
-0.3010 <s> 23 </s>
-0.3010 <s> 230 </s>
-0.3010 <s> 231 </s>
-0.3010 <s> 232 </s>
-0.3010 <s> 233 </s>
-0.3010 <s> 234 </s>
-0.3010 <s> 235 </s>
-0.3010 <s> 236 </s>
-0.3010 <s> 237 </s>
-0.3010 <s> 238 </s>
-0.3010 <s> 239 </s>
-0.3010 <s> 24 </s>
-0.3010 <s> 240 </s>
-0.3010 <s> 241 </s>
-0.3010 <s> 242 </s>
-0.3010 <s> 243 </s>
-0.3010 <s> 244 </s>
-0.3010 <s> 245 </s>
-0.3010 <s> 246 </s>
-0.3010 <s> 247 </s>
-0.3010 <s> 248 </s>
-0.3010 <s> 249 </s>
-0.3010 <s> 25 </s>
-0.3010 <s> 250 </s>
-0.3010 <s> 251 </s>
-0.3010 <s> 252 </s>
-0.3010 <s> 253 </s>
-0.3010 <s> 254 </s>
-0.3010 <s> 255 </s>
-0.3010 <s> 256 </s>
-0.3010 <s> 257 </s>
-0.3010 <s> 258 </s>
-0.3010 <s> 259 </s>
-0.3010 <s> 26 </s>
-0.3010 <s> 260 </s>
-0.3010 <s> 261 </s>
-0.3010 <s> 262 </s>
-0.3010 <s> 263 </s>
-0.3010 <s> 264 </s>
-0.3010 <s> 265 </s>
-0.3010 <s> 266 </s>
-0.3010 <s> 267 </s>
-0.3010 <s> 268 </s>
-0.3010 <s> 269 </s>
-0.3010 <s> 27 </s>
-0.3010 <s> 270 </s>
-0.3010 <s> 271 </s>
-0.3010 <s> 272 </s>
-0.3010 <s> 273 </s>
-0.3010 <s> 274 </s>
-0.3010 <s> 275 </s>
-0.3010 <s> 276 </s>
-0.3010 <s> 277 </s>
-0.3010 <s> 278 </s>
-0.3010 <s> 279 </s>
-0.3010 <s> 28 </s>
-0.3010 <s> 280 </s>
-0.3010 <s> 281 </s>
-0.3010 <s> 282 </s>
-0.3010 <s> 283 </s>
-0.3010 <s> 284 </s>
-0.3010 <s> 285 </s>
-0.3010 <s> 286 </s>
-0.3010 <s> 287 </s>
-0.3010 <s> 288 </s>
-0.3010 <s> 289 </s>
-0.3010 <s> 29 </s>
-0.3010 <s> 290 </s>
-0.3010 <s> 291 </s>
-0.3010 <s> 292 </s>
-0.3010 <s> 293 </s>
-0.3010 <s> 294 </s>
-0.3010 <s> 295 </s>
-0.3010 <s> 296 </s>
-0.3010 <s> 297 </s>
-0.3010 <s> 298 </s>
-0.3010 <s> 299 </s>
-0.3010 <s> 3 </s>
-0.3010 <s> 30 </s>
-0.3010 <s> 300 </s>
-0.3010 <s> 301 </s>
-0.3010 <s> 302 </s>
-0.3010 <s> 303 </s>
-0.3010 <s> 304 </s>
-0.3010 <s> 305 </s>
-0.3010 <s> 306 </s>
-0.3010 <s> 307 </s>
-0.3010 <s> 308 </s>
-0.3010 <s> 309 </s>
-0.3010 <s> 31 </s>
-0.3010 <s> 310 </s>
-0.3010 <s> 311 </s>
-0.3010 <s> 312 </s>
-0.3010 <s> 313 </s>
-0.3010 <s> 314 </s>
-0.3010 <s> 315 </s>
-0.3010 <s> 316 </s>
-0.3010 <s> 317 </s>
-0.3010 <s> 318 </s>
-0.3010 <s> 319 </s>
-0.3010 <s> 32 </s>
-0.3010 <s> 320 </s>
-0.3010 <s> 321 </s>
-0.3010 <s> 322 </s>
-0.3010 <s> 323 </s>
-0.3010 <s> 324 </s>
-0.3010 <s> 325 </s>
-0.3010 <s> 326 </s>
-0.3010 <s> 327 </s>
-0.3010 <s> 328 </s>
-0.3010 <s> 329 </s>
-0.3010 <s> 33 </s>
-0.3010 <s> 330 </s>
-0.3010 <s> 331 </s>
-0.3010 <s> 332 </s>
-0.3010 <s> 333 </s>
-0.3010 <s> 334 </s>
-0.3010 <s> 335 </s>
-0.3010 <s> 336 </s>
-0.3010 <s> 337 </s>
-0.3010 <s> 338 </s>
-0.3010 <s> 339 </s>
-0.3010 <s> 34 </s>
-0.3010 <s> 340 </s>
-0.3010 <s> 341 </s>
-0.3010 <s> 342 </s>
-0.3010 <s> 343 </s>
-0.3010 <s> 344 </s>
-0.3010 <s> 345 </s>
-0.3010 <s> 346 </s>
-0.3010 <s> 347 </s>
-0.3010 <s> 348 </s>
-0.3010 <s> 349 </s>
-0.3010 <s> 35 </s>
-0.3010 <s> 350 </s>
-0.3010 <s> 351 </s>
-0.3010 <s> 352 </s>
-0.3010 <s> 353 </s>
-0.3010 <s> 354 </s>
-0.3010 <s> 355 </s>
-0.3010 <s> 356 </s>
-0.3010 <s> 357 </s>
-0.3010 <s> 358 </s>
-0.3010 <s> 359 </s>
-0.3010 <s> 36 </s>
-0.3010 <s> 360 </s>
-0.3010 <s> 361 </s>
-0.3010 <s> 362 </s>
-0.3010 <s> 363 </s>
-0.3010 <s> 364 </s>
-0.3010 <s> 365 </s>
-0.3010 <s> 366 </s>
-0.3010 <s> 367 </s>
-0.3010 <s> 368 </s>
-0.3010 <s> 369 </s>
-0.3010 <s> 37 </s>
-0.3010 <s> 370 </s>
-0.3010 <s> 371 </s>
-0.3010 <s> 372 </s>
-0.3010 <s> 373 </s>
-0.3010 <s> 374 </s>
-0.3010 <s> 375 </s>
-0.3010 <s> 376 </s>
-0.3010 <s> 377 </s>
-0.3010 <s> 378 </s>
-0.3010 <s> 379 </s>
-0.3010 <s> 38 </s>
-0.3010 <s> 380 </s>
-0.3010 <s> 381 </s>
-0.3010 <s> 382 </s>
-0.3010 <s> 383 </s>
-0.3010 <s> 384 </s>
-0.3010 <s> 385 </s>
-0.3010 <s> 386 </s>
-0.3010 <s> 387 </s>
-0.3010 <s> 388 </s>
-0.3010 <s> 389 </s>
-0.3010 <s> 39 </s>
-0.3010 <s> 390 </s>
-0.3010 <s> 391 </s>
-0.3010 <s> 392 </s>
-0.3010 <s> 393 </s>
-0.3010 <s> 394 </s>
-0.3010 <s> 395 </s>
-0.3010 <s> 396 </s>
-0.3010 <s> 397 </s>
-0.3010 <s> 398 </s>
-0.3010 <s> 399 </s>
-0.3010 <s> 4 </s>
-0.3010 <s> 40 </s>
-0.3010 <s> 400 </s>
-0.3010 <s> 401 </s>
-0.3010 <s> 402 </s>
-0.3010 <s> 403 </s>
-0.3010 <s> 404 </s>
-0.3010 <s> 405 </s>
-0.3010 <s> 406 </s>
-0.3010 <s> 407 </s>
-0.3010 <s> 408 </s>
-0.3010 <s> 409 </s>
-0.3010 <s> 41 </s>
-0.3010 <s> 410 </s>
-0.3010 <s> 411 </s>
-0.3010 <s> 412 </s>
-0.3010 <s> 413 </s>
-0.3010 <s> 414 </s>
-0.3010 <s> 415 </s>
-0.3010 <s> 416 </s>
-0.3010 <s> 417 </s>
-0.3010 <s> 418 </s>
-0.3010 <s> 419 </s>
-0.3010 <s> 42 </s>
-0.3010 <s> 420 </s>
-0.3010 <s> 421 </s>
-0.3010 <s> 422 </s>
-0.3010 <s> 423 </s>
-0.3010 <s> 424 </s>
-0.3010 <s> 425 </s>
-0.3010 <s> 426 </s>
-0.3010 <s> 427 </s>
-0.3010 <s> 428 </s>
-0.3010 <s> 429 </s>
-0.3010 <s> 43 </s>
-0.3010 <s> 430 </s>
-0.3010 <s> 431 </s>
-0.3010 <s> 432 </s>
-0.3010 <s> 433 </s>
-0.3010 <s> 434 </s>
-0.3010 <s> 435 </s>
-0.3010 <s> 436 </s>
-0.3010 <s> 437 </s>
-0.3010 <s> 438 </s>
-0.3010 <s> 439 </s>
-0.3010 <s> 44 </s>
-0.3010 <s> 440 </s>
-0.3010 <s> 441 </s>
-0.3010 <s> 442 </s>
-0.3010 <s> 443 </s>
-0.3010 <s> 444 </s>
-0.3010 <s> 445 </s>
-0.3010 <s> 446 </s>
-0.3010 <s> 447 </s>
-0.3010 <s> 448 </s>
-0.3010 <s> 449 </s>
-0.3010 <s> 45 </s>
-0.3010 <s> 450 </s>
-0.3010 <s> 451 </s>
-0.3010 <s> 452 </s>
-0.3010 <s> 453 </s>
-0.3010 <s> 454 </s>
-0.3010 <s> 455 </s>
-0.3010 <s> 456 </s>
-0.3010 <s> 457 </s>
-0.3010 <s> 458 </s>
-0.3010 <s> 459 </s>
-0.3010 <s> 46 </s>
-0.3010 <s> 460 </s>
-0.3010 <s> 461 </s>
-0.3010 <s> 462 </s>
-0.3010 <s> 463 </s>
-0.3010 <s> 464 </s>
-0.3010 <s> 465 </s>
-0.3010 <s> 466 </s>
-0.3010 <s> 467 </s>
-0.3010 <s> 468 </s>
-0.3010 <s> 469 </s>
-0.3010 <s> 47 </s>
-0.3010 <s> 470 </s>
-0.3010 <s> 471 </s>
-0.3010 <s> 472 </s>
-0.3010 <s> 473 </s>
-0.3010 <s> 474 </s>
-0.3010 <s> 475 </s>
-0.3010 <s> 476 </s>
-0.3010 <s> 477 </s>
-0.3010 <s> 478 </s>
-0.3010 <s> 479 </s>
-0.3010 <s> 48 </s>
-0.3010 <s> 480 </s>
-0.3010 <s> 481 </s>
-0.3010 <s> 482 </s>
-0.3010 <s> 483 </s>
-0.3010 <s> 484 </s>
-0.3010 <s> 485 </s>
-0.3010 <s> 486 </s>
-0.3010 <s> 487 </s>
-0.3010 <s> 488 </s>
-0.3010 <s> 489 </s>
-0.3010 <s> 49 </s>
-0.3010 <s> 490 </s>
-0.3010 <s> 491 </s>
-0.3010 <s> 492 </s>
-0.3010 <s> 493 </s>
-0.3010 <s> 494 </s>
-0.3010 <s> 495 </s>
-0.3010 <s> 496 </s>
-0.3010 <s> 497 </s>
-0.3010 <s> 498 </s>
-0.3010 <s> 499 </s>
-0.3010 <s> 5 </s>
-0.3010 <s> 50 </s>
-0.3010 <s> 500 </s>
-0.3010 <s> 501 </s>
-0.3010 <s> 502 </s>
-0.3010 <s> 503 </s>
-0.3010 <s> 504 </s>
-0.3010 <s> 505 </s>
-0.3010 <s> 506 </s>
-0.3010 <s> 507 </s>
-0.3010 <s> 508 </s>
-0.3010 <s> 509 </s>
-0.3010 <s> 51 </s>
-0.3010 <s> 510 </s>
-0.3010 <s> 511 </s>
-0.3010 <s> 512 </s>
-0.3010 <s> 513 </s>
-0.3010 <s> 514 </s>
-0.3010 <s> 515 </s>
-0.3010 <s> 516 </s>
-0.3010 <s> 517 </s>
-0.3010 <s> 518 </s>
-0.3010 <s> 519 </s>
-0.3010 <s> 52 </s>
-0.3010 <s> 520 </s>
-0.3010 <s> 521 </s>
-0.3010 <s> 522 </s>
-0.3010 <s> 523 </s>
-0.3010 <s> 524 </s>
-0.3010 <s> 525 </s>
-0.3010 <s> 526 </s>
-0.3010 <s> 527 </s>
-0.3010 <s> 528 </s>
-0.3010 <s> 529 </s>
-0.3010 <s> 53 </s>
-0.3010 <s> 530 </s>
-0.3010 <s> 531 </s>
-0.3010 <s> 532 </s>
-0.3010 <s> 533 </s>
-0.3010 <s> 534 </s>
-0.3010 <s> 535 </s>
-0.3010 <s> 536 </s>
-0.3010 <s> 537 </s>
-0.3010 <s> 538 </s>
-0.3010 <s> 539 </s>
-0.3010 <s> 54 </s>
-0.3010 <s> 540 </s>
-0.3010 <s> 541 </s>
-0.3010 <s> 542 </s>
-0.3010 <s> 543 </s>
-0.3010 <s> 544 </s>
-0.3010 <s> 545 </s>
-0.3010 <s> 546 </s>
-0.3010 <s> 547 </s>
-0.3010 <s> 548 </s>
-0.3010 <s> 549 </s>
-0.3010 <s> 55 </s>
-0.3010 <s> 550 </s>
-0.3010 <s> 551 </s>
-0.3010 <s> 552 </s>
-0.3010 <s> 553 </s>
-0.3010 <s> 554 </s>
-0.3010 <s> 555 </s>
-0.3010 <s> 556 </s>
-0.3010 <s> 557 </s>
-0.3010 <s> 558 </s>
-0.3010 <s> 559 </s>
-0.3010 <s> 56 </s>
-0.3010 <s> 560 </s>
-0.3010 <s> 561 </s>
-0.3010 <s> 562 </s>
-0.3010 <s> 563 </s>
-0.3010 <s> 564 </s>
-0.3010 <s> 565 </s>
-0.3010 <s> 566 </s>
-0.3010 <s> 567 </s>
-0.3010 <s> 568 </s>
-0.3010 <s> 569 </s>
-0.3010 <s> 57 </s>
-0.3010 <s> 570 </s>
-0.3010 <s> 571 </s>
-0.3010 <s> 572 </s>
-0.3010 <s> 573 </s>
-0.3010 <s> 574 </s>
-0.3010 <s> 575 </s>
-0.3010 <s> 576 </s>
-0.3010 <s> 577 </s>
-0.3010 <s> 578 </s>
-0.3010 <s> 579 </s>
-0.3010 <s> 58 </s>
-0.3010 <s> 580 </s>
-0.3010 <s> 581 </s>
-0.3010 <s> 582 </s>
-0.3010 <s> 583 </s>
-0.3010 <s> 584 </s>
-0.3010 <s> 585 </s>
-0.3010 <s> 586 </s>
-0.3010 <s> 587 </s>
-0.3010 <s> 588 </s>
-0.3010 <s> 589 </s>
-0.3010 <s> 59 </s>
-0.3010 <s> 590 </s>
-0.3010 <s> 591 </s>
-0.3010 <s> 592 </s>
-0.3010 <s> 593 </s>
-0.3010 <s> 594 </s>
-0.3010 <s> 595 </s>
-0.3010 <s> 596 </s>
-0.3010 <s> 597 </s>
-0.3010 <s> 598 </s>
-0.3010 <s> 599 </s>
-0.3010 <s> 6 </s>
-0.3010 <s> 60 </s>
-0.3010 <s> 600 </s>
-0.3010 <s> 601 </s>
-0.3010 <s> 602 </s>
-0.3010 <s> 603 </s>
-0.3010 <s> 604 </s>
-0.3010 <s> 605 </s>
-0.3010 <s> 606 </s>
-0.3010 <s> 607 </s>
-0.3010 <s> 608 </s>
-0.3010 <s> 609 </s>
-0.3010 <s> 61 </s>
-0.3010 <s> 610 </s>
-0.3010 <s> 611 </s>
-0.3010 <s> 612 </s>
-0.3010 <s> 613 </s>
-0.3010 <s> 614 </s>
-0.3010 <s> 615 </s>
-0.3010 <s> 616 </s>
-0.3010 <s> 617 </s>
-0.3010 <s> 618 </s>
-0.3010 <s> 619 </s>
-0.3010 <s> 62 </s>
-0.3010 <s> 620 </s>
-0.3010 <s> 621 </s>
-0.3010 <s> 622 </s>
-0.3010 <s> 623 </s>
-0.3010 <s> 624 </s>
-0.3010 <s> 625 </s>
-0.3010 <s> 626 </s>
-0.3010 <s> 627 </s>
-0.3010 <s> 628 </s>
-0.3010 <s> 629 </s>
-0.3010 <s> 63 </s>
-0.3010 <s> 630 </s>
-0.3010 <s> 631 </s>
-0.3010 <s> 632 </s>
-0.3010 <s> 633 </s>
-0.3010 <s> 634 </s>
-0.3010 <s> 635 </s>
-0.3010 <s> 636 </s>
-0.3010 <s> 637 </s>
-0.3010 <s> 638 </s>
-0.3010 <s> 639 </s>
-0.3010 <s> 64 </s>
-0.3010 <s> 640 </s>
-0.3010 <s> 641 </s>
-0.3010 <s> 642 </s>
-0.3010 <s> 643 </s>
-0.3010 <s> 644 </s>
-0.3010 <s> 645 </s>
-0.3010 <s> 646 </s>
-0.3010 <s> 647 </s>
-0.3010 <s> 648 </s>
-0.3010 <s> 649 </s>
-0.3010 <s> 65 </s>
-0.3010 <s> 650 </s>
-0.3010 <s> 651 </s>
-0.3010 <s> 652 </s>
-0.3010 <s> 653 </s>
-0.3010 <s> 654 </s>
-0.3010 <s> 655 </s>
-0.3010 <s> 656 </s>
-0.3010 <s> 657 </s>
-0.3010 <s> 658 </s>
-0.3010 <s> 659 </s>
-0.3010 <s> 66 </s>
-0.3010 <s> 660 </s>
-0.3010 <s> 661 </s>
-0.3010 <s> 662 </s>
-0.3010 <s> 663 </s>
-0.3010 <s> 664 </s>
-0.3010 <s> 665 </s>
-0.3010 <s> 666 </s>
-0.3010 <s> 667 </s>
-0.3010 <s> 668 </s>
-0.3010 <s> 669 </s>
-0.3010 <s> 67 </s>
-0.3010 <s> 670 </s>
-0.3010 <s> 671 </s>
-0.3010 <s> 672 </s>
-0.3010 <s> 673 </s>
-0.3010 <s> 674 </s>
-0.3010 <s> 675 </s>
-0.3010 <s> 676 </s>
-0.3010 <s> 677 </s>
-0.3010 <s> 678 </s>
-0.3010 <s> 679 </s>
-0.3010 <s> 68 </s>
-0.3010 <s> 680 </s>
-0.3010 <s> 681 </s>
-0.3010 <s> 682 </s>
-0.3010 <s> 683 </s>
-0.3010 <s> 684 </s>
-0.3010 <s> 685 </s>
-0.3010 <s> 686 </s>
-0.3010 <s> 687 </s>
-0.3010 <s> 688 </s>
-0.3010 <s> 689 </s>
-0.3010 <s> 69 </s>
-0.3010 <s> 690 </s>
-0.3010 <s> 691 </s>
-0.3010 <s> 692 </s>
-0.3010 <s> 693 </s>
-0.3010 <s> 694 </s>
-0.3010 <s> 695 </s>
-0.3010 <s> 696 </s>
-0.3010 <s> 697 </s>
-0.3010 <s> 698 </s>
-0.3010 <s> 699 </s>
-0.3010 <s> 7 </s>
-0.3010 <s> 70 </s>
-0.3010 <s> 700 </s>
-0.3010 <s> 701 </s>
-0.3010 <s> 702 </s>
-0.3010 <s> 703 </s>
-0.3010 <s> 704 </s>
-0.3010 <s> 705 </s>
-0.3010 <s> 706 </s>
-0.3010 <s> 707 </s>
-0.3010 <s> 708 </s>
-0.3010 <s> 709 </s>
-0.3010 <s> 71 </s>
-0.3010 <s> 710 </s>
-0.3010 <s> 711 </s>
-0.3010 <s> 712 </s>
-0.3010 <s> 713 </s>
-0.3010 <s> 714 </s>
-0.3010 <s> 715 </s>
-0.3010 <s> 716 </s>
-0.3010 <s> 717 </s>
-0.3010 <s> 718 </s>
-0.3010 <s> 719 </s>
-0.3010 <s> 72 </s>
-0.3010 <s> 720 </s>
-0.3010 <s> 721 </s>
-0.3010 <s> 722 </s>
-0.3010 <s> 723 </s>
-0.3010 <s> 724 </s>
-0.3010 <s> 725 </s>
-0.3010 <s> 726 </s>
-0.3010 <s> 727 </s>
-0.3010 <s> 728 </s>
-0.3010 <s> 729 </s>
-0.3010 <s> 73 </s>
-0.3010 <s> 730 </s>
-0.3010 <s> 731 </s>
-0.3010 <s> 732 </s>
-0.3010 <s> 733 </s>
-0.3010 <s> 734 </s>
-0.3010 <s> 735 </s>
-0.3010 <s> 736 </s>
-0.3010 <s> 737 </s>
-0.3010 <s> 738 </s>
-0.3010 <s> 739 </s>
-0.3010 <s> 74 </s>
-0.3010 <s> 740 </s>
-0.3010 <s> 741 </s>
-0.3010 <s> 742 </s>
-0.3010 <s> 743 </s>
-0.3010 <s> 744 </s>
-0.3010 <s> 745 </s>
-0.3010 <s> 746 </s>
-0.3010 <s> 747 </s>
-0.3010 <s> 748 </s>
-0.3010 <s> 749 </s>
-0.3010 <s> 75 </s>
-0.3010 <s> 750 </s>
-0.3010 <s> 751 </s>
-0.3010 <s> 752 </s>
-0.3010 <s> 753 </s>
-0.3010 <s> 754 </s>
-0.3010 <s> 755 </s>
-0.3010 <s> 756 </s>
-0.3010 <s> 757 </s>
-0.3010 <s> 758 </s>
-0.3010 <s> 759 </s>
-0.3010 <s> 76 </s>
-0.3010 <s> 760 </s>
-0.3010 <s> 761 </s>
-0.3010 <s> 762 </s>
-0.3010 <s> 763 </s>
-0.3010 <s> 764 </s>
-0.3010 <s> 765 </s>
-0.3010 <s> 766 </s>
-0.3010 <s> 767 </s>
-0.3010 <s> 768 </s>
-0.3010 <s> 769 </s>
-0.3010 <s> 77 </s>
-0.3010 <s> 770 </s>
-0.3010 <s> 771 </s>
-0.3010 <s> 772 </s>
-0.3010 <s> 773 </s>
-0.3010 <s> 774 </s>
-0.3010 <s> 775 </s>
-0.3010 <s> 776 </s>
-0.3010 <s> 777 </s>
-0.3010 <s> 778 </s>
-0.3010 <s> 779 </s>
-0.3010 <s> 78 </s>
-0.3010 <s> 780 </s>
-0.3010 <s> 781 </s>
-0.3010 <s> 782 </s>
-0.3010 <s> 783 </s>
-0.3010 <s> 784 </s>
-0.3010 <s> 785 </s>
-0.3010 <s> 786 </s>
-0.3010 <s> 787 </s>
-0.3010 <s> 788 </s>
-0.3010 <s> 789 </s>
-0.3010 <s> 79 </s>
-0.3010 <s> 790 </s>
-0.3010 <s> 791 </s>
-0.3010 <s> 792 </s>
-0.3010 <s> 793 </s>
-0.3010 <s> 794 </s>
-0.3010 <s> 795 </s>
-0.3010 <s> 796 </s>
-0.3010 <s> 797 </s>
-0.3010 <s> 798 </s>
-0.3010 <s> 799 </s>
-0.3010 <s> 8 </s>
-0.3010 <s> 80 </s>
-0.3010 <s> 800 </s>
-0.3010 <s> 801 </s>
-0.3010 <s> 802 </s>
-0.3010 <s> 803 </s>
-0.3010 <s> 804 </s>
-0.3010 <s> 805 </s>
-0.3010 <s> 806 </s>
-0.3010 <s> 807 </s>
-0.3010 <s> 808 </s>
-0.3010 <s> 809 </s>
-0.3010 <s> 81 </s>
-0.3010 <s> 810 </s>
-0.3010 <s> 811 </s>
-0.3010 <s> 812 </s>
-0.3010 <s> 813 </s>
-0.3010 <s> 814 </s>
-0.3010 <s> 815 </s>
-0.3010 <s> 816 </s>
-0.3010 <s> 817 </s>
-0.3010 <s> 818 </s>
-0.3010 <s> 819 </s>
-0.3010 <s> 82 </s>
-0.3010 <s> 820 </s>
-0.3010 <s> 821 </s>
-0.3010 <s> 822 </s>
-0.3010 <s> 823 </s>
-0.3010 <s> 824 </s>
-0.3010 <s> 825 </s>
-0.3010 <s> 826 </s>
-0.3010 <s> 827 </s>
-0.3010 <s> 828 </s>
-0.3010 <s> 829 </s>
-0.3010 <s> 83 </s>
-0.3010 <s> 830 </s>
-0.3010 <s> 831 </s>
-0.3010 <s> 832 </s>
-0.3010 <s> 833 </s>
-0.3010 <s> 834 </s>
-0.3010 <s> 835 </s>
-0.3010 <s> 836 </s>
-0.3010 <s> 837 </s>
-0.3010 <s> 838 </s>
-0.3010 <s> 839 </s>
-0.3010 <s> 84 </s>
-0.3010 <s> 840 </s>
-0.3010 <s> 841 </s>
-0.3010 <s> 842 </s>
-0.3010 <s> 843 </s>
-0.3010 <s> 844 </s>
-0.3010 <s> 845 </s>
-0.3010 <s> 846 </s>
-0.3010 <s> 847 </s>
-0.3010 <s> 848 </s>
-0.3010 <s> 849 </s>
-0.3010 <s> 85 </s>
-0.3010 <s> 850 </s>
-0.3010 <s> 851 </s>
-0.3010 <s> 852 </s>
-0.3010 <s> 853 </s>
-0.3010 <s> 854 </s>
-0.3010 <s> 855 </s>
-0.3010 <s> 856 </s>
-0.3010 <s> 857 </s>
-0.3010 <s> 858 </s>
-0.3010 <s> 859 </s>
-0.3010 <s> 86 </s>
-0.3010 <s> 860 </s>
-0.3010 <s> 861 </s>
-0.3010 <s> 862 </s>
-0.3010 <s> 863 </s>
-0.3010 <s> 864 </s>
-0.3010 <s> 865 </s>
-0.3010 <s> 866 </s>
-0.3010 <s> 867 </s>
-0.3010 <s> 868 </s>
-0.3010 <s> 869 </s>
-0.3010 <s> 87 </s>
-0.3010 <s> 870 </s>
-0.3010 <s> 871 </s>
-0.3010 <s> 872 </s>
-0.3010 <s> 873 </s>
-0.3010 <s> 874 </s>
-0.3010 <s> 875 </s>
-0.3010 <s> 876 </s>
-0.3010 <s> 877 </s>
-0.3010 <s> 878 </s>
-0.3010 <s> 879 </s>
-0.3010 <s> 88 </s>
-0.3010 <s> 880 </s>
-0.3010 <s> 881 </s>
-0.3010 <s> 882 </s>
-0.3010 <s> 883 </s>
-0.3010 <s> 884 </s>
-0.3010 <s> 885 </s>
-0.3010 <s> 886 </s>
-0.3010 <s> 887 </s>
-0.3010 <s> 888 </s>
-0.3010 <s> 889 </s>
-0.3010 <s> 89 </s>
-0.3010 <s> 890 </s>
-0.3010 <s> 891 </s>
-0.3010 <s> 892 </s>
-0.3010 <s> 893 </s>
-0.3010 <s> 894 </s>
-0.3010 <s> 895 </s>
-0.3010 <s> 896 </s>
-0.3010 <s> 897 </s>
-0.3010 <s> 898 </s>
-0.3010 <s> 899 </s>
-0.3010 <s> 9 </s>
-0.3010 <s> 90 </s>
-0.3010 <s> 900 </s>
-0.3010 <s> 901 </s>
-0.3010 <s> 902 </s>
-0.3010 <s> 903 </s>
-0.3010 <s> 904 </s>
-0.3010 <s> 905 </s>
-0.3010 <s> 906 </s>
-0.3010 <s> 907 </s>
-0.3010 <s> 908 </s>
-0.3010 <s> 909 </s>
-0.3010 <s> 91 </s>
-0.3010 <s> 910 </s>
-0.3010 <s> 911 </s>
-0.3010 <s> 912 </s>
-0.3010 <s> 913 </s>
-0.3010 <s> 914 </s>
-0.3010 <s> 915 </s>
-0.3010 <s> 916 </s>
-0.3010 <s> 917 </s>
-0.3010 <s> 918 </s>
-0.3010 <s> 919 </s>
-0.3010 <s> 92 </s>
-0.3010 <s> 920 </s>
-0.3010 <s> 921 </s>
-0.3010 <s> 922 </s>
-0.3010 <s> 923 </s>
-0.3010 <s> 924 </s>
-0.3010 <s> 925 </s>
-0.3010 <s> 926 </s>
-0.3010 <s> 927 </s>
-0.3010 <s> 928 </s>
-0.3010 <s> 929 </s>
-0.3010 <s> 93 </s>
-0.3010 <s> 930 </s>
-0.3010 <s> 931 </s>
-0.3010 <s> 932 </s>
-0.3010 <s> 933 </s>
-0.3010 <s> 934 </s>
-0.3010 <s> 935 </s>
-0.3010 <s> 936 </s>
-0.3010 <s> 937 </s>
-0.3010 <s> 938 </s>
-0.3010 <s> 939 </s>
-0.3010 <s> 94 </s>
-0.3010 <s> 940 </s>
-0.3010 <s> 941 </s>
-0.3010 <s> 942 </s>
-0.3010 <s> 943 </s>
-0.3010 <s> 944 </s>
-0.3010 <s> 945 </s>
-0.3010 <s> 946 </s>
-0.3010 <s> 947 </s>
-0.3010 <s> 948 </s>
-0.3010 <s> 949 </s>
-0.3010 <s> 95 </s>
-0.3010 <s> 950 </s>
-0.3010 <s> 951 </s>
-0.3010 <s> 952 </s>
-0.3010 <s> 953 </s>
-0.3010 <s> 954 </s>
-0.3010 <s> 955 </s>
-0.3010 <s> 956 </s>
-0.3010 <s> 957 </s>
-0.3010 <s> 958 </s>
-0.3010 <s> 959 </s>
-0.3010 <s> 96 </s>
-0.3010 <s> 960 </s>
-0.3010 <s> 961 </s>
-0.3010 <s> 962 </s>
-0.3010 <s> 963 </s>
-0.3010 <s> 964 </s>
-0.3010 <s> 965 </s>
-0.3010 <s> 966 </s>
-0.3010 <s> 967 </s>
-0.3010 <s> 968 </s>
-0.3010 <s> 969 </s>
-0.3010 <s> 97 </s>
-0.3010 <s> 970 </s>
-0.3010 <s> 971 </s>
-0.3010 <s> 972 </s>
-0.3010 <s> 973 </s>
-0.3010 <s> 974 </s>
-0.3010 <s> 975 </s>
-0.3010 <s> 976 </s>
-0.3010 <s> 977 </s>
-0.3010 <s> 978 </s>
-0.3010 <s> 979 </s>
-0.3010 <s> 98 </s>
-0.3010 <s> 980 </s>
-0.3010 <s> 981 </s>
-0.3010 <s> 982 </s>
-0.3010 <s> 983 </s>
-0.3010 <s> 984 </s>
-0.3010 <s> 985 </s>
-0.3010 <s> 986 </s>
-0.3010 <s> 987 </s>
-0.3010 <s> 988 </s>
-0.3010 <s> 989 </s>
-0.3010 <s> 99 </s>
-0.3010 <s> 990 </s>
-0.3010 <s> 991 </s>
-0.3010 <s> 992 </s>
-0.3010 <s> 993 </s>
-0.3010 <s> 994 </s>
-0.3010 <s> 995 </s>
-0.3010 <s> 996 </s>
-0.3010 <s> 997 </s>
-0.3010 <s> 998 </s>
-0.3010 <s> 999 </s>
-0.3010 <s> BACKWARD </s>
-0.3010 <s> DIX </s>
-0.3010 <s> DIXON </s>
-0.3010 <s> DOOR </s>
-0.3010 <s> DOWN </s>
-0.3010 <s> FENN </s>
-0.3010 <s> FH </s>
-0.3010 <s> FORWARD </s>
-0.3010 <s> GO </s>
-0.3010 <s> HALL </s>
-0.3010 <s> HALT </s>
-0.3010 <s> HEAD </s>
-0.3010 <s> HEY </s>
-0.3010 <s> HUNDRED </s>
-0.3010 <s> LEFT </s>
-0.3010 <s> MOVE </s>
-0.3010 <s> OFFICE </s>
-0.3010 <s> PLEASE </s>
-0.3010 <s> RIGHT </s>
-0.3010 <s> ROOM </s>
-0.3010 <s> ROTATE </s>
-0.3010 <s> SLOW </s>
-0.3010 <s> SPEED </s>
-0.3010 <s> STOP </s>
-0.3010 <s> TO </s>
-0.3010 <s> TURN </s>
-0.3010 <s> UP </s>
-0.3010 <s> YO </s>

\end\
